{"learner":{"attributes":{"best_iteration":"0","best_score":"0.4513196075942681","scikit_learn":"{\"_estimator_type\": \"regressor\"}"},"feature_names":[],"feature_types":[],"gradient_booster":{"model":{"cats":{"enc":[],"feature_segments":[],"sorted_idx":[]},"gbtree_model_param":{"num_parallel_tree":"1","num_trees":"31"},"iteration_indptr":[0,1,2,3,4,5,6,7,8,9,10,11,12,13,14,15,16,17,18,19,20,21,22,23,24,25,26,27,28,29,30,31],"tree_info":[0,0,0,0,0,0,0,0,0,0,0,0,0,0,0,0,0,0,0,0,0,0,0,0,0,0,0,0,0,0,0],"trees":[{"base_weights":[-4.29853E-3,1.2615113E0,-1.7139986E-1,1.9880744E-2,7.6377355E-2,-1.137563E-1,-8.719117E-2,-5.856951E-2,-2.0395407E-2,1.5035299E-2,-5.933644E-3],"categories":[],"categories_nodes":[],"categories_segments":[],"categories_sizes":[],"default_left":[0,0,0,0,0,0,0,0,0,0,0],"id":0,"left_children":[1,3,5,-1,-1,-1,7,-1,9,-1,-1],"loss_changes":[1.2695817E1,1.0014153E0,9.190686E0,0E0,0E0,0E0,3.741944E0,0E0,1.613537E0,0E0,0E0],"parents":[2147483647,0,0,1,1,2,2,6,6,8,8],"right_children":[2,4,6,-1,-1,-1,8,-1,10,-1,-1],"split_conditions":[-3.7881627E0,-4.365005E-1,-1.6378675E0,1.9880744E-2,7.6377355E-2,-1.137563E-1,-1.0806925E0,-5.856951E-2,-7.186566E-2,1.5035299E-2,-5.933644E-3],"split_indices":[77,4,37,0,0,0,44,0,1,0,0],"split_type":[0,0,0,0,0,0,0,0,0,0,0],"sum_hessian":[5.8E1,6E0,5.2E1,2E0,4E0,1E0,5.1E1,2E0,4.9E1,1.1E1,3.8E1],"tree_param":{"num_deleted":"0","num_feature":"93","num_nodes":"11","size_leaf_vector":"1"}},{"base_weights":[3.8733482E-2,-1.8152004E0,1.4101252E-1,-1.1091238E-1,-2.5227651E-2,-5.8460873E-2,7.1511227E-1,-4.3674473E-2,5.7326276E-3,3.3695754E-1,7.881299E-2,-3.3534297E-3,2.5709732E-2,-8.336264E-3,2.3370605E-2],"categories":[],"categories_nodes":[],"categories_segments":[],"categories_sizes":[],"default_left":[0,0,0,0,0,0,0,0,0,0,0,0,0,0,0],"id":1,"left_children":[1,3,5,-1,-1,7,9,-1,11,13,-1,-1,-1,-1,-1],"loss_changes":[1.0874607E1,4.6553516E-1,6.225758E0,0E0,0E0,2.1501083E0,4.0279255E0,0E0,1.4781357E0,8.0071425E-1,0E0,0E0,0E0,0E0,0E0],"parents":[2147483647,0,0,1,1,2,2,5,5,6,6,8,8,9,9],"right_children":[2,4,6,-1,-1,8,10,-1,12,14,-1,-1,-1,-1,-1],"split_conditions":[-1.5474067E1,-3.1054923E-1,1.5231489E0,-1.1091238E-1,-2.5227651E-2,-1.0806925E0,1.1545156E1,-4.3674473E-2,1.2413672E0,-8.959259E-1,7.881299E-2,-3.3534297E-3,2.5709732E-2,-8.336264E-3,2.3370605E-2],"split_indices":[73,0,68,0,0,44,73,0,57,44,0,0,0,0,0],"split_type":[0,0,0,0,0,0,0,0,0,0,0,0,0,0,0],"sum_hessian":[5.5E1,2E0,5.3E1,1E0,1E0,4E1,1.3E1,2E0,3.8E1,1E1,3E0,3.4E1,4E0,2E0,8E0],"tree_param":{"num_deleted":"0","num_feature":"93","num_nodes":"15","size_leaf_vector":"1"}},{"base_weights":[-1.9713076E-2,-1.3305753E-1,1.140343E0,-6.5173876E-1,9.346164E-3,8.211252E-2,3.0215174E-2,-8.275165E-1,9.2840575E-2,-2.6449895E-1,1.0621553E-1,-4.8564862E-2,-2.0248316E-2,1.297191E-2,-6.0088667E-3,2.042907E-3,-1.9205756E-2,9.768084E-3,-1.1366861E-2],"categories":[],"categories_nodes":[],"categories_segments":[],"categories_sizes":[],"default_left":[0,0,0,0,0,0,0,0,0,0,0,0,0,0,0,0,0,0,0],"id":2,"left_children":[1,3,5,7,9,-1,-1,11,13,15,17,-1,-1,-1,-1,-1,-1,-1,-1],"loss_changes":[7.3834567E0,3.77306E0,3.527937E-1,1.5165119E0,1.1157092E0,0E0,0E0,1.534481E-1,1.3764341E-1,4.174763E-1,9.6619624E-1,0E0,0E0,0E0,0E0,0E0,0E0,0E0,0E0],"parents":[2147483647,0,0,1,1,2,2,3,3,4,4,7,7,8,8,9,9,10,10],"right_children":[2,4,6,8,10,-1,-1,12,14,16,18,-1,-1,-1,-1,-1,-1,-1,-1],"split_conditions":[3.62424E0,-4.51585E-1,-2.4019892E0,2.5081508E0,-6.651668E-1,8.211252E-2,3.0215174E-2,7.100386E-1,-4.2976934E-1,7.028219E-1,1.9411111E0,-4.8564862E-2,-2.0248316E-2,1.297191E-2,-6.0088667E-3,2.042907E-3,-1.9205756E-2,9.768084E-3,-1.1366861E-2],"split_indices":[81,44,1,83,83,0,0,73,0,0,88,0,0,0,0,0,0,0,0],"split_type":[0,0,0,0,0,0,0,0,0,0,0,0,0,0,0,0,0,0,0],"sum_hessian":[5.4E1,5E1,4E0,1E1,4E1,1E0,3E0,8E0,2E0,1E1,3E1,5E0,3E0,1E0,1E0,3E0,7E0,2.4E1,6E0],"tree_param":{"num_deleted":"0","num_feature":"93","num_nodes":"19","size_leaf_vector":"1"}},{"base_weights":[6.7412383E-3,9.384658E-2,-9.268766E-2,8.5485774E-1,-4.6225388E-2,2.6300147E-1,6.970569E-2,-7.262715E-1,6.807866E-2,2.2576705E-2,-3.8021263E-3,-1.6214961E-2,-5.235845E-2,-6.4559863E-3,1.19952485E-2],"categories":[],"categories_nodes":[],"categories_segments":[],"categories_sizes":[],"default_left":[0,0,0,0,0,0,0,0,0,0,0,0,0,0,0],"id":3,"left_children":[1,3,-1,5,7,9,-1,11,13,-1,-1,-1,-1,-1,-1],"loss_changes":[1.0869862E1,6.8616805E0,0E0,2.824967E0,4.324705E0,4.1786093E-1,0E0,6.9233894E-1,1.6574022E0,0E0,0E0,0E0,0E0,0E0,0E0],"parents":[2147483647,0,0,1,1,3,3,4,4,5,5,7,7,8,8],"right_children":[2,4,-1,6,8,10,-1,12,14,-1,-1,-1,-1,-1,-1],"split_conditions":[1.4858868E0,-3.7881627E0,-9.268766E-2,-3.1615245E-1,-6.468158E-1,-4.365005E-1,6.970569E-2,-1.135084E0,-6.430368E-1,2.2576705E-2,-3.8021263E-3,-1.6214961E-2,-5.235845E-2,-6.4559863E-3,1.19952485E-2],"split_indices":[48,77,0,4,44,4,0,27,80,0,0,0,0,0,0],"split_type":[0,0,0,0,0,0,0,0,0,0,0,0,0,0,0],"sum_hessian":[6.5E1,6.3E1,2E0,9E0,5.4E1,5E0,4E0,7E0,4.7E1,3E0,2E0,4E0,3E0,2.2E1,2.5E1],"tree_param":{"num_deleted":"0","num_feature":"93","num_nodes":"15","size_leaf_vector":"1"}},{"base_weights":[-6.894868E-2,1.4193968E-2,-1.7919613E0,7.0289776E-2,-5.4478135E-2,-1.06066585E-1,-2.8330518E-2,-2.1078025E-1,1.7902811E-1,-1.376422E-2,1.9510008E-2,1.2859019E-2,-2.3990773E-2],"categories":[],"categories_nodes":[],"categories_segments":[],"categories_sizes":[],"default_left":[0,0,0,0,0,0,0,0,0,0,0,0,0],"id":4,"left_children":[1,3,5,-1,7,-1,-1,9,11,-1,-1,-1,-1],"loss_changes":[9.337064E0,6.0971293E0,8.814812E-3,0E0,2.2640843E0,0E0,0E0,1.5417479E0,1.4106524E0,0E0,0E0,0E0,0E0],"parents":[2147483647,0,0,1,1,2,2,4,4,7,7,8,8],"right_children":[2,4,6,-1,8,-1,-1,10,12,-1,-1,-1,-1],"split_conditions":[1.4858868E0,-8.785207E0,-3.1054923E-1,7.0289776E-2,8.917235E-1,-1.06066585E-1,-2.8330518E-2,1.0839195E0,1.2701753E0,-1.376422E-2,1.9510008E-2,1.2859019E-2,-2.3990773E-2],"split_indices":[48,77,0,0,87,0,0,48,54,0,0,0,0],"split_type":[0,0,0,0,0,0,0,0,0,0,0,0,0],"sum_hessian":[6.4E1,6.2E1,2E0,2E0,6E1,1E0,1E0,3.6E1,2.4E1,3.3E1,3E0,2.2E1,2E0],"tree_param":{"num_deleted":"0","num_feature":"93","num_nodes":"13","size_leaf_vector":"1"}},{"base_weights":[4.3100446E-2,-1.0341493E-1,1.03675775E-1,8.112152E-1,-1.5975399E-2,2.6001346E-1,6.552072E-2,-2.9354168E-2,4.661775E-2,2.2246238E-2,-3.6603024E-3,-1.9667707E-3,1.7894728E-2],"categories":[],"categories_nodes":[],"categories_segments":[],"categories_sizes":[],"default_left":[0,0,0,0,0,0,0,0,0,0,0,0,0],"id":5,"left_children":[1,-1,3,5,7,9,-1,-1,11,-1,-1,-1,-1],"loss_changes":[9.167341E0,0E0,5.8543563E0,2.4108682E0,2.1722152E0,4.0226746E-1,0E0,0E0,1.4856154E0,0E0,0E0,0E0,0E0],"parents":[2147483647,0,0,2,2,3,3,4,4,5,5,8,8],"right_children":[2,-1,4,6,8,10,-1,-1,12,-1,-1,-1,-1],"split_conditions":[-1.6378675E0,-1.0341493E-1,-3.7881627E0,-3.1615245E-1,-1.3503709E0,-4.365005E-1,6.552072E-2,-2.9354168E-2,1.7476206E0,2.2246238E-2,-3.6603024E-3,-1.9667707E-3,1.7894728E-2],"split_indices":[37,0,77,4,63,4,0,0,87,0,0,0,0],"split_type":[0,0,0,0,0,0,0,0,0,0,0,0,0],"sum_hessian":[6.9E1,1E0,6.8E1,9E0,5.9E1,5E0,4E0,5E0,5.4E1,3E0,2E0,4.3E1,1.1E1],"tree_param":{"num_deleted":"0","num_feature":"93","num_nodes":"13","size_leaf_vector":"1"}},{"base_weights":[3.811702E-2,1.0581427E0,-5.5305615E-2,6.1991062E-2,8.285704E-3,-1.6997395E-1,5.49663E-1,-4.147538E-2,-1.0615331E-1,2.9668648E-2,4.9995864E-3,-2.813108E-2,-1.660277E-3],"categories":[],"categories_nodes":[],"categories_segments":[],"categories_sizes":[],"default_left":[0,0,0,0,0,0,0,0,0,0,0,0,0],"id":6,"left_children":[1,3,5,-1,-1,7,9,-1,11,-1,-1,-1,-1],"loss_changes":[5.680836E0,6.0521984E-1,3.9088197E0,0E0,0E0,1.8902625E0,1.17563486E-1,0E0,1.4464447E0,0E0,0E0,0E0,0E0],"parents":[2147483647,0,0,1,1,2,2,5,5,6,6,8,8],"right_children":[2,4,6,-1,-1,8,10,-1,12,-1,-1,-1,-1],"split_conditions":[-8.613417E-1,-4.9541396E-1,8.7496924E-1,6.1991062E-2,8.285704E-3,-1.1682054E1,6.931929E-1,-4.147538E-2,-1.3503709E0,2.9668648E-2,4.9995864E-3,-2.813108E-2,-1.660277E-3],"split_indices":[46,2,92,0,0,75,1,0,63,0,0,0,0],"split_type":[0,0,0,0,0,0,0,0,0,0,0,0,0],"sum_hessian":[5.8E1,4E0,5.4E1,3E0,1E0,4.6E1,8E0,3E0,4.3E1,7E0,1E0,5E0,3.8E1],"tree_param":{"num_deleted":"0","num_feature":"93","num_nodes":"13","size_leaf_vector":"1"}},{"base_weights":[-3.2343466E-2,-1.0078805E-1,3.543922E-2,2.1093915E-1,-4.1055706E-1,4.6879974E-1,6.5275505E-3,-5.023241E-2,-7.929841E-2,2.970276E-3,3.2659065E-2,-5.6714076E-3,2.54518E-2,-1.5957016E-2,6.8804356E-3],"categories":[],"categories_nodes":[],"categories_segments":[],"categories_sizes":[],"default_left":[0,0,0,0,0,0,0,0,0,0,0,0,0,0,0],"id":7,"left_children":[1,-1,3,5,7,9,11,-1,13,-1,-1,-1,-1,-1,-1],"loss_changes":[8.137918E0,0E0,4.7046695E0,2.2634573E0,3.2658966E0,1.3954067E0,1.5647079E0,0E0,6.681975E-1,0E0,0E0,0E0,0E0,0E0,0E0],"parents":[2147483647,0,0,2,2,3,3,4,4,5,5,6,6,8,8],"right_children":[2,-1,4,6,8,10,12,-1,14,-1,-1,-1,-1,-1,-1],"split_conditions":[-1.6378675E0,-1.0078805E-1,7.279161E-1,-6.1347857E-2,-4.51585E-1,-7.223033E-1,3.090359E-1,-5.023241E-2,-5.6948032E-2,2.970276E-3,3.2659065E-2,-5.6714076E-3,2.54518E-2,-1.5957016E-2,6.8804356E-3],"split_indices":[37,0,90,3,44,62,24,0,63,0,0,0,0,0,0],"split_type":[0,0,0,0,0,0,0,0,0,0,0,0,0,0,0],"sum_hessian":[5.9E1,1E0,5.8E1,4.2E1,1.6E1,1.8E1,2.4E1,5E0,1.1E1,6E0,1.2E1,2E1,4E0,5E0,6E0],"tree_param":{"num_deleted":"0","num_feature":"93","num_nodes":"15","size_leaf_vector":"1"}},{"base_weights":[-5.1915575E-2,-9.8268345E-2,1.4960601E-2,2.7914786E-1,-1.7973477E-1,4.2984385E-2,5.314096E-1,-4.2594783E-2,-5.559464E-1,-5.263557E-3,2.199705E-2,3.4084715E-2,-7.3337853E-3,-1.6248336E-2,6.300597E-3,-3.9097415E-3,-4.6125438E-2],"categories":[],"categories_nodes":[],"categories_segments":[],"categories_sizes":[],"default_left":[0,0,0,0,0,0,0,0,0,0,0,0,0,0,0,0,0],"id":8,"left_children":[1,-1,3,5,7,9,11,13,15,-1,-1,-1,-1,-1,-1,-1,-1],"loss_changes":[7.5792966E0,0E0,3.0334628E0,1.466533E0,1.7305042E0,8.702273E-1,1.3228581E0,1.2788047E0,1.5039954E0,0E0,0E0,0E0,0E0,0E0,0E0,0E0,0E0],"parents":[2147483647,0,0,2,2,3,3,4,4,5,5,6,6,7,7,8,8],"right_children":[2,-1,4,6,8,10,12,14,16,-1,-1,-1,-1,-1,-1,-1,-1],"split_conditions":[-1.6378675E0,-9.8268345E-2,-1.3171902E-1,-4.1304305E-1,1.1357291E0,4.400116E0,1.1407504E0,-5.6948032E-2,-8.541812E-1,-5.263557E-3,2.199705E-2,3.4084715E-2,-7.3337853E-3,-1.6248336E-2,6.300597E-3,-3.9097415E-3,-4.6125438E-2],"split_indices":[37,0,0,18,27,83,28,63,91,0,0,0,0,0,0,0,0],"split_type":[0,0,0,0,0,0,0,0,0,0,0,0,0,0,0,0,0],"sum_hessian":[5.8E1,1E0,5.7E1,2.4E1,3.3E1,1.3E1,1.1E1,2.5E1,8E0,1E1,3E0,9E0,2E0,9E0,1.6E1,4E0,4E0],"tree_param":{"num_deleted":"0","num_feature":"93","num_nodes":"17","size_leaf_vector":"1"}},{"base_weights":[-2.2693366E-2,5.4209903E-2,-1.6044632E0,9.118591E-1,-5.396428E-2,-9.5811635E-2,-2.4523104E-2,7.377572E-2,2.8599873E-2,-4.141759E-1,4.3291364E-2,1.7805658E-2,-3.0192254E-2,5.276572E-3,-1.8942885E-2],"categories":[],"categories_nodes":[],"categories_segments":[],"categories_sizes":[],"default_left":[0,0,0,0,0,0,0,0,0,0,0,0,0,0,0],"id":9,"left_children":[1,3,5,7,9,-1,-1,-1,-1,11,13,-1,-1,-1,-1],"loss_changes":[7.872147E0,5.8012886E0,1.02095604E-1,4.969635E-1,1.9797566E0,0E0,0E0,0E0,0E0,1.9682379E0,1.222338E0,0E0,0E0,0E0,0E0],"parents":[2147483647,0,0,1,1,2,2,3,3,4,4,9,9,10,10],"right_children":[2,4,6,8,10,-1,-1,-1,-1,12,14,-1,-1,-1,-1],"split_conditions":[1.4858868E0,-1.2652678E0,-3.1054923E-1,-2.4019892E0,-4.51585E-1,-9.5811635E-2,-2.4523104E-2,7.377572E-2,2.8599873E-2,-3.9218828E-1,1.0836164E0,1.7805658E-2,-3.0192254E-2,5.276572E-3,-1.8942885E-2],"split_indices":[48,22,0,1,44,0,0,0,0,58,44,0,0,0,0],"split_type":[0,0,0,0,0,0,0,0,0,0,0,0,0,0,0],"sum_hessian":[6.3E1,6.1E1,2E0,6E0,5.5E1,1E0,1E0,1E0,5E0,1.1E1,4.4E1,2E0,9E0,3.9E1,5E0],"tree_param":{"num_deleted":"0","num_feature":"93","num_nodes":"15","size_leaf_vector":"1"}},{"base_weights":[-1.8045738E-2,1.2773988E-1,-7.211724E-1,8.02962E-1,1.9317966E-2,-9.251397E-2,-3.10323E-1,7.1931325E-2,2.5331736E-2,-3.1904334E-1,1.2034341E-1,-3.1112388E-2,1.3347961E-3,-2.3075894E-2,4.0642596E-3,-1.8422436E-3,1.923901E-2,7.0621627E-3,-5.1965117E-3],"categories":[],"categories_nodes":[],"categories_segments":[],"categories_sizes":[],"default_left":[0,0,0,0,0,0,0,0,0,0,0,0,0,0,0,0,0,0,0],"id":10,"left_children":[1,3,5,7,9,-1,11,-1,-1,13,15,-1,17,-1,-1,-1,-1,-1,-1],"loss_changes":[7.1650186E0,4.230603E0,4.9925313E0,7.780595E-1,1.7817329E0,0E0,9.7296846E-1,0E0,0E0,7.219542E-1,1.6768318E0,0E0,1.0304425E-1,0E0,0E0,0E0,0E0,0E0,0E0],"parents":[2147483647,0,0,1,1,2,2,3,3,4,4,6,6,9,9,10,10,12,12],"right_children":[2,4,6,8,10,-1,12,-1,-1,14,16,-1,18,-1,-1,-1,-1,-1,-1],"split_conditions":[8.17718E-1,-1.3239204E0,-1.2376698E0,-2.470078E0,-6.5554535E-1,-9.251397E-2,1.0534808E-3,7.1931325E-2,2.5331736E-2,1.6376697E-1,-2.1381043E-1,-3.1112388E-2,-5.4471695E-1,-2.3075894E-2,4.0642596E-3,-1.8422436E-3,1.923901E-2,7.0621627E-3,-5.1965117E-3],"split_indices":[47,0,51,3,62,0,49,0,0,47,31,0,4,0,0,0,0,0,0],"split_type":[0,0,0,0,0,0,0,0,0,0,0,0,0,0,0,0,0,0,0],"sum_hessian":[6.8E1,5.7E1,1.1E1,7E0,5E1,2E0,9E0,1E0,6E0,1.1E1,3.9E1,4E0,5E0,8E0,3E0,2.5E1,1.4E1,2E0,3E0],"tree_param":{"num_deleted":"0","num_feature":"93","num_nodes":"19","size_leaf_vector":"1"}},{"base_weights":[-2.3484828E-3,-9.1103494E-2,6.044102E-2,7.421876E-1,-6.348219E-2,7.102943E-2,1.0659285E0,-4.141091E-1,5.8139708E-2,-6.631332E-3,9.156183E-3,7.0199125E-2,2.7295295E-2,1.5069474E-3,-3.4776576E-2,1.2639138E-2,-5.573288E-3],"categories":[],"categories_nodes":[],"categories_segments":[],"categories_sizes":[],"default_left":[0,0,0,0,0,0,0,0,0,0,0,0,0,0,0,0,0],"id":11,"left_children":[1,-1,3,5,7,9,11,13,15,-1,-1,-1,-1,-1,-1,-1,-1],"loss_changes":[6.851433E0,0E0,4.9472013E0,1.8798194E0,2.1562717E0,1.1560176E-1,2.88332E-1,1.6462402E0,1.2826526E0,0E0,0E0,0E0,0E0,0E0,0E0,0E0,0E0],"parents":[2147483647,0,0,2,2,3,3,4,4,5,5,6,6,7,7,8,8],"right_children":[2,-1,4,6,8,10,12,14,16,-1,-1,-1,-1,-1,-1,-1,-1],"split_conditions":[-1.6378675E0,-9.1103494E-2,-3.7881627E0,-7.034711E-1,-4.51585E-1,-4.69312E-1,-1.552073E0,-1.349622E0,-3.0169547E-1,-6.631332E-3,9.156183E-3,7.0199125E-2,2.7295295E-2,1.5069474E-3,-3.4776576E-2,1.2639138E-2,-5.573288E-3],"split_indices":[37,0,77,15,44,1,44,85,24,0,0,0,0,0,0,0,0],"split_type":[0,0,0,0,0,0,0,0,0,0,0,0,0,0,0,0,0],"sum_hessian":[5.8E1,1E0,5.7E1,8E0,4.9E1,3E0,5E0,1.2E1,3.7E1,1E0,2E0,2E0,3E0,5E0,7E0,1.7E1,2E1],"tree_param":{"num_deleted":"0","num_feature":"93","num_nodes":"17","size_leaf_vector":"1"}},{"base_weights":[6.83807E-2,-8.8825904E-2,1.2873764E-1,1.1962512E0,5.156586E-2,6.785916E-2,1.7836392E-2,2.3467827E-1,-5.375648E-2,1.772992E-2,-1.0999288E-2,-8.967685E-3,9.595586E-3],"categories":[],"categories_nodes":[],"categories_segments":[],"categories_sizes":[],"default_left":[0,0,0,0,0,0,0,0,0,0,0,0,0],"id":12,"left_children":[1,-1,3,5,7,-1,-1,9,11,-1,-1,-1,-1],"loss_changes":[7.021205E0,0E0,4.88123E0,5.6279182E-2,1.1119076E0,0E0,0E0,1.2229971E0,1.1760639E0,0E0,0E0,0E0,0E0],"parents":[2147483647,0,0,2,2,3,3,4,4,7,7,8,8],"right_children":[2,-1,4,6,8,-1,-1,10,12,-1,-1,-1,-1],"split_conditions":[-1.6378675E0,-8.8825904E-2,-1.1801904E0,-9.6625996E-1,-6.1347857E-2,6.785916E-2,1.7836392E-2,1.263098E-1,8.9457524E-1,1.772992E-2,-1.0999288E-2,-8.967685E-3,9.595586E-3],"split_indices":[37,0,51,0,3,0,0,47,22,0,0,0,0],"split_type":[0,0,0,0,0,0,0,0,0,0,0,0,0],"sum_hessian":[6E1,1E0,5.9E1,3E0,5.6E1,2E0,1E0,2E1,3.6E1,1.6E1,4E0,2.4E1,1.2E1],"tree_param":{"num_deleted":"0","num_feature":"93","num_nodes":"13","size_leaf_vector":"1"}},{"base_weights":[-6.873177E-3,1.2161682E-1,-8.893827E-1,6.933877E-1,9.541183E-3,-7.8080416E-2,-1.7372575E-1,6.199403E-2,9.987522E-1,8.3910525E-2,-3.159717E-2,-3.9763884E-3,-1.4278327E-2,-6.9087967E-3,8.7388E-3,6.5597184E-2,2.570853E-2,1.5068571E-2,-2.1674824E-3,7.2150613E-4,-1.0197352E-3],"categories":[],"categories_nodes":[],"categories_segments":[],"categories_sizes":[],"default_left":[0,0,0,0,0,0,0,0,0,0,0,0,0,0,0,0,0,0,0,0,0],"id":13,"left_children":[1,3,5,7,9,-1,11,13,15,17,-1,19,-1,-1,-1,-1,-1,-1,-1,-1,-1],"loss_changes":[7.13857E0,3.5178714E0,3.5773711E0,1.6733303E0,2.295246E0,0E0,9.378897E-2,1.1445208E-1,2.3603821E-1,1.2030512E0,0E0,1.2009098E-3,0E0,0E0,0E0,0E0,0E0,0E0,0E0,0E0,0E0],"parents":[2147483647,0,0,1,1,2,2,3,3,4,4,6,6,7,7,8,8,9,9,11,11],"right_children":[2,4,6,8,10,-1,12,14,16,18,-1,20,-1,-1,-1,-1,-1,-1,-1,-1,-1],"split_conditions":[1.2908784E0,-3.7881627E0,1.6097491E0,-7.034711E-1,2.1983848E0,-7.8080416E-2,-5.809525E-1,-4.69312E-1,-1.3284404E0,-3.206913E-2,-3.159717E-2,7.62432E-1,-1.4278327E-2,-6.9087967E-3,8.7388E-3,6.5597184E-2,2.570853E-2,1.5068571E-2,-2.1674824E-3,7.2150613E-4,-1.0197352E-3],"split_indices":[27,77,27,15,90,0,8,1,51,54,0,0,0,0,0,0,0,0,0,0,0],"split_type":[0,0,0,0,0,0,0,0,0,0,0,0,0,0,0,0,0,0,0,0,0],"sum_hessian":[6.1E1,5.4E1,7E0,8E0,4.6E1,3E0,4E0,3E0,5E0,4.2E1,4E0,2E0,2E0,1E0,2E0,2E0,3E0,1.5E1,2.7E1,1E0,1E0],"tree_param":{"num_deleted":"0","num_feature":"93","num_nodes":"21","size_leaf_vector":"1"}},{"base_weights":[5.0962098E-2,-1.852709E-2,8.746399E-1,-7.788019E-2,5.286308E-1,5.091256E-2,7.504868E-3,-4.188135E-2,-3.3406217E-2,2.956505E-2,5.3820014E-3,1.0195854E-2,-6.6226358E-3],"categories":[],"categories_nodes":[],"categories_segments":[],"categories_sizes":[],"default_left":[0,0,0,0,0,0,0,0,0,0,0,0,0],"id":14,"left_children":[1,3,5,7,9,-1,-1,-1,11,-1,-1,-1,-1],"loss_changes":[3.6793532E0,1.9897007E0,3.6742568E-1,1.8304106E0,9.4653845E-2,0E0,0E0,0E0,1.2728295E0,0E0,0E0,0E0,0E0],"parents":[2147483647,0,0,1,1,2,2,3,3,4,4,8,8],"right_children":[2,4,6,8,10,-1,-1,-1,12,-1,-1,-1,-1],"split_conditions":[1.295072E0,1.6543406E0,-1.3835304E0,-1.1740737E0,1.5874413E0,5.091256E-2,7.504868E-3,-4.188135E-2,-9.8724717E-1,2.956505E-2,5.3820014E-3,1.0195854E-2,-6.6226358E-3],"split_indices":[45,26,0,51,5,0,0,0,88,0,0,0,0],"split_type":[0,0,0,0,0,0,0,0,0,0,0,0,0],"sum_hessian":[6.3E1,5.9E1,4E0,5.4E1,5E0,3E0,1E0,2E0,5.2E1,4E0,1E0,1.5E1,3.7E1],"tree_param":{"num_deleted":"0","num_feature":"93","num_nodes":"13","size_leaf_vector":"1"}},{"base_weights":[-1.6504906E-2,-8.360621E-2,3.549109E-2,3.4539667E-1,-1.7202266E-1,8.604831E-1,1.4784658E-1,-3.8192993E-1,2.6085002E-2,6.2069315E-2,2.299223E-2,-2.954437E-3,2.0366646E-2,3.6513333E-3,-2.5406007E-2,-5.410449E-3,1.5506568E-2],"categories":[],"categories_nodes":[],"categories_segments":[],"categories_sizes":[],"default_left":[0,0,0,0,0,0,0,0,0,0,0,0,0,0,0,0,0],"id":15,"left_children":[1,-1,3,5,7,9,11,13,15,-1,-1,-1,-1,-1,-1,-1,-1],"loss_changes":[5.6549077E0,0E0,4.175235E0,2.5184205E0,1.6317478E0,4.9738693E-1,1.0980066E0,1.1279166E0,8.3461905E-1,0E0,0E0,0E0,0E0,0E0,0E0,0E0,0E0],"parents":[2147483647,0,0,2,2,3,3,4,4,5,5,6,6,7,7,8,8],"right_children":[2,-1,4,6,8,10,12,14,16,-1,-1,-1,-1,-1,-1,-1,-1],"split_conditions":[-1.6378675E0,-8.360621E-2,-6.1347857E-2,-4.306291E-1,4.816687E-1,-6.156864E-1,2.947491E-1,-2.0200298E0,8.079949E-1,6.2069315E-2,2.299223E-2,-2.954437E-3,2.0366646E-2,3.6513333E-3,-2.5406007E-2,-5.410449E-3,1.5506568E-2],"split_indices":[37,0,3,83,84,50,46,83,92,0,0,0,0,0,0,0,0],"split_type":[0,0,0,0,0,0,0,0,0,0,0,0,0,0,0,0,0],"sum_hessian":[6.4E1,1E0,6.3E1,2.5E1,3.8E1,6E0,1.9E1,1.8E1,2E1,2E0,4E0,1.1E1,8E0,4E0,1.4E1,1.4E1,6E0],"tree_param":{"num_deleted":"0","num_feature":"93","num_nodes":"17","size_leaf_vector":"1"}},{"base_weights":[-1.68939E-2,-1.1416918E0,6.375048E-2,-8.151606E-2,-2.1768752E-2,9.172853E-1,-1.8700742E-3,6.2217116E-2,1.9674277E-2,1.5202153E-1,-1.9415666E-1,1.2792431E-2,-8.2742E-3,1.1739551E-2,-1.7509159E-2],"categories":[],"categories_nodes":[],"categories_segments":[],"categories_sizes":[],"default_left":[0,0,0,0,0,0,0,0,0,0,0,0,0,0,0],"id":16,"left_children":[1,3,5,-1,-1,7,9,-1,-1,11,13,-1,-1,-1,-1],"loss_changes":[5.424593E0,6.707072E-1,3.1382434E0,0E0,0E0,1.956191E-1,1.5978545E0,0E0,0E0,1.0313089E0,1.688473E0,0E0,0E0,0E0,0E0],"parents":[2147483647,0,0,1,1,2,2,5,5,6,6,9,9,10,10],"right_children":[2,4,6,-1,-1,8,10,-1,-1,12,14,-1,-1,-1,-1],"split_conditions":[-2.351838E0,-3.1054923E-1,-1.0854629E0,-8.151606E-2,-2.1768752E-2,-1.6815808E0,2.3953521E-1,6.2217116E-2,1.9674277E-2,4.5485544E-1,-9.2029494E-1,1.2792431E-2,-8.2742E-3,1.1739551E-2,-1.7509159E-2],"split_indices":[88,0,24,0,0,0,48,0,0,49,86,0,0,0,0],"split_type":[0,0,0,0,0,0,0,0,0,0,0,0,0,0,0],"sum_hessian":[5.8E1,3E0,5.5E1,1E0,2E0,3E0,5.2E1,1E0,2E0,2.9E1,2.3E1,2.2E1,7E0,6E0,1.7E1],"tree_param":{"num_deleted":"0","num_feature":"93","num_nodes":"15","size_leaf_vector":"1"}},{"base_weights":[-3.267288E-2,-7.947816E-2,2.0656839E-2,8.183888E-1,-5.223983E-2,5.8750182E-2,1.8897781E-1,-7.361554E-1,1.5835023E-2,6.337287E-4,1.3539607E-2,-9.972739E-3,-4.102334E-2,1.0598832E-2,-4.878742E-3],"categories":[],"categories_nodes":[],"categories_segments":[],"categories_sizes":[],"default_left":[0,0,0,0,0,0,0,0,0,0,0,0,0,0,0],"id":17,"left_children":[1,-1,3,5,7,-1,9,11,13,-1,-1,-1,-1,-1,-1],"loss_changes":[5.0145464E0,0E0,3.4737208E0,9.0023685E-1,2.572317E0,0E0,3.9840207E-2,6.260371E-2,1.1551478E0,0E0,0E0,0E0,0E0,0E0,0E0],"parents":[2147483647,0,0,2,2,3,3,4,4,6,6,7,7,8,8],"right_children":[2,-1,4,6,8,-1,10,12,14,-1,-1,-1,-1,-1,-1],"split_conditions":[-1.6378675E0,-7.947816E-2,-1.3921381E0,-9.6625996E-1,-8.959259E-1,5.8750182E-2,-7.278197E-1,-1.8008009E0,1.2600607E-1,6.337287E-4,1.3539607E-2,-9.972739E-3,-4.102334E-2,1.0598832E-2,-4.878742E-3],"split_indices":[37,0,44,0,44,0,0,0,1,0,0,0,0,0,0],"split_type":[0,0,0,0,0,0,0,0,0,0,0,0,0,0,0],"sum_hessian":[5.9E1,1E0,5.8E1,4E0,5.4E1,2E0,2E0,4E0,5E1,1E0,1E0,1E0,3E0,1.8E1,3.2E1],"tree_param":{"num_deleted":"0","num_feature":"93","num_nodes":"15","size_leaf_vector":"1"}},{"base_weights":[-4.7258805E-3,-7.74912E-2,4.8634846E-2,9.093721E-1,-1.4848497E-2,5.9192933E-2,2.116285E-2,-1.07296094E-1,3.253634E-1,-1.8252606E-2,6.285503E-4,2.1911306E-2,3.98552E-3],"categories":[],"categories_nodes":[],"categories_segments":[],"categories_sizes":[],"default_left":[0,0,0,0,0,0,0,0,0,0,0,0,0],"id":18,"left_children":[1,-1,3,5,7,-1,-1,9,11,-1,-1,-1,-1],"loss_changes":[4.9397817E0,0E0,3.1827664E0,3.2651663E-2,1.7647575E0,0E0,0E0,1.3640335E0,2.9776955E-1,0E0,0E0,0E0,0E0],"parents":[2147483647,0,0,2,2,3,3,4,4,7,7,8,8],"right_children":[2,-1,4,6,8,-1,-1,10,12,-1,-1,-1,-1],"split_conditions":[-1.6378675E0,-7.74912E-2,-1.6815808E0,-2.4019892E0,8.7496924E-1,5.9192933E-2,2.116285E-2,2.4917772E-2,6.035309E-2,-1.8252606E-2,6.285503E-4,2.1911306E-2,3.98552E-3],"split_indices":[37,0,0,1,92,0,0,46,55,0,0,0,0],"split_type":[0,0,0,0,0,0,0,0,0,0,0,0,0],"sum_hessian":[5.8E1,1E0,5.7E1,3E0,5.4E1,1E0,2E0,4.3E1,1.1E1,1.3E1,3E1,7E0,4E0],"tree_param":{"num_deleted":"0","num_feature":"93","num_nodes":"13","size_leaf_vector":"1"}},{"base_weights":[-6.4433195E-2,2.6317153E-2,-8.8557255E-1,8.56194E-1,-3.802563E-2,-7.6171115E-2,-1.857921E-1,5.771311E-2,1.8604195E-2,3.058094E-2,-2.8455306E-2,8.969432E-4,-1.29841035E-2,-1.6262382E-3,1.9791568E-2],"categories":[],"categories_nodes":[],"categories_segments":[],"categories_sizes":[],"default_left":[0,0,0,0,0,0,0,0,0,0,0,0,0,0,0],"id":19,"left_children":[1,3,5,7,9,-1,11,-1,-1,13,-1,-1,-1,-1,-1],"loss_changes":[4.4944267E0,2.9693694E0,2.3950887E0,1.477089E-1,1.9120555E0,0E0,6.4873084E-2,0E0,0E0,1.0961953E0,0E0,0E0,0E0,0E0,0E0],"parents":[2147483647,0,0,1,1,2,2,3,3,4,4,6,6,9,9],"right_children":[2,4,6,8,10,-1,12,-1,-1,14,-1,-1,-1,-1,-1],"split_conditions":[1.3798896E0,-1.0854629E0,4.7111183E-2,-1.6815808E0,2.063717E0,-7.6171115E-2,7.62432E-1,5.771311E-2,1.8604195E-2,1.5550904E0,-2.8455306E-2,8.969432E-4,-1.29841035E-2,-1.6262382E-3,1.9791568E-2],"split_indices":[27,24,0,0,90,0,0,0,0,32,0,0,0,0,0],"split_type":[0,0,0,0,0,0,0,0,0,0,0,0,0,0,0],"sum_hessian":[5.9E1,5.4E1,5E0,3E0,5.1E1,2E0,3E0,1E0,2E0,4.6E1,5E0,1E0,2E0,4E1,6E0],"tree_param":{"num_deleted":"0","num_feature":"93","num_nodes":"15","size_leaf_vector":"1"}},{"base_weights":[4.0095136E-2,5.7565707E-1,-4.51707E-2,-7.8493275E-2,7.7377045E-1,-3.7802394E-2,8.32336E-3,-6.529823E-3,6.4282754E-4,5.450532E-2,2.1460742E-2,6.999139E-2,-3.077936E-1,-1.6007144E-2,5.232762E-3,-2.7558347E-2,6.7107426E-3],"categories":[],"categories_nodes":[],"categories_segments":[],"categories_sizes":[],"default_left":[0,0,0,0,0,0,0,0,0,0,0,0,0,0,0,0,0],"id":20,"left_children":[1,3,5,7,9,-1,11,-1,-1,-1,-1,13,15,-1,-1,-1,-1],"loss_changes":[2.9942365E0,1.2270994E0,2.173872E0,1.5957871E-2,2.950778E-1,0E0,1.0742357E0,0E0,0E0,0E0,0E0,6.5558815E-1,1.0421326E0,0E0,0E0,0E0,0E0],"parents":[2147483647,0,0,1,1,2,2,3,3,4,4,6,6,11,11,12,12],"right_children":[2,4,6,8,10,-1,12,-1,-1,-1,-1,14,16,-1,-1,-1,-1],"split_conditions":[-3.7881627E0,-1.291404E0,-1.0806925E0,-9.066499E-1,-1.552073E0,-3.7802394E-2,1.1701152E0,-6.529823E-3,6.4282754E-4,5.450532E-2,2.1460742E-2,-1.3503709E0,-2.4777633E-1,-1.6007144E-2,5.232762E-3,-2.7558347E-2,6.7107426E-3],"split_indices":[77,29,44,0,44,0,90,0,0,0,0,63,7,0,0,0,0],"split_type":[0,0,0,0,0,0,0,0,0,0,0,0,0,0,0,0,0],"sum_hessian":[6.4E1,8E0,5.6E1,2E0,6E0,3E0,5.3E1,1E0,1E0,2E0,4E0,4.5E1,8E0,3E0,4.2E1,5E0,3E0],"tree_param":{"num_deleted":"0","num_feature":"93","num_nodes":"17","size_leaf_vector":"1"}},{"base_weights":[-9.385641E-3,-7.378047E-2,3.964491E-2,9.118681E-1,-2.225926E-2,5.2688476E-2,1.2154095E-2,-3.6384802E-2,3.0407526E-2,-1.3362591E-2,4.7939164E-3],"categories":[],"categories_nodes":[],"categories_segments":[],"categories_sizes":[],"default_left":[0,0,0,0,0,0,0,0,0,0,0],"id":21,"left_children":[1,-1,3,5,7,-1,-1,-1,9,-1,-1],"loss_changes":[4.443775E0,0E0,3.2599525E0,1.2345457E-1,2.1398535E0,0E0,0E0,0E0,1.0779754E0,0E0,0E0],"parents":[2147483647,0,0,2,2,3,3,4,4,8,8],"right_children":[2,-1,4,6,8,-1,-1,-1,10,-1,-1],"split_conditions":[-1.6378675E0,-7.378047E-2,-1.3921381E0,-2.960955E-1,-1.0806925E0,5.2688476E-2,1.2154095E-2,-3.6384802E-2,-1.030909E0,-1.3362591E-2,4.7939164E-3],"split_indices":[37,0,44,2,44,0,0,0,29,0,0],"split_type":[0,0,0,0,0,0,0,0,0,0,0],"sum_hessian":[6E1,1E0,5.9E1,3E0,5.6E1,2E0,1E0,3E0,5.3E1,9E0,4.4E1],"tree_param":{"num_deleted":"0","num_feature":"93","num_nodes":"11","size_leaf_vector":"1"}},{"base_weights":[-1.1177279E-2,8.8542715E-2,-2.572648E-1,2.780003E-2,3.2128014E-2,-3.257298E-2,-2.5216429E-2,-4.4003304E-2,2.877617E-1,-3.6731496E-1,1.1414463E-1,4.86566E-3,-1.0453323E-2,2.7752966E-3,1.694437E-2,-2.2317844E-2,-3.2547326E-3,1.601742E-2,-9.996233E-4],"categories":[],"categories_nodes":[],"categories_segments":[],"categories_sizes":[],"default_left":[0,0,0,0,0,0,0,0,0,0,0,0,0,0,0,0,0,0,0],"id":22,"left_children":[1,3,5,-1,7,-1,9,11,13,15,17,-1,-1,-1,-1,-1,-1,-1,-1],"loss_changes":[1.6178688E0,1.2215972E0,1.7215453E0,0E0,8.495168E-1,0E0,6.6170484E-1,8.134339E-1,9.9932134E-2,6.649685E-2,2.830003E-1,0E0,0E0,0E0,0E0,0E0,0E0,0E0,0E0],"parents":[2147483647,0,0,1,1,2,2,4,4,6,6,7,7,8,8,9,9,10,10],"right_children":[2,4,6,-1,8,-1,10,12,14,16,18,-1,-1,-1,-1,-1,-1,-1,-1],"split_conditions":[7.279161E-1,-1.1484385E0,-4.9595782E-1,2.780003E-2,-1.3986244E-2,-3.257298E-2,7.009161E-2,-9.1193795E-2,-8.1259185E-1,-5.223749E-1,-2.9028338E-1,4.86566E-3,-1.0453323E-2,2.7752966E-3,1.694437E-2,-2.2317844E-2,-3.2547326E-3,1.601742E-2,-9.996233E-4],"split_indices":[90,51,51,0,90,0,66,52,4,2,2,0,0,0,0,0,0,0,0],"split_type":[0,0,0,0,0,0,0,0,0,0,0,0,0,0,0,0,0,0,0],"sum_hessian":[6.4E1,4.6E1,1.8E1,4E0,4.2E1,6E0,1.2E1,3.3E1,9E0,3E0,9E0,1.8E1,1.5E1,2E0,7E0,2E0,1E0,3E0,6E0],"tree_param":{"num_deleted":"0","num_feature":"93","num_nodes":"19","size_leaf_vector":"1"}},{"base_weights":[-1.3120026E-2,-7.263096E-2,3.352704E-2,5.176735E-1,-5.8453936E-2,-8.777702E-2,6.800083E-1,-1.376139E-1,1.9570085E-1,-5.77118E-3,-8.120965E-4,1.9828012E-2,5.101174E-2,-1.3237396E-2,5.0200806E-3,-4.37341E-3,1.2756891E-2],"categories":[],"categories_nodes":[],"categories_segments":[],"categories_sizes":[],"default_left":[0,0,0,0,0,0,0,0,0,0,0,0,0,0,0,0,0],"id":23,"left_children":[1,-1,3,5,7,9,11,13,15,-1,-1,-1,-1,-1,-1,-1,-1],"loss_changes":[4.2790513E0,0E0,2.7912605E0,1.0425458E0,1.093232E0,4.0583983E-3,3.6690784E-1,1.2672359E0,2.4111557E-1,0E0,0E0,0E0,0E0,0E0,0E0,0E0,0E0],"parents":[2147483647,0,0,2,2,3,3,4,4,5,5,6,6,7,7,8,8],"right_children":[2,-1,4,6,8,10,12,14,16,-1,-1,-1,-1,-1,-1,-1,-1],"split_conditions":[-1.6378675E0,-7.263096E-2,-3.7881627E0,-1.2243086E0,8.7496924E-1,-9.066499E-1,2.1133328E-2,6.552919E-1,-1.068958E0,-5.77118E-3,-8.120965E-4,1.9828012E-2,5.101174E-2,-1.3237396E-2,5.0200806E-3,-4.37341E-3,1.2756891E-2],"split_indices":[37,0,77,26,92,0,53,87,26,0,0,0,0,0,0,0,0],"split_type":[0,0,0,0,0,0,0,0,0,0,0,0,0,0,0,0,0],"sum_hessian":[6.2E1,1E0,6.1E1,9E0,5.2E1,2E0,7E0,4E1,1.2E1,1E0,1E0,5E0,2E0,2.6E1,1.4E1,2E0,1E1],"tree_param":{"num_deleted":"0","num_feature":"93","num_nodes":"17","size_leaf_vector":"1"}},{"base_weights":[3.1965565E-2,3.22133E-1,-1.3686731E-1,8.212891E-1,2.0009315E-1,-2.1605207E-1,3.2146004E-1,5.3129464E-2,1.9332966E-2,1.2719216E-2,1.837289E-2,-3.5401982E-1,-6.5375365E-2,6.271942E-3,1.9405548E-2,1.2230014E-2,-9.131744E-3,9.297202E-4,-2.1759694E-2,-1.6419146E-2,7.219658E-4],"categories":[],"categories_nodes":[],"categories_segments":[],"categories_sizes":[],"default_left":[0,0,0,0,0,0,0,0,0,0,0,0,0,0,0,0,0,0,0,0,0],"id":24,"left_children":[1,3,5,7,9,11,13,-1,-1,15,-1,17,19,-1,-1,-1,-1,-1,-1,-1,-1],"loss_changes":[2.934488E0,1.1758382E0,1.4485686E0,8.645058E-3,5.911619E-1,6.628772E-1,2.9705703E-2,0E0,0E0,4.9766165E-1,0E0,5.2228475E-1,3.6160326E-1,0E0,0E0,0E0,0E0,0E0,0E0,0E0,0E0],"parents":[2147483647,0,0,1,1,2,2,3,3,4,4,5,5,6,6,9,9,11,11,12,12],"right_children":[2,4,6,8,10,12,14,-1,-1,16,-1,18,20,-1,-1,-1,-1,-1,-1,-1,-1],"split_conditions":[-6.1347857E-2,-1.1170855E0,1.5819385E0,-2.4019892E0,1.494005E-1,4.816687E-1,2.11513E0,5.3129464E-2,1.9332966E-2,-4.5195308E-1,1.837289E-2,-6.093023E-1,-1.3503709E0,6.271942E-3,1.9405548E-2,1.2230014E-2,-9.131744E-3,9.297202E-4,-2.1759694E-2,-1.6419146E-2,7.219658E-4],"split_indices":[3,13,32,1,50,84,13,0,0,50,0,13,63,0,0,0,0,0,0,0,0],"split_type":[0,0,0,0,0,0,0,0,0,0,0,0,0,0,0,0,0,0,0,0,0],"sum_hessian":[5.8E1,2.1E1,3.7E1,3E0,1.8E1,3.2E1,5E0,1E0,2E0,9E0,9E0,1.6E1,1.6E1,2E0,3E0,4E0,5E0,3E0,1.3E1,3E0,1.3E1],"tree_param":{"num_deleted":"0","num_feature":"93","num_nodes":"21","size_leaf_vector":"1"}},{"base_weights":[6.382355E-2,4.4297706E-2,2.2344613E-2,-4.7248397E-2,2.593532E-1,-1.0340672E-1,3.6309433E-1,-9.17729E-3,3.3342305E-1,1.6886907E-3,-1.1794347E-2,1.9933928E-2,4.62933E-3,5.295347E-3,-4.142051E-3,1.856548E-2,5.431122E-3],"categories":[],"categories_nodes":[],"categories_segments":[],"categories_sizes":[],"default_left":[0,0,0,0,0,0,0,0,0,0,0,0,0,0,0,0,0],"id":25,"left_children":[1,-1,3,5,7,9,11,13,15,-1,-1,-1,-1,-1,-1,-1,-1],"loss_changes":[2.128573E0,0E0,1.0183965E0,1.1436661E0,2.8152013E-1,7.894362E-1,2.0842552E-2,4.268357E-2,5.3353548E-2,0E0,0E0,0E0,0E0,0E0,0E0,0E0,0E0],"parents":[2147483647,0,0,2,2,3,3,4,4,5,5,6,6,7,7,8,8],"right_children":[2,-1,4,6,8,10,12,14,16,-1,-1,-1,-1,-1,-1,-1,-1],"split_conditions":[-1.1220704E0,4.4297706E-2,8.7496924E-1,1.5798229E0,-3.6919384E0,-4.59306E-1,1.5874413E0,-1.02587E0,6.6685295E0,1.6886907E-3,-1.1794347E-2,1.9933928E-2,4.62933E-3,5.295347E-3,-4.142051E-3,1.856548E-2,5.431122E-3],"split_indices":[24,0,92,31,74,10,5,0,76,0,0,0,0,0,0,0,0],"split_type":[0,0,0,0,0,0,0,0,0,0,0,0,0,0,0,0,0],"sum_hessian":[6.2E1,2E0,6E1,4.7E1,1.3E1,4.2E1,5E0,3E0,1E1,2.1E1,2.1E1,4E0,1E0,1E0,2E0,8E0,2E0],"tree_param":{"num_deleted":"0","num_feature":"93","num_nodes":"17","size_leaf_vector":"1"}},{"base_weights":[1.4669336E-2,-7.053837E-2,6.2740594E-2,7.5653315E-1,1.2063616E-2,5.0693788E-2,1.6639685E-2,-1.7904071E-2,5.5373553E-2,8.301395E-3,-3.8015202E-3],"categories":[],"categories_nodes":[],"categories_segments":[],"categories_sizes":[],"default_left":[0,0,0,0,0,0,0,0,0,0,0],"id":26,"left_children":[1,-1,3,5,7,-1,-1,-1,9,-1,-1],"loss_changes":[4.199865E0,0E0,2.0652726E0,9.877324E-2,9.175619E-1,0E0,0E0,0E0,7.541845E-1,0E0,0E0],"parents":[2147483647,0,0,2,2,3,3,4,4,8,8],"right_children":[2,-1,4,6,8,-1,-1,-1,10,-1,-1],"split_conditions":[-1.6378675E0,-7.053837E-2,-8.66305E-1,-2.470078E0,-1.3503709E0,5.0693788E-2,1.6639685E-2,-1.7904071E-2,3.2414442E-1,8.301395E-3,-3.8015202E-3],"split_indices":[37,0,49,3,63,0,0,0,48,0,0],"split_type":[0,0,0,0,0,0,0,0,0,0,0],"sum_hessian":[5.9E1,1E0,5.8E1,3E0,5.5E1,1E0,2E0,5E0,5E1,2.7E1,2.3E1],"tree_param":{"num_deleted":"0","num_feature":"93","num_nodes":"11","size_leaf_vector":"1"}},{"base_weights":[5.6344774E-2,5.383745E-1,-2.2130443E-2,4.6191055E-2,2.9627243E-1,-3.2321688E-2,2.5404342E-2,-8.1325247E-4,1.7553642E-2,2.1318531E-1,-3.4755584E-2,1.6397927E-2,1.2311753E-3,1.2057099E-2,-4.447104E-3],"categories":[],"categories_nodes":[],"categories_segments":[],"categories_sizes":[],"default_left":[0,0,0,0,0,0,0,0,0,0,0,0,0,0,0],"id":27,"left_children":[1,3,5,-1,7,-1,9,-1,-1,11,13,-1,-1,-1,-1],"loss_changes":[2.4328673E0,5.66154E-1,1.6782851E0,0E0,1.2560058E-1,0E0,6.061445E-1,0E0,0E0,2.7326846E-1,6.343944E-1,0E0,0E0,0E0,0E0],"parents":[2147483647,0,0,1,1,2,2,4,4,6,6,9,9,10,10],"right_children":[2,4,6,-1,8,-1,10,-1,-1,12,14,-1,-1,-1,-1],"split_conditions":[-3.7881627E0,-1.3284404E0,-1.0806925E0,4.6191055E-2,-1.2243086E0,-3.2321688E-2,-3.2674829E-3,-8.1325247E-4,1.7553642E-2,3.9429423E-1,-8.408674E-1,1.6397927E-2,1.2311753E-3,1.2057099E-2,-4.447104E-3],"split_indices":[77,51,44,0,26,0,33,0,0,32,54,0,0,0,0],"split_type":[0,0,0,0,0,0,0,0,0,0,0,0,0,0,0],"sum_hessian":[6.3E1,8E0,5.5E1,2E0,6E0,3E0,5.2E1,1E0,5E0,1.2E1,4E1,7E0,5E0,6E0,3.4E1],"tree_param":{"num_deleted":"0","num_feature":"93","num_nodes":"15","size_leaf_vector":"1"}},{"base_weights":[2.4917724E-3,-6.866374E-2,4.988903E-2,4.8271667E-2,1.6889427E-2,1.6255622E-1,-9.3976E-2,2.4366085E-3,2.2414243E-2,-7.1157464E-3,1.4602998E-2],"categories":[],"categories_nodes":[],"categories_segments":[],"categories_sizes":[],"default_left":[0,0,0,0,0,0,0,0,0,0,0],"id":28,"left_children":[1,-1,3,-1,5,7,9,-1,-1,-1,-1],"loss_changes":[3.9157577E0,0E0,1.7360252E0,0E0,9.357928E-1,7.912238E-1,6.5736306E-1,0E0,0E0,0E0,0E0],"parents":[2147483647,0,0,2,2,4,4,5,5,6,6],"right_children":[2,-1,4,-1,6,8,10,-1,-1,-1,-1],"split_conditions":[-1.6378675E0,-6.866374E-2,-2.4019892E0,4.8271667E-2,-6.1347857E-2,-2.9085547E-1,4.3211665E0,2.4366085E-3,2.2414243E-2,-7.1157464E-3,1.4602998E-2],"split_indices":[37,0,1,0,3,5,80,0,0,0,0],"split_type":[0,0,0,0,0,0,0,0,0,0,0],"sum_hessian":[5.8E1,1E0,5.7E1,1E0,5.6E1,2.4E1,3.2E1,1.8E1,6E0,2.9E1,3E0],"tree_param":{"num_deleted":"0","num_feature":"93","num_nodes":"11","size_leaf_vector":"1"}},{"base_weights":[-3.1731665E-2,-6.694714E-2,9.614491E-3,6.9033945E-1,-3.518083E-2,4.7064874E-2,1.4646049E-2,-2.7639425E-1,4.9484294E-2,-2.570623E-3,-3.213976E-2,6.465626E-3,-4.093848E-3],"categories":[],"categories_nodes":[],"categories_segments":[],"categories_sizes":[],"default_left":[0,0,0,0,0,0,0,0,0,0,0,0,0],"id":29,"left_children":[1,-1,3,5,7,-1,-1,9,11,-1,-1,-1,-1],"loss_changes":[3.5260034E0,0E0,1.9758574E0,1.23215675E-1,1.2594414E0,0E0,0E0,1.2858889E0,4.9295917E-1,0E0,0E0,0E0,0E0],"parents":[2147483647,0,0,2,2,3,3,4,4,7,7,8,8],"right_children":[2,-1,4,6,8,-1,-1,10,12,-1,-1,-1,-1],"split_conditions":[-1.6378675E0,-6.694714E-2,-1.868998E0,-1.6815808E0,-4.51585E-1,4.7064874E-2,1.4646049E-2,7.189976E-1,3.998447E-1,-2.570623E-3,-3.213976E-2,6.465626E-3,-4.093848E-3],"split_indices":[37,0,58,0,44,0,0,90,55,0,0,0,0],"split_type":[0,0,0,0,0,0,0,0,0,0,0,0,0],"sum_hessian":[6.4E1,1E0,6.3E1,3E0,6E1,1E0,2E0,1.5E1,4.5E1,1E1,5E0,2.8E1,1.7E1],"tree_param":{"num_deleted":"0","num_feature":"93","num_nodes":"13","size_leaf_vector":"1"}},{"base_weights":[-1.7722653E-2,9.4424024E-2,-5.8789843E-1,5.6972086E-1,3.0376088E-2,-2.531297E-1,-6.423245E-2,4.5888253E-2,1.5827952E-2,-1.7083265E-2,2.1147972E-2,1.6438367E-4,-2.025695E-2,4.6083615E-3,-7.093359E-3,-7.339736E-4,1.1173987E-3],"categories":[],"categories_nodes":[],"categories_segments":[],"categories_sizes":[],"default_left":[0,0,0,0,0,0,0,0,0,0,0,0,0,0,0,0,0],"id":30,"left_children":[1,3,5,7,9,11,-1,-1,-1,13,-1,15,-1,-1,-1,-1,-1],"loss_changes":[3.892111E0,1.5352249E0,2.0073204E0,2.3814201E-1,8.642861E-1,3.0809104E-1,0E0,0E0,0E0,5.856491E-1,0E0,1.6452165E-3,0E0,0E0,0E0,0E0,0E0],"parents":[2147483647,0,0,1,1,2,2,3,3,4,4,5,5,9,9,11,11],"right_children":[2,4,6,8,10,12,-1,-1,-1,14,-1,16,-1,-1,-1,-1,-1],"split_conditions":[1.0107036E0,-7.576851E-1,3.090359E-1,-2.4019892E0,1.5950842E0,1.9476205E-1,-6.423245E-2,4.5888253E-2,1.5827952E-2,2.809277E-3,2.1147972E-2,1.0604823E0,-2.025695E-2,4.6083615E-3,-7.093359E-3,-7.339736E-4,1.1173987E-3],"split_indices":[47,3,24,1,26,28,0,0,0,54,0,0,0,0,0,0,0],"split_type":[0,0,0,0,0,0,0,0,0,0,0,0,0,0,0,0,0],"sum_hessian":[5.9E1,5E1,9E0,5E0,4.5E1,7E0,2E0,1E0,4E0,4.1E1,4E0,3E0,4E0,2.2E1,1.9E1,2E0,1E0],"tree_param":{"num_deleted":"0","num_feature":"93","num_nodes":"17","size_leaf_vector":"1"}}]},"name":"gbtree"},"learner_model_param":{"base_score":"[1.658421E-2]","boost_from_average":"1","num_class":"0","num_feature":"93","num_target":"1"},"objective":{"name":"reg:squarederror","reg_loss_param":{"scale_pos_weight":"1"}}},"version":[3,2,0]}