{"learner":{"attributes":{"best_iteration":"0","best_score":"0.8862931524062563","scikit_learn":"{\"_estimator_type\": \"regressor\"}"},"feature_names":[],"feature_types":[],"gradient_booster":{"model":{"cats":{"enc":[],"feature_segments":[],"sorted_idx":[]},"gbtree_model_param":{"num_parallel_tree":"1","num_trees":"31"},"iteration_indptr":[0,1,2,3,4,5,6,7,8,9,10,11,12,13,14,15,16,17,18,19,20,21,22,23,24,25,26,27,28,29,30,31],"tree_info":[0,0,0,0,0,0,0,0,0,0,0,0,0,0,0,0,0,0,0,0,0,0,0,0,0,0,0,0,0,0,0],"trees":[{"base_weights":[2.6061789E-5,4.8812363E-1,-1.9486707E-2,2.0979104E0,2.4657196E-1,-1.5472768E-1,-1.2438791E-2,1.3429442E-1,6.9146574E-1,1.3624457E0,7.977992E-2,-1.2519777E0,-3.1493648E-3,7.859673E-3,4.0857937E-2,2.482525E-2,7.8417085E-2,-8.0279574E-2,8.683651E-3,-1.5684588E-1,1.5911225E-2,2.7349312E-2,-7.8915665E-4],"categories":[],"categories_nodes":[],"categories_segments":[],"categories_sizes":[],"default_left":[0,0,0,0,0,0,0,0,0,0,0,0,0,0,0,0,0,0,0,0,0,0,0],"id":0,"left_children":[1,3,5,7,9,-1,11,-1,13,15,17,19,21,-1,-1,-1,-1,-1,-1,-1,-1,-1,-1],"loss_changes":[1.7343435E1,2.670198E1,3.7910603E1,5.5854263E0,1.1430674E1,0E0,2.0123585E1,0E0,1.4016497E-1,6.4766026E-1,8.982307E0,3.947482E1,1.2074328E1,0E0,0E0,0E0,0E0,0E0,0E0,0E0,0E0,0E0,0E0],"parents":[2147483647,0,0,1,1,2,2,3,3,4,4,6,6,8,8,9,9,10,10,11,11,12,12],"right_children":[2,4,6,8,10,-1,12,-1,14,16,18,20,22,-1,-1,-1,-1,-1,-1,-1,-1,-1,-1],"split_conditions":[-1.1002612E0,-1.4637544E0,-1.964479E1,4.2863554E-1,-1.5256785E0,-1.5472768E-1,-2.647276E0,1.3429442E-1,-1.8458441E0,1.8617296E-1,-2.1495137E0,-5.0851357E-1,-1.5659992E0,7.859673E-3,4.0857937E-2,2.482525E-2,7.8417085E-2,-8.0279574E-2,8.683651E-3,-1.5684588E-1,1.5911225E-2,2.7349312E-2,-7.8915665E-4],"split_indices":[24,27,74,58,50,0,44,0,0,18,1,85,14,0,0,0,0,0,0,0,0,0,0],"split_type":[0,0,0,0,0,0,0,0,0,0,0,0,0,0,0,0,0,0,0,0,0,0,0],"sum_hessian":[1.819E3,6.9E1,1.75E3,8E0,6.1E1,3E0,1.747E3,5E0,3E0,7E0,5.4E1,1.2E1,1.735E3,1E0,2E0,2E0,5E0,2E0,5.2E1,5E0,7E0,3.8E1,1.697E3],"tree_param":{"num_deleted":"0","num_feature":"93","num_nodes":"23","size_leaf_vector":"1"}},{"base_weights":[8.651242E-3,-2.1569185E0,1.828189E-2,-2.502081E-1,5.5226004E-1,6.5934706E-1,-5.3760083E-3,1.286748E0,-5.9642304E-2,-1.9659486E-2,1.8706049E0,-1.9243872E0,-9.4100775E-4,8.553862E-2,2.8757459E-2,-9.9492304E-2,9.145751E-3,1.2778994E-1,5.1476356E-2,-1.6206579E-1,-2.0248622E-2,1.8776127E-3,-7.4914717E-3],"categories":[],"categories_nodes":[],"categories_segments":[],"categories_sizes":[],"default_left":[0,0,0,0,0,0,0,0,0,0,0,0,0,0,0,0,0,0,0,0,0,0,0],"id":1,"left_children":[1,3,5,-1,7,9,11,13,-1,15,17,19,21,-1,-1,-1,-1,-1,-1,-1,-1,-1,-1],"loss_changes":[3.7684223E1,6.447313E1,2.727247E1,0E0,7.9436903E0,5.2673706E1,1.4764455E1,2.2299099E-1,0E0,1.7126574E1,1.0623665E1,6.6911993E0,9.932067E0,0E0,0E0,0E0,0E0,0E0,0E0,0E0,0E0,0E0,0E0],"parents":[2147483647,0,0,1,1,2,2,4,4,5,5,6,6,7,7,9,9,10,10,11,11,12,12],"right_children":[2,4,6,-1,8,10,12,14,-1,16,18,20,22,-1,-1,-1,-1,-1,-1,-1,-1,-1,-1],"split_conditions":[-3.497385E0,6.875679E-1,-1.6005144E0,-2.502081E-1,1.2106581E0,3.4050316E-1,-3.498328E0,-1.8458441E0,-5.9642304E-2,-2.998173E0,-2.1719905E-2,-1.8458441E0,1.5200351E0,8.553862E-2,2.8757459E-2,-9.9492304E-2,9.145751E-3,1.2778994E-1,5.1476356E-2,-1.6206579E-1,-2.0248622E-2,1.8776127E-3,-7.4914717E-3],"split_indices":[47,17,14,0,2,59,49,0,0,53,58,0,87,0,0,0,0,0,0,0,0,0,0],"split_type":[0,0,0,0,0,0,0,0,0,0,0,0,0,0,0,0,0,0,0,0,0,0,0],"sum_hessian":[1.804E3,7E0,1.797E3,3E0,4E0,6.3E1,1.734E3,3E0,1E0,4.1E1,2.2E1,3E0,1.731E3,1E0,2E0,3E0,3.8E1,1.1E1,1.1E1,1E0,2E0,1.376E3,3.55E2],"tree_param":{"num_deleted":"0","num_feature":"93","num_nodes":"23","size_leaf_vector":"1"}},{"base_weights":[-5.2556545E-3,1.9063106E0,-1.7105695E-2,1.9912925E-1,1.509273E-1,-2.5636213E0,-5.5667986E-3,4.3628442E-1,-3.9030384E-2,-4.3184147E0,2.7077556E-1,-2.6324138E-2,4.980265E-1,3.0122627E-2,3.464939E-3,-2.678704E-1,-9.199752E-2,-1.462076E-2,2.7798876E-2,-6.429189E-4,-3.750099E-2,5.2757394E-2,6.183389E-3],"categories":[],"categories_nodes":[],"categories_segments":[],"categories_sizes":[],"default_left":[0,0,0,0,0,0,0,0,0,0,0,0,0,0,0,0,0,0,0,0,0,0,0],"id":2,"left_children":[1,3,5,-1,7,9,11,13,-1,15,17,19,21,-1,-1,-1,-1,-1,-1,-1,-1,-1,-1],"loss_changes":[4.0444023E1,3.949015E1,5.211291E1,0E0,2.2013078E0,4.095956E1,1.8484016E1,3.2413864E-1,0E0,3.0181656E0,8.0506885E-1,1.6537556E1,1.4468939E1,0E0,0E0,0E0,0E0,0E0,0E0,0E0,0E0,0E0,0E0],"parents":[2147483647,0,0,1,1,2,2,4,4,5,5,6,6,7,7,9,9,10,10,11,11,12,12],"right_children":[2,4,6,-1,8,10,12,14,-1,16,18,20,22,-1,-1,-1,-1,-1,-1,-1,-1,-1,-1],"split_conditions":[-2.4267602E0,-5.8806922E-2,-3.497385E0,1.9912925E-1,-1.6543846E0,-1.5506991E0,2.3578255E1,-3.1398505E-1,-3.9030384E-2,-1.8458441E0,-8.0103284E-1,1.7410398E0,-5.324322E-1,3.0122627E-2,3.464939E-3,-2.678704E-1,-9.199752E-2,-1.462076E-2,2.7798876E-2,-6.429189E-4,-3.750099E-2,5.2757394E-2,6.183389E-3],"split_indices":[22,39,47,0,1,1,73,4,0,0,2,47,27,0,0,0,0,0,0,0,0,0,0],"split_type":[0,0,0,0,0,0,0,0,0,0,0,0,0,0,0,0,0,0,0,0,0,0,0],"sum_hessian":[1.783E3,1E1,1.773E3,4E0,6E0,7E0,1.766E3,5E0,1E0,4E0,3E0,1.697E3,6.9E1,3E0,2E0,2E0,2E0,1E0,2E0,1.667E3,3E1,2.7E1,4.2E1],"tree_param":{"num_deleted":"0","num_feature":"93","num_nodes":"23","size_leaf_vector":"1"}},{"base_weights":[6.73802E-3,-2.004501E0,1.4436016E-2,-4.240919E0,7.330419E-1,8.9216157E-4,8.850805E-1,-2.9069552E-1,-8.893093E-2,6.688101E-2,-2.7017329E-2,-1.8264039E0,8.01761E-3,1.1994808E0,-4.6763402E-1,-2.0755053E-1,-3.3179633E-3,4.9088396E-2,-2.5877028E-4,8.383354E-2,2.0573344E-2,5.0343806E-3,-5.3475913E-2],"categories":[],"categories_nodes":[],"categories_segments":[],"categories_sizes":[],"default_left":[0,0,0,0,0,0,0,0,0,0,0,0,0,0,0,0,0,0,0,0,0,0,0],"id":3,"left_children":[1,3,5,7,9,11,13,-1,-1,-1,-1,15,17,19,21,-1,-1,-1,-1,-1,-1,-1,-1],"loss_changes":[2.8423862E1,4.5964798E1,2.1554771E1,5.1519775E0,3.8022306E0,2.3464212E1,1.2469145E1,0E0,0E0,0E0,0E0,2.836442E1,2.306491E1,7.958847E0,2.16007E0,0E0,0E0,0E0,0E0,0E0,0E0,0E0,0E0],"parents":[2147483647,0,0,1,1,2,2,3,3,4,4,5,5,6,6,11,11,12,12,13,13,14,14],"right_children":[2,4,6,8,10,12,14,-1,-1,-1,-1,16,18,20,22,-1,-1,-1,-1,-1,-1,-1,-1],"split_conditions":[-3.497385E0,-1.3988218E0,4.2415366E0,-1.8458441E0,-6.4962476E-1,-3.4960504E0,1.2846264E0,-2.9069552E-1,-8.893093E-2,6.688101E-2,-2.7017329E-2,-6.3961774E-1,-2.249295E0,6.87254E-1,9.2403114E-1,-2.0755053E-1,-3.3179633E-3,4.9088396E-2,-2.5877028E-4,8.383354E-2,2.0573344E-2,5.0343806E-3,-5.3475913E-2],"split_indices":[47,52,6,0,2,53,45,0,0,0,0,39,3,58,52,0,0,0,0,0,0,0,0],"split_type":[0,0,0,0,0,0,0,0,0,0,0,0,0,0,0,0,0,0,0,0,0,0,0],"sum_hessian":[1.833E3,6E0,1.827E3,3E0,3E0,1.8E3,2.7E1,1E0,2E0,2E0,1E0,6E0,1.794E3,2.2E1,5E0,2E0,4E0,2.3E1,1.771E3,1.3E1,9E0,3E0,2E0],"tree_param":{"num_deleted":"0","num_feature":"93","num_nodes":"23","size_leaf_vector":"1"}},{"base_weights":[5.5404515E-3,-1.829476E0,1.4666824E-2,-2.2906923E-1,3.1004253E-1,5.9507835E-1,-7.3067006E-3,1.1606168E0,-4.63702E-2,7.110366E-2,1.5090714E0,-1.5188786E-1,-3.8252275E-3,7.67499E-2,2.6207855E-2,-7.913377E-2,1.4065172E-2,1.4225562E-1,5.0386947E-2,-1.7291111E-3,9.932633E-3],"categories":[],"categories_nodes":[],"categories_segments":[],"categories_sizes":[],"default_left":[0,0,0,0,0,0,0,0,0,0,0,0,0,0,0,0,0,0,0,0,0],"id":4,"left_children":[1,3,5,-1,7,9,11,13,-1,15,17,-1,19,-1,-1,-1,-1,-1,-1,-1,-1],"loss_changes":[3.0456211E1,5.441027E1,2.3075768E1,0E0,7.3916016E0,3.150071E1,1.8388332E1,1.4853382E-1,0E0,1.5393043E1,1.320808E1,0E0,1.0861597E1,0E0,0E0,0E0,0E0,0E0,0E0,0E0,0E0],"parents":[2147483647,0,0,1,1,2,2,4,4,5,5,6,6,7,7,9,9,10,10,12,12],"right_children":[2,4,6,-1,8,10,12,14,-1,16,18,-1,20,-1,-1,-1,-1,-1,-1,-1,-1],"split_conditions":[-3.497385E0,-4.5098355E-1,-1.6005144E0,-2.2906923E-1,2.6393917E-1,3.4050316E-1,-2.8598447E0,-1.8458441E0,-4.63702E-2,-3.4934683E0,-1.8877705E0,-1.5188786E-1,1.4032784E0,7.67499E-2,2.6207855E-2,-7.913377E-2,1.4065172E-2,1.4225562E-1,5.0386947E-2,-1.7291111E-3,9.932633E-3],"split_indices":[47,40,14,0,49,59,3,0,0,54,61,0,32,0,0,0,0,0,0,0,0],"split_type":[0,0,0,0,0,0,0,0,0,0,0,0,0,0,0,0,0,0,0,0,0],"sum_hessian":[1.816E3,8E0,1.808E3,3E0,5E0,6.5E1,1.743E3,3E0,2E0,4.2E1,2.3E1,1E0,1.742E3,1E0,2E0,4E0,3.8E1,5E0,1.8E1,1.513E3,2.29E2],"tree_param":{"num_deleted":"0","num_feature":"93","num_nodes":"21","size_leaf_vector":"1"}},{"base_weights":[-7.459406E-3,-1.2781116E-4,-1.9230821E0,1.3486584E0,-1.1268596E-2,5.4477057E-3,-2.7576873E0,-5.426676E-1,2.0857468E0,-2.7770138E-1,-5.1546646E-3,-1.6941868E-1,-6.038862E-2,1.1104598E-2,-5.6326903E-2,1.2807225E-1,3.0645683E-2,-8.9380034E-4,2.221331E-2],"categories":[],"categories_nodes":[],"categories_segments":[],"categories_sizes":[],"default_left":[0,0,0,0,0,0,0,0,0,0,0,0,0,0,0,0,0,0,0],"id":5,"left_children":[1,3,5,7,9,-1,11,13,15,-1,17,-1,-1,-1,-1,-1,-1,-1,-1],"loss_changes":[2.5785583E1,2.7513763E1,1.2172102E1,2.2042984E1,6.151207E1,0E0,7.951622E-1,2.4827974E0,6.136921E0,0E0,1.0384726E1,0E0,0E0,0E0,0E0,0E0,0E0,0E0,0E0],"parents":[2147483647,0,0,1,1,2,2,3,3,4,4,6,6,7,7,8,8,10,10],"right_children":[2,4,6,8,10,-1,12,14,16,-1,18,-1,-1,-1,-1,-1,-1,-1,-1],"split_conditions":[3.060211E0,-2.1932034E0,-9.9813265E-1,6.721603E-1,-6.250695E0,5.4477057E-3,6.307678E-3,-1.228951E0,-4.5838246E-1,-2.7770138E-1,1.6257524E0,-1.6941868E-1,-6.038862E-2,1.1104598E-2,-5.6326903E-2,1.2807225E-1,3.0645683E-2,-8.9380034E-4,2.221331E-2],"split_indices":[49,14,87,17,82,0,44,52,48,0,63,0,0,0,0,0,0,0,0],"split_type":[0,0,0,0,0,0,0,0,0,0,0,0,0,0,0,0,0,0,0],"sum_hessian":[1.835E3,1.829E3,6E0,1.4E1,1.815E3,2E0,4E0,4E0,1E1,1E0,1.814E3,2E0,2E0,2E0,2E0,7E0,3E0,1.765E3,4.9E1],"tree_param":{"num_deleted":"0","num_feature":"93","num_nodes":"19","size_leaf_vector":"1"}},{"base_weights":[-2.373874E-3,-2.5619392E0,7.5263097E-3,-3.881841E0,2.4593815E-2,2.025453E0,-3.0795496E-4,-8.055451E-2,-2.4293223E-1,3.2746098E0,-7.316258E-1,7.989806E-1,-1.2902086E-2,6.6196114E-2,2.0668803E-1,-5.790856E-2,3.0366238E-3,5.8818735E-2,-1.4577575E-2,2.2036314E-4,-3.473773E-2],"categories":[],"categories_nodes":[],"categories_segments":[],"categories_sizes":[],"default_left":[0,0,0,0,0,0,0,0,0,0,0,0,0,0,0,0,0,0,0,0,0],"id":6,"left_children":[1,3,5,7,-1,9,11,-1,-1,13,15,17,19,-1,-1,-1,-1,-1,-1,-1,-1],"loss_changes":[4.6037025E1,3.0124542E1,2.8614864E1,3.2626724E0,0E0,2.6503952E1,1.8169994E1,0E0,0E0,2.9068947E0,1.0842689E0,1.1866661E1,2.0975965E1,0E0,0E0,0E0,0E0,0E0,0E0,0E0,0E0],"parents":[2147483647,0,0,1,1,2,2,3,3,5,5,6,6,9,9,10,10,11,11,12,12],"right_children":[2,4,6,8,-1,10,12,-1,-1,14,16,18,20,-1,-1,-1,-1,-1,-1,-1,-1],"split_conditions":[-3.497385E0,-1.5506991E0,-2.066261E0,-4.46115E0,2.4593815E-2,-6.749426E-1,-2.3497891E0,-8.055451E-2,-2.4293223E-1,3.6256778E0,-5.719079E0,-7.686716E-1,1.7410398E0,6.6196114E-2,2.0668803E-1,-5.790856E-2,3.0366238E-3,5.8818735E-2,-1.4577575E-2,2.2036314E-4,-3.473773E-2],"split_indices":[47,1,25,1,0,61,45,0,0,4,1,1,47,0,0,0,0,0,0,0,0],"split_type":[0,0,0,0,0,0,0,0,0,0,0,0,0,0,0,0,0,0,0,0,0],"sum_hessian":[1.815E3,6E0,1.809E3,4E0,2E0,6E0,1.803E3,2E0,2E0,4E0,2E0,2.7E1,1.776E3,2E0,2E0,1E0,1E0,2E1,7E0,1.733E3,4.3E1],"tree_param":{"num_deleted":"0","num_feature":"93","num_nodes":"21","size_leaf_vector":"1"}},{"base_weights":[8.517256E-3,2.6154943E0,-4.890671E-5,-6.785884E-2,1.840732E-1,-2.6468554E-1,5.7492163E-3,2.9140717E-1,-2.3561347E-2,1.9294702E-2,-3.2107357E-2,-4.15742E-3,5.236011E-3],"categories":[],"categories_nodes":[],"categories_segments":[],"categories_sizes":[],"default_left":[0,0,0,0,0,0,0,0,0,0,0,0,0],"id":7,"left_children":[1,3,5,-1,-1,-1,7,9,11,-1,-1,-1,-1],"loss_changes":[4.091196E1,3.040488E1,5.6107098E1,0E0,0E0,0E0,1.5295589E1,1.5243264E1,1.2674684E1,0E0,0E0,0E0,0E0],"parents":[2147483647,0,0,1,1,2,2,6,6,7,7,8,8],"right_children":[2,4,6,-1,-1,-1,8,10,12,-1,-1,-1,-1],"split_conditions":[-4.635766E0,3.1065593E0,-6.250695E0,-6.785884E-2,1.840732E-1,-2.6468554E-1,-1.1991501E0,2.0458922E0,6.592856E-1,1.9294702E-2,-3.2107357E-2,-4.15742E-3,5.236011E-3],"split_indices":[3,6,82,0,0,0,23,60,83,0,0,0,0],"split_type":[0,0,0,0,0,0,0,0,0,0,0,0,0],"sum_hessian":[1.831E3,5E0,1.826E3,1E0,4E0,1E0,1.825E3,1.69E2,1.656E3,1.54E2,1.5E1,1.131E3,5.25E2],"tree_param":{"num_deleted":"0","num_feature":"93","num_nodes":"13","size_leaf_vector":"1"}},{"base_weights":[-5.3379373E-3,1.6777569E0,-1.18441945E-2,1.8354489E-1,-7.348231E-1,-4.7081075E0,-1.4419272E-3,9.76286E-3,-5.5496782E-2,-6.616237E-2,-2.697656E-1,1.0939975E0,-9.374668E-3,-1.5195071E-2,7.718786E-2,-1.2046888E-3,1.8240085E-2],"categories":[],"categories_nodes":[],"categories_segments":[],"categories_sizes":[],"default_left":[0,0,0,0,0,0,0,0,0,0,0,0,0,0,0,0,0],"id":8,"left_children":[1,3,5,-1,7,9,11,-1,-1,-1,-1,13,15,-1,-1,-1,-1],"loss_changes":[1.9906248E1,3.6357742E1,8.841494E1,0E0,1.612262E0,2.1650314E0,1.57127905E1,0E0,0E0,0E0,0E0,8.642494E0,9.894829E0,0E0,0E0,0E0,0E0],"parents":[2147483647,0,0,1,1,2,2,4,4,5,5,6,6,11,11,12,12],"right_children":[2,4,6,-1,8,10,12,-1,-1,-1,-1,14,16,-1,-1,-1,-1],"split_conditions":[-2.1628447E0,-2.084826E0,-6.250695E0,1.8354489E-1,-1.8458441E0,-1.3418691E0,-2.997308E0,9.76286E-3,-5.5496782E-2,-6.616237E-2,-2.697656E-1,-1.7459489E0,2.3578255E1,-1.5195071E-2,7.718786E-2,-1.2046888E-3,1.8240085E-2],"split_indices":[5,11,82,0,0,16,45,0,0,0,0,51,73,0,0,0,0],"split_type":[0,0,0,0,0,0,0,0,0,0,0,0,0,0,0,0,0],"sum_hessian":[1.815E3,6E0,1.809E3,3E0,3E0,3E0,1.806E3,1E0,2E0,1E0,2E0,1.2E1,1.794E3,3E0,9E0,1.727E3,6.7E1],"tree_param":{"num_deleted":"0","num_feature":"93","num_nodes":"17","size_leaf_vector":"1"}},{"base_weights":[-3.932875E-3,1.7671784E0,-1.2830736E-2,1.6711067E-1,-1.6129199E-1,-2.1446483E0,-8.054393E-3,8.0411774E-1,-5.364689E-2,-1.0120697E-2,-1.3622944E-1,1.0536648E0,-1.7631073E-2,9.518789E-3,5.079004E-2,-2.592737E-2,7.281856E-2,4.477087E-2,-1.2703568E-3],"categories":[],"categories_nodes":[],"categories_segments":[],"categories_sizes":[],"default_left":[0,0,0,0,0,0,0,0,0,0,0,0,0,0,0,0,0,0,0],"id":9,"left_children":[1,3,5,-1,7,9,11,13,-1,-1,-1,15,17,-1,-1,-1,-1,-1,-1],"loss_changes":[2.8373299E1,2.7875748E1,1.8219213E1,0E0,5.2633266E0,3.9540253E0,1.8198503E1,1.9637251E-1,0E0,0E0,0E0,1.0885437E1,1.2610912E1,0E0,0E0,0E0,0E0,0E0,0E0],"parents":[2147483647,0,0,1,1,2,2,4,4,5,5,6,6,7,7,11,11,12,12],"right_children":[2,4,6,-1,8,10,12,14,-1,-1,-1,16,18,-1,-1,-1,-1,-1,-1],"split_conditions":[-2.1628447E0,-2.084826E0,-1.3575435E1,1.6711067E-1,-1.4224759E0,-1.8458441E0,-2.652268E0,-1.8458441E0,-5.364689E-2,-1.0120697E-2,-1.3622944E-1,-1.9302758E0,-2.055497E0,9.518789E-3,5.079004E-2,-2.592737E-2,7.281856E-2,4.477087E-2,-1.2703568E-3],"split_indices":[5,11,77,0,27,0,46,0,0,0,0,14,14,0,0,0,0,0,0],"split_type":[0,0,0,0,0,0,0,0,0,0,0,0,0,0,0,0,0,0,0],"sum_hessian":[1.798E3,8E0,1.79E3,4E0,4E0,3E0,1.787E3,2E0,2E0,1E0,2E0,1.5E1,1.772E3,1E0,1E0,3E0,1.2E1,1.4E1,1.758E3],"tree_param":{"num_deleted":"0","num_feature":"93","num_nodes":"19","size_leaf_vector":"1"}},{"base_weights":[6.8305978E-3,-3.234192E0,1.581467E-2,-2.2538431E-1,-4.4131692E-2,4.2565888E-1,1.705457E-3,1.6267331E0,2.620815E-1,-1.2564392E-1,6.03499E-3,1.0874068E-1,8.551064E-3,1.8135453E-2,-7.8474484E-2,2.884658E-2,-1.3067179E-4],"categories":[],"categories_nodes":[],"categories_segments":[],"categories_sizes":[],"default_left":[0,0,0,0,0,0,0,0,0,0,0,0,0,0,0,0,0],"id":10,"left_children":[1,3,5,-1,-1,7,9,11,13,-1,15,-1,-1,-1,-1,-1,-1],"loss_changes":[5.2666615E1,1.0994843E1,1.0425264E1,0E0,0E0,1.1361777E1,1.9002048E1,5.2129936E0,1.0521818E1,0E0,8.602384E0,0E0,0E0,0E0,0E0,0E0,0E0],"parents":[2147483647,0,0,1,1,2,2,5,5,6,6,7,7,8,8,10,10],"right_children":[2,4,6,-1,-1,8,10,12,14,-1,16,-1,-1,-1,-1,-1,-1],"split_conditions":[-3.497385E0,-1.8458441E0,-1.1002612E0,-2.2538431E-1,-4.4131692E-2,-2.6694808E0,-4.635766E0,-3.5350114E-2,1.0135675E1,-1.2564392E-1,-1.6005144E0,1.0874068E-1,8.551064E-3,1.8135453E-2,-7.8474484E-2,2.884658E-2,-1.3067179E-4],"split_indices":[47,0,24,0,0,82,3,58,78,0,14,0,0,0,0,0,0],"split_type":[0,0,0,0,0,0,0,0,0,0,0,0,0,0,0,0,0],"sum_hessian":[1.806E3,4E0,1.802E3,2E0,2E0,5.9E1,1.743E3,6E0,5.3E1,2E0,1.741E3,4E0,2E0,5.1E1,2E0,2.5E1,1.716E3],"tree_param":{"num_deleted":"0","num_feature":"93","num_nodes":"17","size_leaf_vector":"1"}},{"base_weights":[1.4339395E-4,1.6711935E0,-9.186949E-3,1.6121869E-1,9.834411E-2,-3.4868753E0,5.4871384E-4,9.011967E-1,-5.024537E-2,-7.6705265E-1,-2.5222033E-1,1.1928346E-1,-4.6057876E-2,5.389039E-2,9.284086E-3,-5.9999283E-2,2.4703306E-3,4.7852616E-3,7.027262E-2,-1.9324877E-3,-6.9599494E-2],"categories":[],"categories_nodes":[],"categories_segments":[],"categories_sizes":[],"default_left":[0,0,0,0,0,0,0,0,0,0,0,0,0,0,0,0,0,0,0,0,0],"id":11,"left_children":[1,3,5,-1,7,9,11,13,-1,15,-1,17,19,-1,-1,-1,-1,-1,-1,-1,-1],"loss_changes":[2.808E1,2.4112087E1,6.0640873E1,0E0,6.220109E0,1.7311714E1,9.894432E0,3.0534244E-1,0E0,1.1197037E0,0E0,1.5149585E1,1.2748747E1,0E0,0E0,0E0,0E0,0E0,0E0,0E0,0E0],"parents":[2147483647,0,0,1,1,2,2,4,4,5,5,6,6,7,7,9,9,11,11,12,12],"right_children":[2,4,6,-1,8,10,12,14,-1,16,-1,18,20,-1,-1,-1,-1,-1,-1,-1,-1],"split_conditions":[-2.1628447E0,-2.084826E0,-6.250695E0,1.6121869E-1,-1.458585E0,6.721603E-1,-3.7513176E-1,-2.1495137E0,-5.024537E-2,-6.4962476E-1,-2.5222033E-1,2.4166856E0,3.060211E0,5.389039E-2,9.284086E-3,-5.9999283E-2,2.4703306E-3,4.7852616E-3,7.027262E-2,-1.9324877E-3,-6.9599494E-2],"split_indices":[5,11,82,0,44,17,66,1,0,2,0,17,49,0,0,0,0,0,0,0,0],"split_type":[0,0,0,0,0,0,0,0,0,0,0,0,0,0,0,0,0,0,0,0,0],"sum_hessian":[1.799E3,9E0,1.79E3,4E0,5E0,4E0,1.786E3,3E0,2E0,2E0,2E0,5.03E2,1.283E3,2E0,1E0,1E0,1E0,4.95E2,8E0,1.277E3,6E0],"tree_param":{"num_deleted":"0","num_feature":"93","num_nodes":"21","size_leaf_vector":"1"}},{"base_weights":[-2.0110055E-3,2.2674415E0,-9.541262E-3,1.3242571E-1,9.051984E-3,-3.3744814E0,-2.0964224E-4,-7.478764E-1,-2.4381296E-1,-6.859977E-1,6.6982456E-3,-5.8499303E-2,2.4085722E-3,6.073195E-3,-1.4048454E-1,3.0238E-2,-1.2375796E-4],"categories":[],"categories_nodes":[],"categories_segments":[],"categories_sizes":[],"default_left":[0,0,0,0,0,0,0,0,0,0,0,0,0,0,0,0,0],"id":12,"left_children":[1,3,5,-1,-1,7,9,11,-1,13,15,-1,-1,-1,-1,-1,-1],"loss_changes":[3.1005009E1,4.2909355E0,5.6771114E1,0E0,0E0,1.6076046E1,8.55077E0,1.0644184E0,0E0,3.1207687E1,9.805449E0,0E0,0E0,0E0,0E0,0E0,0E0],"parents":[2147483647,0,0,1,1,2,2,5,5,6,6,7,7,9,9,10,10],"right_children":[2,4,6,-1,-1,8,10,12,-1,14,16,-1,-1,-1,-1,-1,-1],"split_conditions":[-2.1628447E0,-2.9915636E0,-6.250695E0,1.3242571E-1,9.051984E-3,-1.9142802E0,-2.647276E0,-1.72387E0,-2.4381296E-1,1.5382383E0,-2.3117983E0,-5.8499303E-2,2.4085722E-3,6.073195E-3,-1.4048454E-1,3.0238E-2,-1.2375796E-4],"split_indices":[5,1,82,0,0,22,44,0,0,84,38,0,0,0,0,0,0],"split_type":[0,0,0,0,0,0,0,0,0,0,0,0,0,0,0,0,0],"sum_hessian":[1.812E3,5E0,1.807E3,4E0,1E0,4E0,1.803E3,2E0,2E0,1.7E1,1.786E3,1E0,1E0,1.3E1,4E0,2.6E1,1.76E3],"tree_param":{"num_deleted":"0","num_feature":"93","num_nodes":"17","size_leaf_vector":"1"}},{"base_weights":[-1.3270369E-2,1.8434235E0,-2.0412056E-2,1.576091E-1,7.38091E-2,-2.3829863E0,-1.1273849E-2,-2.5912402E-2,2.219554E-2,-3.6921186E0,5.932297E-1,-1.738815E-2,1.2155565E0,-7.1990676E-2,-2.3568587E-1,4.214387E-2,2.3483578E-3,7.0161544E-2,-1.1058258E-3,6.6699736E-2,6.7012548E-3],"categories":[],"categories_nodes":[],"categories_segments":[],"categories_sizes":[],"default_left":[0,0,0,0,0,0,0,0,0,0,0,0,0,0,0,0,0,0,0,0,0],"id":13,"left_children":[1,3,5,-1,7,9,11,-1,-1,13,15,17,19,-1,-1,-1,-1,-1,-1,-1,-1],"loss_changes":[2.4223734E1,1.5979324E1,3.9223198E1,0E0,1.1065413E0,2.9464096E1,1.3613329E1,0E0,0E0,4.717888E0,3.69532E-1,1.21488695E1,9.740639E-1,0E0,0E0,0E0,0E0,0E0,0E0,0E0,0E0],"parents":[2147483647,0,0,1,1,2,2,4,4,5,5,6,6,9,9,10,10,11,11,12,12],"right_children":[2,4,6,-1,8,10,12,-1,-1,14,16,18,20,-1,-1,-1,-1,-1,-1,-1,-1],"split_conditions":[-2.4552312E0,-1.880814E0,-6.250695E0,1.576091E-1,-1.8458441E0,1.2499561E0,3.055359E0,-2.5912402E-2,2.219554E-2,-1.3418691E0,-1.7848572E0,-2.1932034E0,4.7269964E-1,-7.1990676E-2,-2.3568587E-1,4.214387E-2,2.3483578E-3,7.0161544E-2,-1.1058258E-3,6.6699736E-2,6.7012548E-3],"split_indices":[22,1,82,0,0,83,52,0,0,16,0,14,1,0,0,0,0,0,0,0,0],"split_type":[0,0,0,0,0,0,0,0,0,0,0,0,0,0,0,0,0,0,0,0,0],"sum_hessian":[1.823E3,6E0,1.817E3,3E0,3E0,6E0,1.811E3,1E0,2E0,4E0,2E0,1.803E3,8E0,2E0,2E0,1E0,1E0,5E0,1.798E3,7E0,1E0],"tree_param":{"num_deleted":"0","num_feature":"93","num_nodes":"21","size_leaf_vector":"1"}},{"base_weights":[-8.4629306E-4,5.97554E-3,-1.76758E0,1.4111065E0,-4.1703107E-3,-1.3156354E-1,-4.6199438E-1,-1.0209683E0,2.2428257E0,-2.267485E-1,8.662276E-4,-3.536008E-2,6.84068E-3,-6.9590986E-2,2.289649E-3,1.6396403E-1,6.65081E-2,-4.0758427E-2,3.859669E-4],"categories":[],"categories_nodes":[],"categories_segments":[],"categories_sizes":[],"default_left":[0,0,0,0,0,0,0,0,0,0,0,0,0,0,0,0,0,0,0],"id":14,"left_children":[1,3,5,7,9,-1,11,13,15,-1,17,-1,-1,-1,-1,-1,-1,-1,-1],"loss_changes":[2.1933811E1,2.585246E1,6.677723E0,2.85863E1,4.110193E1,0E0,6.84083E-1,1.6461754E0,5.097374E0,0E0,1.0072571E1,0E0,0E0,0E0,0E0,0E0,0E0,0E0,0E0],"parents":[2147483647,0,0,1,1,2,2,3,3,4,4,6,6,7,7,8,8,10,10],"right_children":[2,4,6,8,10,-1,12,14,16,-1,18,-1,-1,-1,-1,-1,-1,-1,-1],"split_conditions":[3.060211E0,-4.46115E0,1.2437557E0,6.721603E-1,-2.9900215E0,-1.3156354E-1,1.020547E0,-1.72387E0,-2.6908119E0,-2.267485E-1,-9.264529E0,-3.536008E-2,6.84068E-3,-6.9590986E-2,2.289649E-3,1.6396403E-1,6.65081E-2,-4.0758427E-2,3.859669E-4],"split_indices":[49,1,28,17,34,0,0,0,61,0,79,0,0,0,0,0,0,0,0],"split_type":[0,0,0,0,0,0,0,0,0,0,0,0,0,0,0,0,0,0,0],"sum_hessian":[1.818E3,1.812E3,6E0,1.2E1,1.8E3,3E0,3E0,3E0,9E0,1E0,1.799E3,2E0,1E0,2E0,1E0,3E0,6E0,1.4E1,1.785E3],"tree_param":{"num_deleted":"0","num_feature":"93","num_nodes":"19","size_leaf_vector":"1"}},{"base_weights":[-7.007176E-3,-2.0291035E0,1.8801262E-3,-1.9951142E-1,-7.1035707E-1,1.5150293E0,-5.632407E-3,-1.0056636E0,1.9154398E-2,2.472956E0,2.540967E-1,-2.3949774E-2,3.258748E-1,-6.555801E-2,-1.8247304E-2,5.563594E-2,1.5044373E-1,4.6636406E-4,3.0829359E-2,-6.522001E-4,-2.992404E-2,1.059816E-3,4.4882935E-2],"categories":[],"categories_nodes":[],"categories_segments":[],"categories_sizes":[],"default_left":[0,0,0,0,0,0,0,0,0,0,0,0,0,0,0,0,0,0,0,0,0,0,0],"id":15,"left_children":[1,3,5,-1,7,9,11,13,-1,15,17,19,21,-1,-1,-1,-1,-1,-1,-1,-1,-1,-1],"loss_changes":[3.2854767E1,1.7855324E1,2.0708902E1,0E0,2.3226671E0,1.0242559E1,1.1016954E1,5.0018215E-1,0E0,2.968521E-1,4.378818E-1,1.0762939E1,1.6530947E1,0E0,0E0,0E0,0E0,0E0,0E0,0E0,0E0,0E0,0E0],"parents":[2147483647,0,0,1,1,2,2,4,4,5,5,6,6,7,7,9,9,10,10,11,11,12,12],"right_children":[2,4,6,-1,8,10,12,14,-1,16,18,20,22,-1,-1,-1,-1,-1,-1,-1,-1,-1,-1],"split_conditions":[-3.497385E0,-1.0322744E0,-3.490081E0,-1.9951142E-1,1.1262431E0,-1.4052312E0,2.318945E0,-3.087471E0,1.9154398E-2,3.6256778E0,2.9979968E0,2.7884784E0,1.208231E-3,-6.555801E-2,-1.8247304E-2,5.563594E-2,1.5044373E-1,4.6636406E-4,3.0829359E-2,-6.522001E-4,-2.992404E-2,1.059816E-3,4.4882935E-2],"split_indices":[47,40,55,0,28,56,67,3,0,4,4,91,54,0,0,0,0,0,0,0,0,0,0],"split_type":[0,0,0,0,0,0,0,0,0,0,0,0,0,0,0,0,0,0,0,0,0,0,0],"sum_hessian":[1.827E3,7E0,1.82E3,2E0,5E0,8E0,1.812E3,4E0,1E0,4E0,4E0,1.718E3,9.4E1,2E0,2E0,2E0,2E0,3E0,1E0,1.687E3,3.1E1,6.2E1,3.2E1],"tree_param":{"num_deleted":"0","num_feature":"93","num_nodes":"23","size_leaf_vector":"1"}},{"base_weights":[-1.410086E-3,-1.6648957E0,6.978026E-3,-3.0748053E0,7.799305E-2,-1.4593662E-2,5.0594765E-1,-1.9286104E-1,-6.337274E-2,-1.763906E-2,2.4138479E-2,-3.3803743E-3,-9.173693E-1,-1.0338229E-1,6.4381284E-1,3.170563E-2,-5.499655E-4,-2.0987406E-2,-1.4636612E-1,6.9940224E-2,1.9011324E-2],"categories":[],"categories_nodes":[],"categories_segments":[],"categories_sizes":[],"default_left":[0,0,0,0,0,0,0,0,0,0,0,0,0,0,0,0,0,0,0,0,0],"id":16,"left_children":[1,3,5,7,9,11,13,-1,-1,-1,-1,15,17,-1,19,-1,-1,-1,-1,-1,-1],"loss_changes":[2.5030249E1,2.2355654E1,1.922044E1,2.1816444E0,1.0421486E0,1.732762E1,2.7587034E1,0E0,0E0,0E0,0E0,8.225049E0,1.9775364E1,0E0,1.3597525E1,0E0,0E0,0E0,0E0,0E0,0E0],"parents":[2147483647,0,0,1,1,2,2,3,3,4,4,5,5,6,6,11,11,12,12,14,14],"right_children":[2,4,6,8,10,12,14,-1,-1,-1,-1,16,18,-1,20,-1,-1,-1,-1,-1,-1],"split_conditions":[-3.497385E0,-1.7398751E0,2.3578255E1,-1.8458441E0,8.157558E-1,1.8425775E0,-3.0003004E0,-1.9286104E-1,-6.337274E-2,-1.763906E-2,2.4138479E-2,-3.667658E0,5.296751E0,-1.0338229E-1,-1.4052312E0,3.170563E-2,-5.499655E-4,-2.0987406E-2,-1.4636612E-1,6.9940224E-2,1.9011324E-2],"split_indices":[47,3,73,0,4,47,50,0,0,0,0,33,76,0,56,0,0,0,0,0,0],"split_type":[0,0,0,0,0,0,0,0,0,0,0,0,0,0,0,0,0,0,0,0,0],"sum_hessian":[1.792E3,8E0,1.784E3,4E0,4E0,1.711E3,7.3E1,2E0,2E0,2E0,2E0,1.691E3,2E1,3E0,7E1,1.9E1,1.672E3,1.7E1,3E0,1.7E1,5.3E1],"tree_param":{"num_deleted":"0","num_feature":"93","num_nodes":"21","size_leaf_vector":"1"}},{"base_weights":[-6.8113105E-3,1.7038646E0,-1.5413475E-2,2.4109612E0,-5.139822E-1,-1.0596744E-3,-5.4739773E-1,1.405438E-1,4.7039147E-2,8.873735E-3,-4.74224E-2,-1.0672568E-2,4.9738643E-1,-1.6585355E-1,-3.505885E-1,-2.8504217E-2,-1.1881022E-4,7.227505E-2,9.326431E-3,-3.900672E-2,2.8025616E-2],"categories":[],"categories_nodes":[],"categories_segments":[],"categories_sizes":[],"default_left":[0,0,0,0,0,0,0,0,0,0,0,0,0,0,0,0,0,0,0,0,0],"id":17,"left_children":[1,3,5,7,9,11,13,-1,-1,-1,-1,15,17,-1,19,-1,-1,-1,-1,-1,-1],"loss_changes":[2.6470045E1,1.5353277E1,1.3660216E1,1.471199E0,1.0695685E0,8.35691E0,2.4456642E1,0E0,0E0,0E0,0E0,7.939539E0,9.456422E0,0E0,1.8048458E1,0E0,0E0,0E0,0E0,0E0,0E0],"parents":[2147483647,0,0,1,1,2,2,3,3,4,4,5,5,6,6,11,11,12,12,14,14],"right_children":[2,4,6,8,10,12,14,-1,-1,-1,-1,16,18,-1,20,-1,-1,-1,-1,-1,-1],"split_conditions":[-2.1628447E0,-1.2578444E0,1.7410398E0,-1.8458441E0,-1.8458441E0,1.8085449E0,-3.4960504E0,1.405438E-1,4.7039147E-2,8.873735E-3,-4.74224E-2,-9.044286E0,-1.1390537E0,-1.6585355E-1,1.4367982E0,-2.8504217E-2,-1.1881022E-4,7.227505E-2,9.326431E-3,-3.900672E-2,2.8025616E-2],"split_indices":[5,13,47,0,0,39,53,0,0,0,0,79,23,0,84,0,0,0,0,0,0],"split_type":[0,0,0,0,0,0,0,0,0,0,0,0,0,0,0,0,0,0,0,0,0],"sum_hessian":[1.796E3,8E0,1.788E3,6E0,2E0,1.742E3,4.6E1,4E0,2E0,1E0,1E0,1.71E3,3.2E1,2E0,4.4E1,2.4E1,1.686E3,7E0,2.5E1,3E1,1.4E1],"tree_param":{"num_deleted":"0","num_feature":"93","num_nodes":"21","size_leaf_vector":"1"}},{"base_weights":[6.776499E-3,1.3530587E0,1.11673915E-4,2.1559389E0,-4.8567403E-2,-2.9119205E0,8.13374E-3,1.3492204E-1,2.6656142E-2,-6.465951E-1,-2.103303E-1,8.6643E-1,1.4609977E-3,-5.0271034E-2,1.7763999E-3,1.3684988E-2,9.393023E-2,-8.707823E-2,2.1826143E-4],"categories":[],"categories_nodes":[],"categories_segments":[],"categories_sizes":[],"default_left":[0,0,0,0,0,0,0,0,0,0,0,0,0,0,0,0,0,0,0],"id":18,"left_children":[1,3,5,7,-1,9,11,-1,-1,13,-1,15,17,-1,-1,-1,-1,-1,-1],"loss_changes":[1.6393038E1,1.889015E1,4.251646E1,4.7240677E0,0E0,1.1944447E1,1.0393583E1,0E0,0E0,7.7001E-1,0E0,7.8850765E0,9.129595E0,0E0,0E0,0E0,0E0,0E0,0E0],"parents":[2147483647,0,0,1,1,2,2,3,3,5,5,6,6,9,9,11,11,12,12],"right_children":[2,4,6,8,-1,10,12,-1,-1,14,-1,16,18,-1,-1,-1,-1,-1,-1],"split_conditions":[-2.1628447E0,6.4720476E-1,-6.250695E0,-2.9915636E0,-4.8567403E-2,6.721603E-1,-2.997308E0,1.3492204E-1,2.6656142E-2,-1.72387E0,-2.103303E-1,9.0929514E-1,-3.498328E0,-5.0271034E-2,1.7763999E-3,1.3684988E-2,9.393023E-2,-8.707823E-2,2.1826143E-4],"split_indices":[5,61,82,1,0,17,45,0,0,0,0,81,49,0,0,0,0,0,0],"split_type":[0,0,0,0,0,0,0,0,0,0,0,0,0,0,0,0,0,0,0],"sum_hessian":[1.826E3,8E0,1.818E3,6E0,2E0,4E0,1.814E3,4E0,2E0,2E0,2E0,1.3E1,1.801E3,1E0,1E0,9E0,4E0,2E0,1.799E3],"tree_param":{"num_deleted":"0","num_feature":"93","num_nodes":"19","size_leaf_vector":"1"}},{"base_weights":[1.5165382E-3,-1.862675E0,9.768899E-3,-1.8292652E-1,-6.543015E-1,1.9479012E0,2.230478E-3,1.806959E-2,-9.2971855E-1,1.3865642E-1,6.35699E-1,-1.2115078E0,6.2840413E-3,-6.042214E-2,-1.7054407E-2,-2.0747378E-3,4.3763094E-2,-1.5536827E-1,2.566312E-2,2.0210909E-2,-3.0239942E-4],"categories":[],"categories_nodes":[],"categories_segments":[],"categories_sizes":[],"default_left":[0,0,0,0,0,0,0,0,0,0,0,0,0,0,0,0,0,0,0,0,0],"id":19,"left_children":[1,3,5,-1,7,9,11,-1,13,-1,15,17,19,-1,-1,-1,-1,-1,-1,-1,-1],"loss_changes":[2.7924738E1,1.496673E1,2.6396751E1,0E0,2.014428E0,5.8171787E0,8.86847E0,0E0,4.0814257E-1,0E0,6.852406E-1,2.1214407E1,8.816019E0,0E0,0E0,0E0,0E0,0E0,0E0,0E0,0E0],"parents":[2147483647,0,0,1,1,2,2,4,4,5,5,6,6,8,8,10,10,11,11,12,12],"right_children":[2,4,6,-1,8,10,12,-1,14,-1,16,18,20,-1,-1,-1,-1,-1,-1,-1,-1],"split_conditions":[-3.497385E0,-1.8458441E0,-2.0185396E1,-1.8292652E-1,-1.3649892E0,-2.6908119E0,-3.4960504E0,1.806959E-2,-4.46115E0,1.3865642E-1,8.320302E-1,9.3301034E-1,-1.4350259E0,-6.042214E-2,-1.7054407E-2,-2.0747378E-3,4.3763094E-2,-1.5536827E-1,2.566312E-2,2.0210909E-2,-3.0239942E-4],"split_indices":[47,0,74,0,16,61,53,0,1,0,7,28,25,0,0,0,0,0,0,0,0],"split_type":[0,0,0,0,0,0,0,0,0,0,0,0,0,0,0,0,0,0,0,0,0],"sum_hessian":[1.813E3,7E0,1.806E3,2E0,5E0,6E0,1.8E3,1E0,4E0,3E0,3E0,5E0,1.795E3,2E0,2E0,1E0,2E0,2E0,3E0,5.3E1,1.742E3],"tree_param":{"num_deleted":"0","num_feature":"93","num_nodes":"21","size_leaf_vector":"1"}},{"base_weights":[4.907458E-3,-3.9099288E-1,1.7518645E-2,-1.6731633E0,1.0676232E-1,2.264296E-2,-1.1261128E0,2.3160875E-1,-2.8391874E0,-1.4804564E-1,8.383162E-1,2.6948068E-1,-4.2346762E-3,3.2051867E-1,-2.0581954E0,7.801476E-2,-1.249441E-2,-6.953511E-3,-1.7484164E-1,1.0555576E-2,-2.3868367E-2,2.231909E-2,7.0630305E-2,-1.172595E-2,2.2818761E-2,6.9201104E-2,-4.27976E-4,-3.349755E-4,2.159123E-2,-1.2476393E-1,-4.6752356E-2],"categories":[],"categories_nodes":[],"categories_segments":[],"categories_sizes":[],"default_left":[0,0,0,0,0,0,0,0,0,0,0,0,0,0,0,0,0,0,0,0,0,0,0,0,0,0,0,0,0,0,0],"id":20,"left_children":[1,3,5,7,9,11,13,15,17,19,21,23,25,27,29,-1,-1,-1,-1,-1,-1,-1,-1,-1,-1,-1,-1,-1,-1,-1,-1],"loss_changes":[9.218515E0,3.6556427E1,1.0509629E1,3.619374E1,7.9531503E0,1.1823667E1,1.1446732E1,4.868209E0,1.727089E1,3.8856814E0,1.8453612E0,1.6591118E1,9.666266E0,1.4857829E-1,1.2134361E-1,0E0,0E0,0E0,0E0,0E0,0E0,0E0,0E0,0E0,0E0,0E0,0E0,0E0,0E0,0E0,0E0],"parents":[2147483647,0,0,1,1,2,2,3,3,4,4,5,5,6,6,7,7,8,8,9,9,10,10,11,11,12,12,13,13,14,14],"right_children":[2,4,6,8,10,12,14,16,18,20,22,24,26,28,30,-1,-1,-1,-1,-1,-1,-1,-1,-1,-1,-1,-1,-1,-1,-1,-1],"split_conditions":[-1.8828992E0,-1.6018959E0,3.060211E0,-1.4650934E0,1.0816976E0,-1.1341105E0,4.4875407E-1,-5.719079E0,-1.2926235E-2,1.5569606E-1,2.9235626E1,-6.184428E-1,-2.0690846E0,-4.46115E0,6.307678E-3,7.801476E-2,-1.249441E-2,-6.953511E-3,-1.7484164E-1,1.0555576E-2,-2.3868367E-2,2.231909E-2,7.0630305E-2,-1.172595E-2,2.2818761E-2,6.9201104E-2,-4.27976E-4,-3.349755E-4,2.159123E-2,-1.2476393E-1,-4.6752356E-2],"split_indices":[52,0,49,86,44,34,47,1,7,17,73,62,11,1,44,0,0,0,0,0,0,0,0,0,0,0,0,0,0,0,0],"split_type":[0,0,0,0,0,0,0,0,0,0,0,0,0,0,0,0,0,0,0,0,0,0,0,0,0,0,0,0,0,0,0],"sum_hessian":[1.844E3,5.6E1,1.788E3,1.5E1,4.1E1,1.781E3,7E0,6E0,9E0,3.1E1,1E1,1.74E2,1.607E3,3E0,4E0,1E0,5E0,2E0,7E0,1.5E1,1.6E1,7E0,3E0,4.7E1,1.27E2,4E0,1.603E3,1E0,2E0,2E0,2E0],"tree_param":{"num_deleted":"0","num_feature":"93","num_nodes":"31","size_leaf_vector":"1"}},{"base_weights":[4.9936627E-3,1.3700434E0,-1.8116757E-3,2.171941E0,-4.7886606E-2,-1.6280186E0,5.420935E-3,1.2691449E-1,4.186898E-2,-2.7806716E0,2.1980229E-1,6.455596E-1,-5.064352E-3,-1.739078E-1,-5.7814833E-2,-1.1849276E-2,2.2553002E-2,4.85633E-2,-2.584207E-2,5.771524E-4,-1.9855661E-2],"categories":[],"categories_nodes":[],"categories_segments":[],"categories_sizes":[],"default_left":[0,0,0,0,0,0,0,0,0,0,0,0,0,0,0,0,0,0,0,0,0],"id":21,"left_children":[1,3,5,7,-1,9,11,-1,-1,13,15,17,19,-1,-1,-1,-1,-1,-1,-1,-1],"loss_changes":[1.6853863E1,1.8879875E1,2.1250494E1,1.2968903E0,0E0,1.7650368E1,1.2078226E1,0E0,0E0,1.6431007E0,5.2943754E-1,1.1481434E1,1.153541E1,0E0,0E0,0E0,0E0,0E0,0E0,0E0,0E0],"parents":[2147483647,0,0,1,1,2,2,3,3,5,5,6,6,9,9,10,10,11,11,12,12],"right_children":[2,4,6,8,-1,10,12,-1,-1,14,16,18,20,-1,-1,-1,-1,-1,-1,-1,-1],"split_conditions":[-2.1628447E0,-1.0047036E0,-3.497385E0,-1.418849E0,-4.7886606E-2,-1.7398751E0,-2.3497891E0,1.2691449E-1,4.186898E-2,-1.418849E0,-1.5984691E0,-1.0169457E0,1.3980126E0,-1.739078E-1,-5.7814833E-2,-1.1849276E-2,2.2553002E-2,4.85633E-2,-2.584207E-2,5.771524E-4,-1.9855661E-2],"split_indices":[5,44,47,2,0,3,45,0,0,2,3,3,47,0,0,0,0,0,0,0,0],"split_type":[0,0,0,0,0,0,0,0,0,0,0,0,0,0,0,0,0,0,0,0,0],"sum_hessian":[1.813E3,8E0,1.805E3,6E0,2E0,7E0,1.798E3,4E0,2E0,4E0,3E0,2.8E1,1.77E3,2E0,2E0,1E0,2E0,2.2E1,6E0,1.699E3,7.1E1],"tree_param":{"num_deleted":"0","num_feature":"93","num_nodes":"21","size_leaf_vector":"1"}},{"base_weights":[-7.943614E-3,-1.8544842E0,-7.621997E-4,-1.8444812E-1,-3.8290045E-1,1.1669954E-2,-5.347198E-1,-6.8164803E-4,-2.3590455E-2,4.177943E-1,-2.1603745E-3,-6.877075E-2,-1.6550324E0,1.2619688E-2,1.0602807E-1,-2.7718425E-2,5.0450716E-4,-2.0227188E-2,3.2161485E-2,-1.1460779E-1,-1.5231441E-2],"categories":[],"categories_nodes":[],"categories_segments":[],"categories_sizes":[],"default_left":[0,0,0,0,0,0,0,0,0,0,0,0,0,0,0,0,0,0,0,0,0],"id":22,"left_children":[1,3,5,-1,7,9,11,-1,-1,13,15,17,19,-1,-1,-1,-1,-1,-1,-1,-1],"loss_changes":[2.3960806E1,1.7484613E1,1.1961717E1,0E0,1.5772313E-1,9.892145E0,2.1288536E1,0E0,0E0,1.579982E1,1.1532873E1,7.4323306E0,9.6262245E0,0E0,0E0,0E0,0E0,0E0,0E0,0E0,0E0],"parents":[2147483647,0,0,1,1,2,2,4,4,5,5,6,6,9,9,10,10,11,11,12,12],"right_children":[2,4,6,-1,8,10,12,-1,-1,14,16,18,20,-1,-1,-1,-1,-1,-1,-1,-1],"split_conditions":[-3.4966435E0,-1.72387E0,1.8425775E0,-1.8444812E-1,-1.5409089E0,-1.6674192E0,9.931599E-1,-6.8164803E-4,-2.3590455E-2,1.8416889E0,-1.8458441E0,1.6113044E0,1.3646728E-1,1.2619688E-2,1.0602807E-1,-2.7718425E-2,5.0450716E-4,-2.0227188E-2,3.2161485E-2,-1.1460779E-1,-1.5231441E-2],"split_indices":[52,0,47,0,0,5,91,0,0,85,0,84,39,0,0,0,0,0,0,0,0],"split_type":[0,0,0,0,0,0,0,0,0,0,0,0,0,0,0,0,0,0,0,0,0],"sum_hessian":[1.806E3,6E0,1.8E3,2E0,4E0,1.76E3,4E1,1E0,3E0,5.7E1,1.703E3,2.9E1,1.1E1,5.3E1,4E0,3.6E1,1.667E3,2E1,9E0,7E0,4E0],"tree_param":{"num_deleted":"0","num_feature":"93","num_nodes":"21","size_leaf_vector":"1"}},{"base_weights":[-2.2658922E-3,-1.5141416E0,3.5375042E-3,-3.174051E0,5.2430344E-1,1.7441956E0,-1.2464671E-3,-4.608068E-2,-1.8088296E-1,6.4908884E-2,-1.6638054E-1,1.1047385E-1,-2.9232593E-3,4.0513007E-3,-1.2016972E0,4.576701E-3,-1.7055241E-2,-7.0135435E-4,1.5693717E-2,-9.8214746E-2,2.5987092E-3],"categories":[],"categories_nodes":[],"categories_segments":[],"categories_sizes":[],"default_left":[0,0,0,0,0,0,0,0,0,0,0,0,0,0,0,0,0,0,0,0,0],"id":23,"left_children":[1,3,5,7,9,11,13,-1,-1,-1,15,-1,-1,17,19,-1,-1,-1,-1,-1,-1],"loss_changes":[1.6061802E1,2.5349604E1,1.51910925E1,6.627121E-1,2.3540018E0,4.322901E0,1.1579539E1,0E0,0E0,0E0,1.664145E-1,0E0,0E0,1.01592E1,7.7504673E0,0E0,0E0,0E0,0E0,0E0,0E0],"parents":[2147483647,0,0,1,1,2,2,3,3,4,4,5,5,6,6,10,10,13,13,14,14],"right_children":[2,4,6,8,10,12,14,-1,-1,-1,16,-1,-1,18,20,-1,-1,-1,-1,-1,-1],"split_conditions":[-3.483077E0,-1.4799219E0,-3.4703166E0,-5.719079E0,-1.3579478E0,-4.125017E0,3.060211E0,-4.608068E-2,-1.8088296E-1,6.4908884E-2,-5.651162E-1,1.1047385E-1,-2.9232593E-3,1.562157E0,4.1990983E-3,4.576701E-3,-1.7055241E-2,-7.0135435E-4,1.5693717E-2,-9.8214746E-2,2.5987092E-3],"split_indices":[56,0,60,1,0,1,49,0,0,0,0,0,0,39,48,0,0,0,0,0,0],"split_type":[0,0,0,0,0,0,0,0,0,0,0,0,0,0,0,0,0,0,0,0,0],"sum_hessian":[1.829E3,6E0,1.823E3,3E0,3E0,4E0,1.819E3,1E0,2E0,1E0,2E0,3E0,1E0,1.812E3,7E0,1E0,1E0,1.713E3,9.9E1,4E0,3E0],"tree_param":{"num_deleted":"0","num_feature":"93","num_nodes":"21","size_leaf_vector":"1"}},{"base_weights":[-7.5820433E-3,-1.408077E0,-1.3946582E-3,2.643739E-1,-3.1466215E0,-1.702361E-2,4.32765E-1,5.2595336E-2,-6.112835E-1,-4.4928662E-2,-1.7982233E-1,-7.3929047E-3,-6.812465E-1,7.291041E-1,-5.6412697E-1,-4.519919E-2,-6.47073E-4,1.2238337E-2,-1.2104682E-3,-5.3167217E-3,-8.457487E-2,4.2000752E-2,-3.6432385E-2,-8.395326E-2,-7.2735134E-3],"categories":[],"categories_nodes":[],"categories_segments":[],"categories_sizes":[],"default_left":[0,0,0,0,0,0,0,0,0,0,0,0,0,0,0,0,0,0,0,0,0,0,0,0,0],"id":24,"left_children":[1,3,5,7,9,11,13,-1,15,-1,-1,17,19,21,23,-1,-1,-1,-1,-1,-1,-1,-1,-1,-1],"loss_changes":[1.5760404E1,2.4092928E1,1.2302621E1,4.091058E0,8.1324387E-1,1.11896E1,1.9022644E1,0E0,5.1370573E-1,0E0,0E0,7.324911E0,1.4340271E1,8.534424E0,6.7573915E0,0E0,0E0,0E0,0E0,0E0,0E0,0E0,0E0,0E0,0E0],"parents":[2147483647,0,0,1,1,2,2,3,3,4,4,5,5,6,6,8,8,11,11,12,12,13,13,14,14],"right_children":[2,4,6,8,10,12,14,-1,16,-1,-1,18,20,22,24,-1,-1,-1,-1,-1,-1,-1,-1,-1,-1],"split_conditions":[-6.250695E0,-1.3984134E0,2.4059631E1,-1.2501653E0,-1.3418691E0,1.8425775E0,1.1915457E0,5.2595336E-2,-1.7848572E0,-4.4928662E-2,-1.7982233E-1,-1.1086686E0,6.139687E-1,3.060211E0,-1.6417319E0,-4.519919E-2,-6.47073E-4,1.2238337E-2,-1.2104682E-3,-5.3167217E-3,-8.457487E-2,4.2000752E-2,-3.6432385E-2,-8.395326E-2,-7.2735134E-3],"split_indices":[82,49,73,2,16,47,66,0,0,0,0,49,91,49,62,0,0,0,0,0,0,0,0,0,0],"split_type":[0,0,0,0,0,0,0,0,0,0,0,0,0,0,0,0,0,0,0,0,0,0,0,0,0],"sum_hessian":[1.818E3,7E0,1.811E3,4E0,3E0,1.749E3,6.2E1,2E0,2E0,1E0,2E0,1.725E3,2.4E1,4.8E1,1.4E1,1E0,1E0,1.07E2,1.618E3,1.6E1,8E0,4.5E1,3E0,3E0,1.1E1],"tree_param":{"num_deleted":"0","num_feature":"93","num_nodes":"25","size_leaf_vector":"1"}},{"base_weights":[-8.444779E-3,1.1626893E0,-1.4857325E-2,1.1962692E-1,-5.5966355E-2,-6.546938E-1,-3.072907E-3,-4.591417E-2,6.04763E-1,-3.3990543E0,-1.5895255E-1,5.3544647E-1,-1.3162666E-2,3.98202E-3,3.7662853E-2,-4.3805446E-2,-1.9053817E-1,7.0192264E-3,-1.0324527E-1,-1.0407757E-3,5.0007727E-2,-5.04793E-2,-2.5873145E-4],"categories":[],"categories_nodes":[],"categories_segments":[],"categories_sizes":[],"default_left":[0,0,0,0,0,0,0,0,0,0,0,0,0,0,0,0,0,0,0,0,0,0,0],"id":25,"left_children":[1,3,5,-1,7,9,11,-1,13,15,17,19,21,-1,-1,-1,-1,-1,-1,-1,-1,-1,-1],"loss_changes":[1.3790525E1,1.5121525E1,1.3758671E1,0E0,3.9738925E0,4.4355972E1,9.74937E0,0E0,2.519207E-1,1.8549538E0,1.683503E1,8.551298E0,1.4011395E1,0E0,0E0,0E0,0E0,0E0,0E0,0E0,0E0,0E0,0E0],"parents":[2147483647,0,0,1,1,2,2,4,4,5,5,6,6,8,8,9,9,10,10,11,11,12,12],"right_children":[2,4,6,-1,8,10,12,-1,14,16,18,20,22,-1,-1,-1,-1,-1,-1,-1,-1,-1,-1],"split_conditions":[-2.1628447E0,-2.084826E0,-2.7764976E0,1.1962692E-1,-1.2487822E-1,-6.3961774E-1,-1.7313075E0,-4.591417E-2,-1.8458441E0,-1.3418691E0,2.487601E0,-5.31705E-1,-1.2265598E0,3.98202E-3,3.7662853E-2,-4.3805446E-2,-1.9053817E-1,7.0192264E-3,-1.0324527E-1,-1.0407757E-3,5.0007727E-2,-5.04793E-2,-2.5873145E-4],"split_indices":[5,11,1,0,45,39,5,0,0,16,60,56,24,0,0,0,0,0,0,0,0,0,0],"split_type":[0,0,0,0,0,0,0,0,0,0,0,0,0,0,0,0,0,0,0,0,0,0,0],"sum_hessian":[1.833E3,9E0,1.824E3,4E0,5E0,3.2E1,1.792E3,2E0,3E0,4E0,2.8E1,3.2E1,1.76E3,1E0,2E0,1E0,3E0,2.5E1,3E0,1.5E1,1.7E1,1.3E1,1.747E3],"tree_param":{"num_deleted":"0","num_feature":"93","num_nodes":"23","size_leaf_vector":"1"}},{"base_weights":[5.511495E-3,2.9890883E-1,-1.904464E-2,1.10866226E-1,2.4028698E-1,-1.9113487E0,-1.4467885E-2,-9.6180874E-1,3.0316684E-1,2.5900498E-2,-2.893805E0,-1.1846243E0,-8.076445E-3,-3.2643855E-4,-6.713075E-2,5.7394723E-3,3.112934E-2,-1.7432506E-1,-4.2710308E-2,2.4321524E-3,-1.0904833E-1,4.58696E-2,-6.855593E-4],"categories":[],"categories_nodes":[],"categories_segments":[],"categories_sizes":[],"default_left":[0,0,0,0,0,0,0,0,0,0,0,0,0,0,0,0,0,0,0,0,0,0,0],"id":26,"left_children":[1,3,5,-1,7,9,11,13,15,-1,17,19,21,-1,-1,-1,-1,-1,-1,-1,-1,-1,-1],"loss_changes":[1.2966956E1,1.5099296E1,1.4357625E1,0E0,1.05715065E1,1.1045974E1,1.2390588E1,2.5376701E0,7.750826E0,0E0,6.4839745E-1,1.1164899E1,8.616955E0,0E0,0E0,0E0,0E0,0E0,0E0,0E0,0E0,0E0,0E0],"parents":[2147483647,0,0,1,1,2,2,4,4,5,5,6,6,7,7,8,8,10,10,11,11,12,12],"right_children":[2,4,6,-1,8,10,12,14,16,-1,18,20,22,-1,-1,-1,-1,-1,-1,-1,-1,-1,-1],"split_conditions":[-1.1075557E0,-2.4552312E0,-6.250695E0,1.10866226E-1,-3.0344524E0,-2.1628447E0,-2.992004E0,-3.4699988E0,4.5474514E-1,2.5900498E-2,-1.8458441E0,-1.8820754E-1,-2.055497E0,-3.2643855E-4,-6.713075E-2,5.7394723E-3,3.112934E-2,-1.7432506E-1,-4.2710308E-2,2.4321524E-3,-1.0904833E-1,4.58696E-2,-6.855593E-4],"split_indices":[54,22,82,0,58,5,44,62,50,0,0,62,14,0,0,0,0,0,0,0,0,0,0],"split_type":[0,0,0,0,0,0,0,0,0,0,0,0,0,0,0,0,0,0,0,0,0,0,0],"sum_hessian":[1.798E3,1.38E2,1.66E3,3E0,1.35E2,3E0,1.657E3,6E0,1.29E2,1E0,2E0,8E0,1.649E3,2E0,4E0,8.2E1,4.7E1,1E0,1E0,4E0,4E0,9E0,1.64E3],"tree_param":{"num_deleted":"0","num_feature":"93","num_nodes":"23","size_leaf_vector":"1"}},{"base_weights":[-2.0940797E-2,1.449162E0,-2.730043E-2,1.9405558E0,-4.976488E-2,-1.4185532E0,-1.9712064E-2,3.5144392E-2,1.1475227E-1,-2.3490586E0,5.6446934E-1,7.102139E-2,-2.2842297E-2,-4.806053E-2,-1.574821E-1,4.111542E-2,-5.226198E-3,-1.9923483E-3,1.135227E-2],"categories":[],"categories_nodes":[],"categories_segments":[],"categories_sizes":[],"default_left":[0,0,0,0,0,0,0,0,0,0,0,0,0,0,0,0,0,0,0],"id":27,"left_children":[1,3,5,7,-1,9,11,-1,-1,13,15,-1,17,-1,-1,-1,-1,-1,-1],"loss_changes":[1.7363838E1,1.1540968E1,1.9460878E1,1.458025E0,0E0,1.97781E1,8.313594E0,0E0,0E0,4.750149E0,7.7592134E-1,0E0,7.802184E0,0E0,0E0,0E0,0E0,0E0,0E0],"parents":[2147483647,0,0,1,1,2,2,3,3,5,5,6,6,9,9,10,10,12,12],"right_children":[2,4,6,8,-1,10,12,-1,-1,14,16,-1,18,-1,-1,-1,-1,-1,-1],"split_conditions":[-2.0185396E1,-2.3609214E0,-1.1091651E1,8.1177044E-1,-4.976488E-2,-1.2662785E0,-4.040307E0,3.5144392E-2,1.1475227E-1,6.5818554E-1,-1.047605E0,7.102139E-2,1.3348113E0,-4.806053E-2,-1.574821E-1,4.111542E-2,-5.226198E-3,-1.9923483E-3,1.135227E-2],"split_indices":[74,1,77,20,0,11,33,0,0,17,1,0,43,0,0,0,0,0,0],"split_type":[0,0,0,0,0,0,0,0,0,0,0,0,0,0,0,0,0,0,0],"sum_hessian":[1.852E3,7E0,1.845E3,6E0,1E0,9E0,1.836E3,2E0,4E0,6E0,3E0,3E0,1.833E3,3E0,3E0,2E0,1E0,1.717E3,1.16E2],"tree_param":{"num_deleted":"0","num_feature":"93","num_nodes":"19","size_leaf_vector":"1"}},{"base_weights":[3.6282009E-3,7.6544785E-1,-3.1719902E-3,-4.9976748E-1,1.2288336E0,2.1197083E-3,-1.1841471E0,-3.1422812E-2,3.746886E-4,9.776233E-2,6.2122124E-1,-1.2035466E0,5.5014207E-3,-1.6830295E0,1.0416664E-2,4.3003578E-2,-3.177654E-3,-2.402584E-2,-7.626971E-2,-9.2583627E-4,8.302365E-3,-2.3181913E-2,-9.170901E-2],"categories":[],"categories_nodes":[],"categories_segments":[],"categories_sizes":[],"default_left":[0,0,0,0,0,0,0,0,0,0,0,0,0,0,0,0,0,0,0,0,0,0,0],"id":28,"left_children":[1,3,5,7,9,11,13,-1,-1,-1,15,17,19,21,-1,-1,-1,-1,-1,-1,-1,-1,-1],"loss_changes":[9.368807E0,9.994655E0,1.1207621E1,3.3110356E-1,4.08189E0,7.288531E0,5.908104E0,0E0,0E0,0E0,1.3631282E0,4.3054914E-1,6.8744926E0,2.5547218E-1,0E0,0E0,0E0,0E0,0E0,0E0,0E0,0E0,0E0],"parents":[2147483647,0,0,1,1,2,2,3,3,4,4,5,5,6,6,10,10,11,11,12,12,13,13],"right_children":[2,4,6,8,10,12,14,-1,-1,-1,16,18,20,22,-1,-1,-1,-1,-1,-1,-1,-1,-1],"split_conditions":[-2.756998E0,1.8810235E0,5.175093E0,-1.7848572E0,5.278856E-3,-3.4966435E0,4.568006E0,-3.1422812E-2,3.746886E-4,9.776233E-2,1.6731955E0,7.181203E-1,1.4032784E0,-5.651162E-1,1.0416664E-2,4.3003578E-2,-3.177654E-3,-2.402584E-2,-7.626971E-2,-9.2583627E-4,8.302365E-3,-2.3181913E-2,-9.170901E-2],"split_indices":[34,81,9,0,46,52,6,0,0,0,68,9,32,0,0,0,0,0,0,0,0,0,0],"split_type":[0,0,0,0,0,0,0,0,0,0,0,0,0,0,0,0,0,0,0,0,0,0,0],"sum_hessian":[1.807E3,1.5E1,1.792E3,4E0,1.1E1,1.785E3,7E0,3E0,1E0,4E0,7E0,4E0,1.781E3,5E0,2E0,5E0,2E0,2E0,2E0,1.55E3,2.31E2,1E0,4E0],"tree_param":{"num_deleted":"0","num_feature":"93","num_nodes":"23","size_leaf_vector":"1"}},{"base_weights":[5.892883E-3,3.6187327E-1,-1.0411824E-2,2.1471135E-1,8.2974575E-2,-2.0711524E0,-3.3080033E-3,-1.2379386E0,3.168641E-1,-1.6193081E-1,-3.3888333E-2,8.454276E-1,-1.0673585E-2,-1.0015729E-2,-9.314582E-2,-1.7211609E-2,2.6980579E-2,-2.6813129E-2,6.1776936E-2,-1.8865524E-2,2.056512E-4],"categories":[],"categories_nodes":[],"categories_segments":[],"categories_sizes":[],"default_left":[0,0,0,0,0,0,0,0,0,0,0,0,0,0,0,0,0,0,0,0,0],"id":29,"left_children":[1,3,5,7,-1,9,11,13,15,-1,-1,17,19,-1,-1,-1,-1,-1,-1,-1,-1],"loss_changes":[1.0602156E1,1.4920484E1,2.556771E1,1.1224885E1,0E0,7.56534E0,1.0899018E1,2.8692904E0,1.0346521E1,0E0,0E0,8.747764E0,9.369587E0,0E0,0E0,0E0,0E0,0E0,0E0,0E0,0E0],"parents":[2147483647,0,0,1,1,2,2,3,3,5,5,6,6,7,7,8,8,11,11,12,12],"right_children":[2,4,6,8,-1,10,12,14,16,-1,-1,18,20,-1,-1,-1,-1,-1,-1,-1,-1],"split_conditions":[-1.3874375E0,1.6412163E0,-3.4966435E0,-2.9975104E0,8.2974575E-2,-1.72387E0,-2.652268E0,9.921557E-1,-2.4651356E0,-1.6193081E-1,-3.3888333E-2,-8.608516E0,-1.7848572E0,-1.0015729E-2,-9.314582E-2,-1.7211609E-2,2.6980579E-2,-2.6813129E-2,6.1776936E-2,-1.8865524E-2,2.056512E-4],"split_indices":[25,92,52,46,0,0,46,4,87,0,0,77,0,0,0,0,0,0,0,0,0],"split_type":[0,0,0,0,0,0,0,0,0,0,0,0,0,0,0,0,0,0,0,0,0],"sum_hessian":[1.825E3,7.9E1,1.746E3,7.2E1,7E0,5E0,1.741E3,4E0,6.8E1,2E0,3E0,1.4E1,1.727E3,2E0,2E0,1.7E1,5.1E1,3E0,1.1E1,6.6E1,1.661E3],"tree_param":{"num_deleted":"0","num_feature":"93","num_nodes":"21","size_leaf_vector":"1"}},{"base_weights":[4.0355655E-3,1.0225745E0,-1.5354706E-3,1.5990638E0,-4.277942E-2,-2.3186452E0,3.5411858E-3,1.056627E-1,5.5656E-1,-1.562722E-1,2.543764E-3,-9.644343E-1,7.262223E-3,4.444201E-3,3.4141198E-2,-7.796841E-2,1.743001E-2,-1.1617884E-4,1.8446034E-2],"categories":[],"categories_nodes":[],"categories_segments":[],"categories_sizes":[],"default_left":[0,0,0,0,0,0,0,0,0,0,0,0,0,0,0,0,0,0,0],"id":30,"left_children":[1,3,5,7,-1,9,11,-1,13,-1,-1,15,17,-1,-1,-1,-1,-1,-1],"loss_changes":[1.0430965E1,1.2195548E1,2.1523048E1,3.1122093E0,0E0,7.805912E0,6.5840235E0,0E0,1.7551029E-1,0E0,0E0,6.0117755E0,6.310406E0,0E0,0E0,0E0,0E0,0E0,0E0],"parents":[2147483647,0,0,1,1,2,2,3,3,5,5,6,6,8,8,11,11,12,12],"right_children":[2,4,6,8,-1,10,12,-1,14,-1,-1,16,18,-1,-1,-1,-1,-1,-1],"split_conditions":[-2.1628447E0,-1.0047036E0,-6.250695E0,-1.4752431E0,-4.277942E-2,1.4932193E0,-1.6961858E0,1.056627E-1,-1.8458441E0,-1.562722E-1,2.543764E-3,-7.113817E-1,1.7392014E0,4.444201E-3,3.4141198E-2,-7.796841E-2,1.743001E-2,-1.1617884E-4,1.8446034E-2],"split_indices":[5,44,82,13,0,15,37,0,0,0,0,21,44,0,0,0,0,0,0],"split_type":[0,0,0,0,0,0,0,0,0,0,0,0,0,0,0,0,0,0,0],"sum_hessian":[1.837E3,9E0,1.828E3,7E0,2E0,3E0,1.825E3,4E0,3E0,2E0,1E0,6E0,1.819E3,1E0,2E0,4E0,2E0,1.773E3,4.6E1],"tree_param":{"num_deleted":"0","num_feature":"93","num_nodes":"19","size_leaf_vector":"1"}}]},"name":"gbtree"},"learner_model_param":{"base_score":"[5.037862E-3]","boost_from_average":"1","num_class":"0","num_feature":"93","num_target":"1"},"objective":{"name":"reg:squarederror","reg_loss_param":{"scale_pos_weight":"1"}}},"version":[3,2,0]}