{"learner":{"attributes":{"best_iteration":"30","best_score":"0.846823105335714","scikit_learn":"{\"_estimator_type\": \"regressor\"}"},"feature_names":[],"feature_types":[],"gradient_booster":{"model":{"cats":{"enc":[],"feature_segments":[],"sorted_idx":[]},"gbtree_model_param":{"num_parallel_tree":"1","num_trees":"61"},"iteration_indptr":[0,1,2,3,4,5,6,7,8,9,10,11,12,13,14,15,16,17,18,19,20,21,22,23,24,25,26,27,28,29,30,31,32,33,34,35,36,37,38,39,40,41,42,43,44,45,46,47,48,49,50,51,52,53,54,55,56,57,58,59,60,61],"tree_info":[0,0,0,0,0,0,0,0,0,0,0,0,0,0,0,0,0,0,0,0,0,0,0,0,0,0,0,0,0,0,0,0,0,0,0,0,0,0,0,0,0,0,0,0,0,0,0,0,0,0,0,0,0,0,0,0,0,0,0,0,0],"trees":[{"base_weights":[-2.2118965E-2,-1.5744118E-1,4.2178207E-3,9.96334E-1,-3.0203024E-2,2.0963441E-1,1.02789335E-1,-1.6367489E-1,1.494666E-1,3.9923713E-2,-2.8941203E-2,-6.1959936E-3,-1.035376E-1,2.887241E-3,3.8458504E-2],"categories":[],"categories_nodes":[],"categories_segments":[],"categories_sizes":[],"default_left":[0,0,0,0,0,0,0,0,0,0,0,0,0,0,0],"id":0,"left_children":[1,-1,3,5,7,9,-1,11,13,-1,-1,-1,-1,-1,-1],"loss_changes":[2.9575981E1,0E0,1.2221456E1,9.570686E0,8.321835E0,4.1763825E0,0E0,1.4830753E1,8.367949E0,0E0,0E0,0E0,0E0,0E0,0E0],"parents":[2147483647,0,0,2,2,3,3,4,4,5,5,7,7,8,8],"right_children":[2,-1,4,6,8,10,-1,12,14,-1,-1,-1,-1,-1,-1],"split_conditions":[-3.7209253E0,-1.5744118E-1,-1.8758055E0,6.092682E-1,1.2250206E-1,-1.3807309E-1,1.02789335E-1,1.8458791E0,1.661349E0,3.9923713E-2,-2.8941203E-2,-6.1959936E-3,-1.035376E-1,2.887241E-3,3.8458504E-2],"split_indices":[45,0,12,37,55,44,0,57,68,0,0,0,0,0,0],"split_type":[0,0,0,0,0,0,0,0,0,0,0,0,0,0,0],"sum_hessian":[3.58E2,2E0,3.56E2,1.1E1,3.45E2,7E0,4E0,1.98E2,1.47E2,4E0,3E0,1.95E2,3E0,1.29E2,1.8E1],"tree_param":{"num_deleted":"0","num_feature":"93","num_nodes":"15","size_leaf_vector":"1"}},{"base_weights":[4.2032838E-2,1.4265724E0,2.126434E-3,2.6290536E0,1.8674257E-1,-1.3362364E-1,1.7535863E-2,5.5602934E-2,1.6348487E-1,3.6468405E-2,-2.9950282E-2,5.375481E-1,-5.9751555E-2,3.3558775E-2,-4.9996298E-2,-9.429793E-4,-4.8525315E-2],"categories":[],"categories_nodes":[],"categories_segments":[],"categories_sizes":[],"default_left":[0,0,0,0,0,0,0,0,0,0,0,0,0,0,0,0,0],"id":1,"left_children":[1,3,5,7,9,-1,11,-1,-1,-1,-1,13,15,-1,-1,-1,-1],"loss_changes":[1.9721928E1,1.4417765E1,1.4389352E1,1.2231712E0,2.995098E0,0E0,1.3978189E1,0E0,0E0,0E0,0E0,9.916309E0,1.126619E1,0E0,0E0,0E0,0E0],"parents":[2147483647,0,0,1,1,2,2,3,3,4,4,6,6,11,11,12,12],"right_children":[2,4,6,8,10,-1,12,-1,-1,-1,-1,14,16,-1,-1,-1,-1],"split_conditions":[-2.159623E0,-1.1749854E0,-3.5045793E0,9.57869E-1,-3.9453697E-1,-1.3362364E-1,-9.154569E-1,5.5602934E-2,1.6348487E-1,3.6468405E-2,-2.9950282E-2,3.7401664E0,1.3858256E0,3.3558775E-2,-4.9996298E-2,-9.429793E-4,-4.8525315E-2],"split_indices":[47,16,44,15,0,0,14,0,0,0,0,74,45,0,0,0,0],"split_type":[0,0,0,0,0,0,0,0,0,0,0,0,0,0,0,0,0],"sum_hessian":[3.56E2,9E0,3.47E2,4E0,5E0,1E0,3.46E2,2E0,2E0,3E0,2E0,4.4E1,3.02E2,4.1E1,3E0,2.9E2,1.2E1],"tree_param":{"num_deleted":"0","num_feature":"93","num_nodes":"17","size_leaf_vector":"1"}},{"base_weights":[-2.1282043E-2,-1.4995037E-1,4.0130345E-3,2.1192796E0,-2.6216524E-2,2.2398897E-2,1.2125552E-1,-7.628057E-3,-1.0906839E0,-1.8248495E-3,5.3710032E-2,-2.67761E-2,-7.336693E-2],"categories":[],"categories_nodes":[],"categories_segments":[],"categories_sizes":[],"default_left":[0,0,0,0,0,0,0,0,0,0,0,0,0],"id":2,"left_children":[1,-1,3,5,7,-1,-1,9,11,-1,-1,-1,-1],"loss_changes":[2.6826593E1,0E0,2.2691586E1,1.4692822E0,6.9170656E0,0E0,0E0,1.0813984E1,4.688344E-1,0E0,0E0,0E0,0E0],"parents":[2147483647,0,0,2,2,3,3,4,4,7,7,8,8],"right_children":[2,-1,4,6,8,-1,-1,10,12,-1,-1,-1,-1],"split_conditions":[-3.7209253E0,-1.4995037E-1,-1.4560244E0,3.885042E-1,3.6003232E0,2.2398897E-2,1.2125552E-1,1.7048314E0,2.2982574E-1,-1.8248495E-3,5.3710032E-2,-2.67761E-2,-7.336693E-2],"split_indices":[45,0,13,4,91,0,0,48,0,0,0,0,0],"split_type":[0,0,0,0,0,0,0,0,0,0,0,0,0],"sum_hessian":[3.55E2,2E0,3.53E2,4E0,3.49E2,1E0,3E0,3.44E2,5E0,3.36E2,8E0,3E0,2E0],"tree_param":{"num_deleted":"0","num_feature":"93","num_nodes":"13","size_leaf_vector":"1"}},{"base_weights":[2.2631608E-2,-1.4495203E-1,4.6517905E-2,1.7339801E0,1.3576924E-2,1.2806867E-1,4.4537406E-2,5.0402224E-1,-3.0915333E-2,-5.7624467E-3,4.343067E-2,6.207857E-5,-4.088091E-2],"categories":[],"categories_nodes":[],"categories_segments":[],"categories_sizes":[],"default_left":[0,0,0,0,0,0,0,0,0,0,0,0,0],"id":3,"left_children":[1,-1,3,5,7,-1,-1,9,11,-1,-1,-1,-1],"loss_changes":[2.581681E1,0E0,2.0321178E1,2.602251E0,7.8711486E0,0E0,0E0,6.8735313E0,8.37463E0,0E0,0E0,0E0,0E0],"parents":[2147483647,0,0,2,2,3,3,4,4,7,7,8,8],"right_children":[2,-1,4,6,8,-1,-1,10,12,-1,-1,-1,-1],"split_conditions":[-3.7209253E0,-1.4495203E-1,-2.2251024E0,-1.3463945E0,-1.028193E0,1.2806867E-1,4.4537406E-2,-6.473276E-1,1.6935984E0,-5.7624467E-3,4.343067E-2,6.207857E-5,-4.088091E-2],"split_indices":[45,0,3,51,44,0,0,18,52,0,0,0,0],"split_type":[0,0,0,0,0,0,0,0,0,0,0,0,0],"sum_hessian":[3.67E2,2E0,3.65E2,6E0,3.59E2,2E0,4E0,2.9E1,3.3E2,1.1E1,1.8E1,3.18E2,1.2E1],"tree_param":{"num_deleted":"0","num_feature":"93","num_nodes":"13","size_leaf_vector":"1"}},{"base_weights":[1.2813616E-2,1.3165205E0,-3.3910908E-2,2.3028874E0,1.4207914E-1,-4.1004267E-1,2.1963233E-2,1.3717598E-1,4.0043566E-2,4.0174533E-2,-2.7742608E-2,-1.4504008E-1,-1.2641383E0,7.517962E-1,-2.7092544E-2,1.8070353E-2,-2.5338626E-2,6.0666916E-3,-1.0365851E-1,4.4290274E-2,-2.8462076E-4,-3.4594655E-4,-6.0394127E-2],"categories":[],"categories_nodes":[],"categories_segments":[],"categories_sizes":[],"default_left":[0,0,0,0,0,0,0,0,0,0,0,0,0,0,0,0,0,0,0,0,0,0,0],"id":4,"left_children":[1,3,5,7,9,11,13,-1,-1,-1,-1,15,17,19,21,-1,-1,-1,-1,-1,-1,-1,-1],"loss_changes":[2.28878E1,1.4732399E1,7.637828E0,2.435646E0,3.6725266E0,1.0454515E1,1.1369767E1,0E0,0E0,0E0,0E0,6.9614906E0,1.2581348E1,2.0352535E0,7.090241E0,0E0,0E0,0E0,0E0,0E0,0E0,0E0,0E0],"parents":[2147483647,0,0,1,1,2,2,3,3,4,4,5,5,6,6,11,11,12,12,13,13,14,14],"right_children":[2,4,6,8,10,12,14,-1,-1,-1,-1,16,18,20,22,-1,-1,-1,-1,-1,-1,-1,-1],"split_conditions":[-1.8758055E0,-1.0271846E0,-8.1867546E-1,4.5112805E0,3.2818535E-1,1.0513479E0,-1.0621369E0,1.3717598E-1,4.0043566E-2,4.0174533E-2,-2.7742608E-2,-3.2471544E-1,-1.7524216E-1,5.525896E-1,9.548531E0,1.8070353E-2,-2.5338626E-2,6.0666916E-3,-1.0365851E-1,4.4290274E-2,-2.8462076E-4,-3.4594655E-4,-6.0394127E-2],"split_indices":[12,49,45,6,44,91,25,0,0,0,0,8,47,56,76,0,0,0,0,0,0,0,0],"split_type":[0,0,0,0,0,0,0,0,0,0,0,0,0,0,0,0,0,0,0,0,0,0,0],"sum_hessian":[3.74E2,1.2E1,3.62E2,6E0,6E0,4.6E1,3.16E2,4E0,2E0,3E0,3E0,3.6E1,1E1,1.9E1,2.97E2,1.5E1,2.1E1,4E0,6E0,1.6E1,3E0,2.93E2,4E0],"tree_param":{"num_deleted":"0","num_feature":"93","num_nodes":"23","size_leaf_vector":"1"}},{"base_weights":[-8.008346E-3,-3.3758327E-2,1.5812418E0,-1.464019E0,-1.01547055E-2,1.2193576E-1,5.428265E-1,-1.2391484E-1,-7.65504E-1,3.580414E-1,-8.521393E-2,3.1017572E-2,7.7562863E-3,-8.686493E-3,-4.350075E-2,2.8344432E-2,-2.7969802E-2,-3.630926E-2,-2.4716386E-3],"categories":[],"categories_nodes":[],"categories_segments":[],"categories_sizes":[],"default_left":[0,0,0,0,0,0,0,0,0,0,0,0,0,0,0,0,0,0,0],"id":5,"left_children":[1,3,5,7,9,-1,11,-1,13,15,17,-1,-1,-1,-1,-1,-1,-1,-1],"loss_changes":[1.5399568E1,1.2476085E1,4.0186796E0,2.3537836E0,1.0117839E1,0E0,2.3993492E-2,0E0,1.5808725E-1,1.219658E1,6.936249E0,0E0,0E0,0E0,0E0,0E0,0E0,0E0,0E0],"parents":[2147483647,0,0,1,1,2,2,3,3,4,4,6,6,8,8,9,9,10,10],"right_children":[2,4,6,8,10,-1,12,-1,14,16,18,-1,-1,-1,-1,-1,-1,-1,-1],"split_conditions":[2.604787E0,-8.879156E0,-1.8930074E0,-2.0879436E0,-7.993357E-1,1.2193576E-1,-1.7840055E-1,-1.2391484E-1,-7.1321887E-1,7.706669E-1,-4.1745016E-1,3.1017572E-2,7.7562863E-3,-8.686493E-3,-4.350075E-2,2.8344432E-2,-2.7969802E-2,-3.630926E-2,-2.4716386E-3],"split_indices":[50,77,0,11,14,0,2,0,4,52,1,0,0,0,0,0,0,0,0],"split_type":[0,0,0,0,0,0,0,0,0,0,0,0,0,0,0,0,0,0,0],"sum_hessian":[3.74E2,3.69E2,5E0,5E0,3.64E2,2E0,3E0,1E0,4E0,6.1E1,3.03E2,2E0,1E0,1E0,3E0,5E1,1.1E1,1.5E1,2.88E2],"tree_param":{"num_deleted":"0","num_feature":"93","num_nodes":"19","size_leaf_vector":"1"}},{"base_weights":[9.135883E-4,-3.446627E-2,1.3727643E0,3.4786195E-1,-8.5084364E-2,1.23173974E-1,7.0920575E-1,-1.9784348E-1,8.281459E-1,-7.396586E-2,-6.658104E-2,4.3116853E-2,1.08792465E-2,2.868473E-2,-2.4663458E-2,4.8101112E-2,-1.702058E-2,-1.1544427E-3,-2.487859E-2],"categories":[],"categories_nodes":[],"categories_segments":[],"categories_sizes":[],"default_left":[0,0,0,0,0,0,0,0,0,0,0,0,0,0,0,0,0,0,0],"id":6,"left_children":[1,3,5,7,9,-1,11,13,15,-1,17,-1,-1,-1,-1,-1,-1,-1,-1],"loss_changes":[1.7374624E1,6.783699E0,4.7666664E0,1.0909679E1,7.873068E0,0E0,3.3934593E-1,4.841629E0,3.7692118E0,0E0,5.724399E0,0E0,0E0,0E0,0E0,0E0,0E0,0E0,0E0],"parents":[2147483647,0,0,1,1,2,2,3,3,4,4,6,6,7,7,8,8,10,10],"right_children":[2,4,6,8,10,-1,12,14,16,-1,18,-1,-1,-1,-1,-1,-1,-1,-1],"split_conditions":[1.7048314E0,-9.154569E-1,-1.0788913E0,-1.1141475E0,-1.1305996E0,1.23173974E-1,1.5890887E0,-7.800561E-1,2.0924468E0,-7.396586E-2,1.0272185E0,4.3116853E-2,1.08792465E-2,2.868473E-2,-2.4663458E-2,4.8101112E-2,-1.702058E-2,-1.1544427E-3,-2.487859E-2],"split_indices":[48,14,44,16,1,0,29,57,52,0,37,0,0,0,0,0,0,0,0],"split_type":[0,0,0,0,0,0,0,0,0,0,0,0,0,0,0,0,0,0,0],"sum_hessian":[3.56E2,3.48E2,8E0,4E1,3.08E2,2E0,6E0,1.9E1,2.1E1,3E0,3.05E2,4E0,2E0,5E0,1.4E1,1.9E1,2E0,2.78E2,2.7E1],"tree_param":{"num_deleted":"0","num_feature":"93","num_nodes":"19","size_leaf_vector":"1"}},{"base_weights":[-1.9850047E-2,1.6636515E0,-4.3047998E-2,1.0797365E-1,3.0663986E-2,-1.2389632E-1,-2.943912E-2,-1.1678275E0,-1.34128425E-2,-1.06832115E-2,-8.663574E-2,2.938201E-2,-2.0746533E-3],"categories":[],"categories_nodes":[],"categories_segments":[],"categories_sizes":[],"default_left":[0,0,0,0,0,0,0,0,0,0,0,0,0],"id":7,"left_children":[1,3,5,-1,-1,-1,7,9,11,-1,-1,-1,-1],"loss_changes":[1.4365303E1,1.2796221E0,1.1922272E1,0E0,0E0,0E0,6.5704656E0,2.3247542E0,6.049724E0,0E0,0E0,0E0,0E0],"parents":[2147483647,0,0,1,1,2,2,6,6,7,7,8,8],"right_children":[2,4,6,-1,-1,-1,8,10,12,-1,-1,-1,-1],"split_conditions":[-1.9829365E0,-2.2156422E0,-2.978098E0,1.0797365E-1,3.0663986E-2,-1.2389632E-1,-1.6208394E0,-5.05305E-1,-1.5948853E0,-1.06832115E-2,-8.663574E-2,2.938201E-2,-2.0746533E-3],"split_indices":[14,14,3,0,0,0,42,4,52,0,0,0,0],"split_type":[0,0,0,0,0,0,0,0,0,0,0,0,0],"sum_hessian":[3.65E2,4E0,3.61E2,2E0,2E0,1E0,3.6E2,4E0,3.56E2,2E0,2E0,1.5E1,3.41E2],"tree_param":{"num_deleted":"0","num_feature":"93","num_nodes":"13","size_leaf_vector":"1"}},{"base_weights":[-3.8675334E-2,-1.3511243E-1,-1.6796874E-2,1.5990915E0,-4.3533154E-2,2.2387674E-2,1.0314111E-1,5.6148225E-1,-8.055593E-2,1.7740069E-2,8.4165014E-2,-7.6074514E-4,-1.8207164E-2],"categories":[],"categories_nodes":[],"categories_segments":[],"categories_sizes":[],"default_left":[0,0,0,0,0,0,0,0,0,0,0,0,0],"id":8,"left_children":[1,-1,3,5,7,-1,-1,9,11,-1,-1,-1,-1],"loss_changes":[2.1458044E1,0E0,1.5925059E1,2.279828E0,8.153795E0,0E0,0E0,4.2717867E0,6.331682E0,0E0,0E0,0E0,0E0],"parents":[2147483647,0,0,2,2,3,3,4,4,7,7,8,8],"right_children":[2,-1,4,6,8,-1,-1,10,12,-1,-1,-1,-1],"split_conditions":[-3.7209253E0,-1.3511243E-1,-1.4560244E0,3.885042E-1,-1.5948853E0,2.2387674E-2,1.0314111E-1,2.4721549E0,1.105271E0,1.7740069E-2,8.4165014E-2,-7.6074514E-4,-1.8207164E-2],"split_indices":[45,0,13,4,52,0,0,15,27,0,0,0,0],"split_type":[0,0,0,0,0,0,0,0,0,0,0,0,0],"sum_hessian":[3.68E2,2E0,3.66E2,5E0,3.61E2,2E0,3E0,2E1,3.41E2,1.8E1,2E0,2.78E2,6.3E1],"tree_param":{"num_deleted":"0","num_feature":"93","num_nodes":"13","size_leaf_vector":"1"}},{"base_weights":[-4.820951E-4,9.315833E-1,-5.050684E-2,1.3170502E0,-8.431803E-1,-9.788262E-2,3.1355414E-1,1.4097671E-1,9.010144E-1,-1.2146557E-2,-4.811432E-2,-5.203755E-1,-3.4305643E-2,9.3327576E-1,5.5213705E-2,6.890405E-3,5.483168E-2,-1.0919323E-1,-1.6578866E-2,-6.355838E-3,7.2385045E-3,5.6425005E-2,1.3035101E-2,-2.5817601E-2,9.509046E-3],"categories":[],"categories_nodes":[],"categories_segments":[],"categories_sizes":[],"default_left":[0,0,0,0,0,0,0,0,0,0,0,0,0,0,0,0,0,0,0,0,0,0,0,0,0],"id":9,"left_children":[1,3,5,7,9,11,13,-1,15,-1,-1,17,19,21,23,-1,-1,-1,-1,-1,-1,-1,-1,-1,-1],"loss_changes":[1.7392046E1,1.4108654E1,6.136367E0,7.4609566E0,5.2203655E-2,8.416446E0,6.5125356E0,0E0,1.939043E0,0E0,0E0,1.2152492E1,4.5723424E0,1.2814312E0,2.4124792E0,0E0,0E0,0E0,0E0,0E0,0E0,0E0,0E0,0E0,0E0],"parents":[2147483647,0,0,1,1,2,2,3,3,4,4,5,5,6,6,8,8,11,11,12,12,13,13,14,14],"right_children":[2,4,6,8,10,12,14,-1,16,-1,-1,18,20,22,24,-1,-1,-1,-1,-1,-1,-1,-1,-1,-1],"split_conditions":[-1.5764043E0,9.936549E0,1.5402665E0,-2.7341268E0,-6.4428204E-1,-8.1867546E-1,-6.5832967E-1,1.4097671E-1,-1.5603803E0,-1.2146557E-2,-4.811432E-2,-3.1469817E0,3.597212E-1,1.1987507E0,-5.391304E-1,6.890405E-3,5.483168E-2,-1.0919323E-1,-1.6578866E-2,-6.355838E-3,7.2385045E-3,5.6425005E-2,1.3035101E-2,-2.5817601E-2,9.509046E-3],"split_indices":[23,79,90,47,0,45,13,0,53,0,0,82,44,91,55,0,0,0,0,0,0,0,0,0,0],"split_type":[0,0,0,0,0,0,0,0,0,0,0,0,0,0,0,0,0,0,0,0,0,0,0,0,0],"sum_hessian":[3.71E2,1.8E1,3.53E2,1.5E1,3E0,3.13E2,4E1,2E0,1.3E1,1E0,2E0,4E1,2.73E2,1.1E1,2.9E1,3E0,1E1,3E0,3.7E1,1.8E2,9.3E1,8E0,3E0,5E0,2.4E1],"tree_param":{"num_deleted":"0","num_feature":"93","num_nodes":"25","size_leaf_vector":"1"}},{"base_weights":[4.0327833E-4,1.3627748E-1,-2.1340985E-2,-1.2945761E-1,-6.8650756E-4,1.470648E-1,-1.2996547E-1,9.251325E-3,-5.903193E-2,4.8269447E-2,-8.15011E-3],"categories":[],"categories_nodes":[],"categories_segments":[],"categories_sizes":[],"default_left":[0,0,0,0,0,0,0,0,0,0,0],"id":10,"left_children":[1,-1,3,-1,5,7,9,-1,-1,-1,-1],"loss_changes":[2.2457048E1,0E0,1.9940058E1,0E0,7.1629386E0,9.03878E0,7.394744E0,0E0,0E0,0E0,0E0],"parents":[2147483647,0,0,2,2,4,4,5,5,6,6],"right_children":[2,-1,4,-1,6,8,10,-1,-1,-1,-1],"split_conditions":[-2.7341268E0,1.3627748E-1,-2.7071905E0,-1.2945761E-1,-4.2732263E-1,2.456738E0,-1.4707981E0,9.251325E-3,-5.903193E-2,4.8269447E-2,-8.15011E-3],"split_indices":[47,0,44,0,82,89,55,0,0,0,0],"split_type":[0,0,0,0,0,0,0,0,0,0,0],"sum_hessian":[3.77E2,2E0,3.75E2,2E0,3.73E2,1.74E2,1.99E2,1.7E2,4E0,5E0,1.94E2],"tree_param":{"num_deleted":"0","num_feature":"93","num_nodes":"11","size_leaf_vector":"1"}},{"base_weights":[-4.70718E-3,-2.263068E-2,1.0409812E-1,-1.6743661E0,-3.4700665E-3,-1.1435693E-1,-3.5386458E-2,5.122156E-1,-5.2262183E-2,3.5673276E-2,-4.8713747E-2,-7.26448E-3,1.0587919E-2],"categories":[],"categories_nodes":[],"categories_segments":[],"categories_sizes":[],"default_left":[0,0,0,0,0,0,0,0,0,0,0,0,0],"id":11,"left_children":[1,3,-1,5,7,-1,-1,9,11,-1,-1,-1,-1],"loss_changes":[1.3174665E1,1.1039434E1,0E0,7.5063896E-1,8.732613E0,0E0,0E0,9.669793E0,7.8166504E0,0E0,0E0,0E0,0E0],"parents":[2147483647,0,0,1,1,3,3,4,4,7,7,8,8],"right_children":[2,4,-1,6,8,-1,-1,10,12,-1,-1,-1,-1],"split_conditions":[3.0630667E0,-1.0677356E1,1.0409812E-1,-2.0879436E0,-1.2724572E0,-1.1435693E-1,-3.5386458E-2,7.706669E-1,1.1085927E0,3.5673276E-2,-4.8713747E-2,-7.26448E-3,1.0587919E-2],"split_indices":[50,77,0,11,5,0,0,52,83,0,0,0,0],"split_type":[0,0,0,0,0,0,0,0,0,0,0,0,0],"sum_hessian":[3.5E2,3.48E2,2E0,3E0,3.45E2,1E0,2E0,2.9E1,3.16E2,2.6E1,3E0,2.34E2,8.2E1],"tree_param":{"num_deleted":"0","num_feature":"93","num_nodes":"13","size_leaf_vector":"1"}},{"base_weights":[2.3572149E-2,1.8952014E-3,1.3202603E0,-1.11498E-1,1.43236555E-2,9.017683E-2,1.1790263E-2,4.4343863E-2,-5.5685604E-1,1.83779E-2,-7.4396085E-4,8.666896E-3,-5.791725E-2],"categories":[],"categories_nodes":[],"categories_segments":[],"categories_sizes":[],"default_left":[0,0,0,0,0,0,0,0,0,0,0,0,0],"id":12,"left_children":[1,3,5,-1,7,-1,-1,9,11,-1,-1,-1,-1],"loss_changes":[1.0257006E1,1.0017805E1,2.719265E0,0E0,6.180442E0,0E0,0E0,6.551943E0,8.10645E0,0E0,0E0,0E0,0E0],"parents":[2147483647,0,0,1,1,2,2,4,4,7,7,8,8],"right_children":[2,4,6,-1,8,-1,-1,10,12,-1,-1,-1,-1],"split_conditions":[2.604787E0,-3.5045793E0,-2.818221E-1,-1.11498E-1,2.5118563E0,9.017683E-2,1.1790263E-2,-7.993357E-1,8.380392E-2,1.83779E-2,-7.4396085E-4,8.666896E-3,-5.791725E-2],"split_indices":[50,44,1,0,89,0,0,14,74,0,0,0,0],"split_type":[0,0,0,0,0,0,0,0,0,0,0,0,0],"sum_hessian":[3.64E2,3.59E2,5E0,1E0,3.58E2,3E0,2E0,3.41E2,1.7E1,5.2E1,2.89E2,8E0,9E0],"tree_param":{"num_deleted":"0","num_feature":"93","num_nodes":"13","size_leaf_vector":"1"}},{"base_weights":[-1.4154314E-2,-1.3861992E0,5.656577E-3,-9.7207E-2,-1.83096E-2,8.7581146E-1,-3.0833917E-2,-2.355022E-1,1.2003063E0,4.0266342E-2,-4.1719046E-1,1.0353269E-2,-2.2602325E-2,3.4168873E-2,8.4197275E-2,2.8549695E-2,-8.9696376E-4,-4.588509E-2,-2.426555E-3],"categories":[],"categories_nodes":[],"categories_segments":[],"categories_sizes":[],"default_left":[0,0,0,0,0,0,0,0,0,0,0,0,0,0,0,0,0,0,0],"id":13,"left_children":[1,3,5,-1,-1,7,9,11,13,15,17,-1,-1,-1,-1,-1,-1,-1,-1],"loss_changes":[9.548524E0,2.1335888E0,1.1045081E1,0E0,0E0,5.331293E0,9.191795E0,4.769451E-1,1.599308E0,8.752488E0,9.550409E0,0E0,0E0,0E0,0E0,0E0,0E0,0E0,0E0],"parents":[2147483647,0,0,1,1,2,2,5,5,6,6,7,7,8,8,9,9,10,10],"right_children":[2,4,6,-1,-1,8,10,12,14,16,18,-1,-1,-1,-1,-1,-1,-1,-1],"split_conditions":[-2.5206234E0,4.0178898E-1,-1.5692304E0,-9.7207E-2,-1.83096E-2,-9.109173E-2,1.1553624E0,-1.7314429E0,5.9681393E-2,-7.300847E-1,1.7340425E0,1.0353269E-2,-2.2602325E-2,3.4168873E-2,8.4197275E-2,2.8549695E-2,-8.9696376E-4,-4.588509E-2,-2.426555E-3],"split_indices":[54,56,34,0,0,7,91,1,60,51,91,0,0,0,0,0,0,0,0],"split_type":[0,0,0,0,0,0,0,0,0,0,0,0,0,0,0,0,0,0,0],"sum_hessian":[3.5E2,4E0,3.46E2,2E0,2E0,1.3E1,3.33E2,3E0,1E1,2.82E2,5.1E1,1E0,2E0,6E0,4E0,2.7E1,2.55E2,2.1E1,3E1],"tree_param":{"num_deleted":"0","num_feature":"93","num_nodes":"19","size_leaf_vector":"1"}},{"base_weights":[-8.2459307E-4,-1.20617606E-1,2.0147601E-2,-1.8752144E-3,8.425411E-1,-6.1760414E-1,2.4736144E-2,5.727777E-2,3.7101856E-1,-9.061315E-6,-6.1750054E-2,6.751835E-2,4.070159E-4,2.1387717E-2,3.601888E-3],"categories":[],"categories_nodes":[],"categories_segments":[],"categories_sizes":[],"default_left":[0,0,0,0,0,0,0,0,0,0,0,0,0,0,0],"id":14,"left_children":[1,-1,3,5,7,9,11,-1,13,-1,-1,-1,-1,-1,-1],"loss_changes":[1.7598139E1,0E0,6.2500205E0,5.537151E0,8.608804E-1,5.336507E0,7.1169877E0,0E0,5.400008E-2,0E0,0E0,0E0,0E0,0E0,0E0],"parents":[2147483647,0,0,2,2,3,3,4,4,5,5,6,6,8,8],"right_children":[2,-1,4,6,8,10,12,-1,14,-1,-1,-1,-1,-1,-1],"split_conditions":[-3.7209253E0,-1.20617606E-1,1.7048314E0,-1.8685039E0,2.1893215E0,1.8180007E-1,-2.137106E0,5.727777E-2,-4.79253E-3,-9.061315E-6,-6.1750054E-2,6.751835E-2,4.070159E-4,2.1387717E-2,3.601888E-3],"split_indices":[45,0,48,59,48,84,12,0,4,0,0,0,0,0,0],"split_type":[0,0,0,0,0,0,0,0,0,0,0,0,0,0,0],"sum_hessian":[3.46E2,2E0,3.44E2,3.36E2,8E0,1.3E1,3.23E2,4E0,4E0,7E0,6E0,3E0,3.2E2,3E0,1E0],"tree_param":{"num_deleted":"0","num_feature":"93","num_nodes":"15","size_leaf_vector":"1"}},{"base_weights":[2.26328E-2,-1.1659702E-1,4.2137194E-2,1.7563108E0,1.801113E-2,-1.032178E-2,1.14930324E-1,3.286678E-2,-1.0344E0,-4.8386684E-4,2.0388009E-2,-1.7440481E-2,-6.875952E-2],"categories":[],"categories_nodes":[],"categories_segments":[],"categories_sizes":[],"default_left":[0,0,0,0,0,0,0,0,0,0,0,0,0],"id":15,"left_children":[1,-1,3,5,7,-1,-1,9,11,-1,-1,-1,-1],"loss_changes":[1.6768866E1,0E0,1.4897979E1,5.7964582E0,5.615426E0,0E0,0E0,5.634123E0,6.885338E-1,0E0,0E0,0E0,0E0],"parents":[2147483647,0,0,2,2,3,3,4,4,7,7,8,8],"right_children":[2,-1,4,6,8,-1,-1,10,12,-1,-1,-1,-1],"split_conditions":[-3.7209253E0,-1.1659702E-1,-9.095956E0,-7.1321887E-1,3.6003232E0,-1.032178E-2,1.14930324E-1,1.4357954E0,2.0921637E-1,-4.8386684E-4,2.0388009E-2,-1.7440481E-2,-6.875952E-2],"split_indices":[45,0,77,4,91,0,0,32,3,0,0,0,0],"split_type":[0,0,0,0,0,0,0,0,0,0,0,0,0],"sum_hessian":[3.62E2,2E0,3.6E2,4E0,3.56E2,1E0,3E0,3.52E2,4E0,3.17E2,3.5E1,2E0,2E0],"tree_param":{"num_deleted":"0","num_feature":"93","num_nodes":"13","size_leaf_vector":"1"}},{"base_weights":[-2.7073463E-2,-1.1271045E-1,-7.107747E-3,1.1705609E-2,-1.0437932E0,9.247761E-1,-1.3772224E-2,-6.5640144E-2,-1.6859131E-2,6.313017E-2,9.342059E-3,2.1161398E-2,-2.7531774E-3],"categories":[],"categories_nodes":[],"categories_segments":[],"categories_sizes":[],"default_left":[0,0,0,0,0,0,0,0,0,0,0,0,0],"id":16,"left_children":[1,-1,3,5,7,9,11,-1,-1,-1,-1,-1,-1],"loss_changes":[1.5013606E1,0E0,6.565405E0,7.7128086E0,6.978564E-1,2.0077448E0,5.851618E0,0E0,0E0,0E0,0E0,0E0,0E0],"parents":[2147483647,0,0,2,2,3,3,4,4,5,5,6,6],"right_children":[2,-1,4,6,8,10,12,-1,-1,-1,-1,-1,-1],"split_conditions":[-3.7209253E0,-1.1271045E-1,3.6003232E0,-2.137106E0,-5.401327E-1,2.6642594E-1,-8.6444324E-1,-6.5640144E-2,-1.6859131E-2,6.313017E-2,9.342059E-3,2.1161398E-2,-2.7531774E-3],"split_indices":[45,0,91,12,46,49,51,0,0,0,0,0,0],"split_type":[0,0,0,0,0,0,0,0,0,0,0,0,0],"sum_hessian":[3.37E2,2E0,3.35E2,3.3E2,5E0,8E0,3.22E2,3E0,2E0,5E0,3E0,2.7E1,2.95E2],"tree_param":{"num_deleted":"0","num_feature":"93","num_nodes":"13","size_leaf_vector":"1"}},{"base_weights":[-1.3894462E-2,9.951824E-1,-4.056445E-2,1.5480497E0,-6.26569E-1,-1.4805748E0,-1.9015E-2,3.5948116E-2,1.20692275E-1,-8.440674E-3,-3.8551997E-2,-9.196158E-2,-1.1487037E-3,8.201318E-2,-2.0154917E-1,-2.7507513E-3,1.3985281E-2,-2.9567683E-2,-2.3447569E-3],"categories":[],"categories_nodes":[],"categories_segments":[],"categories_sizes":[],"default_left":[0,0,0,0,0,0,0,0,0,0,0,0,0,0,0,0,0,0,0],"id":17,"left_children":[1,3,5,7,9,11,13,-1,-1,-1,-1,-1,-1,15,17,-1,-1,-1,-1],"loss_changes":[9.40577E0,9.03948E0,1.0522535E1,3.28928E0,6.823528E-2,2.5716372E0,6.2127376E0,0E0,0E0,0E0,0E0,0E0,0E0,5.893796E0,7.2064486E0,0E0,0E0,0E0,0E0],"parents":[2147483647,0,0,1,1,2,2,3,3,4,4,5,5,6,6,13,13,14,14],"right_children":[2,4,6,8,10,12,14,-1,-1,-1,-1,-1,-1,16,18,-1,-1,-1,-1],"split_conditions":[-2.159623E0,-3.9453697E-1,-2.009119E0,9.57869E-1,-1.4479189E-1,-1.4689842E0,9.854633E-1,3.5948116E-2,1.20692275E-1,-8.440674E-3,-3.8551997E-2,-9.196158E-2,-1.1487037E-3,4.1108456E-1,-2.4802056E-1,-2.7507513E-3,1.3985281E-2,-2.9567683E-2,-2.3447569E-3],"split_indices":[47,0,11,15,0,1,87,0,0,0,0,0,0,41,45,0,0,0,0],"split_type":[0,0,0,0,0,0,0,0,0,0,0,0,0,0,0,0,0,0,0],"sum_hessian":[3.47E2,8E0,3.39E2,6E0,2E0,4E0,3.35E2,4E0,2E0,1E0,1E0,3E0,1E0,2.16E2,1.19E2,1.28E2,8.8E1,3.3E1,8.6E1],"tree_param":{"num_deleted":"0","num_feature":"93","num_nodes":"19","size_leaf_vector":"1"}},{"base_weights":[3.563447E-2,1.0847003E-2,1.3088689E0,-3.558521E-1,6.419293E-2,6.3805145E-1,9.953042E-2,-7.396356E-2,-6.8791157E-1,7.061245E-1,2.304899E-2,3.771224E-2,4.331959E-3,8.798676E-3,-2.8280977E-2,-7.0563935E-2,-1.5223974E-2,2.3049684E-2,7.550583E-2,-1.1087677E-2,4.284783E-3],"categories":[],"categories_nodes":[],"categories_segments":[],"categories_sizes":[],"default_left":[0,0,0,0,0,0,0,0,0,0,0,0,0,0,0,0,0,0,0,0,0],"id":18,"left_children":[1,3,5,7,9,11,-1,13,15,17,19,-1,-1,-1,-1,-1,-1,-1,-1,-1,-1],"loss_changes":[1.1568418E1,7.0846896E0,1.9311485E0,4.254893E0,8.329788E0,2.5500488E-1,0E0,3.2944934E0,5.3949013E0,3.0484266E0,4.5891495E0,0E0,0E0,0E0,0E0,0E0,0E0,0E0,0E0,0E0,0E0],"parents":[2147483647,0,0,1,1,2,2,3,3,4,4,5,5,7,7,8,8,9,9,10,10],"right_children":[2,4,6,8,10,12,-1,14,16,18,20,-1,-1,-1,-1,-1,-1,-1,-1,-1,-1],"split_conditions":[1.7048314E0,-8.0679E-1,1.4352325E0,-4.283451E-1,-1.3152013E0,7.9367614E-1,9.953042E-2,1.9526441E-1,-9.259867E-1,3.9321575E-1,-6.162676E-1,3.771224E-2,4.331959E-3,8.798676E-3,-2.8280977E-2,-7.0563935E-2,-1.5223974E-2,2.3049684E-2,7.550583E-2,-1.1087677E-2,4.284783E-3],"split_indices":[48,58,4,90,5,4,0,46,16,90,48,0,0,0,0,0,0,0,0,0,0],"split_type":[0,0,0,0,0,0,0,0,0,0,0,0,0,0,0,0,0,0,0,0,0],"sum_hessian":[3.66E2,3.6E2,6E0,4.5E1,3.15E2,4E0,2E0,2.5E1,2E1,1.8E1,2.97E2,3E0,1E0,1.7E1,8E0,6E0,1.4E1,1.5E1,3E0,6E1,2.37E2],"tree_param":{"num_deleted":"0","num_feature":"93","num_nodes":"21","size_leaf_vector":"1"}},{"base_weights":[1.7689811E-3,1.1662109E0,-2.1524912E-2,9.621274E-2,2.3907123E-2,4.4939045E-2,-3.948218E-1,1.683099E-2,7.134451E-1,-1.1313223E-1,-2.7720827E-1,5.402997E-3,-7.87517E-3,3.0536929E-3,5.1599827E-2,3.1832922E-2,-2.440977E-2],"categories":[],"categories_nodes":[],"categories_segments":[],"categories_sizes":[],"default_left":[0,0,0,0,0,0,0,0,0,0,0,0,0,0,0,0,0],"id":19,"left_children":[1,3,5,-1,-1,7,9,11,13,-1,15,-1,-1,-1,-1,-1,-1],"loss_changes":[9.681384E0,2.7310352E0,8.701518E0,0E0,0E0,5.5875335E0,1.101588E1,4.5815663E0,2.4307375E0,0E0,1.0144333E1,0E0,0E0,0E0,0E0,0E0,0E0],"parents":[2147483647,0,0,1,1,2,2,5,5,6,6,7,7,8,8,10,10],"right_children":[2,4,6,-1,-1,8,10,12,14,-1,16,-1,-1,-1,-1,-1,-1],"split_conditions":[-2.4670756E0,1.14580795E-1,1.1553624E0,9.621274E-2,2.3907123E-2,1.5651225E0,-2.7071905E0,9.854633E-1,-5.162498E-1,-1.1313223E-1,-7.542468E-1,5.402997E-3,-7.87517E-3,3.0536929E-3,5.1599827E-2,3.1832922E-2,-2.440977E-2],"split_indices":[55,39,91,0,0,47,44,87,39,0,13,0,0,0,0,0,0],"split_type":[0,0,0,0,0,0,0,0,0,0,0,0,0,0,0,0,0],"sum_hessian":[3.55E2,6E0,3.49E2,2E0,4E0,2.97E2,5.2E1,2.86E2,1.1E1,2E0,5E1,1.88E2,9.8E1,4E0,7E0,9E0,4.1E1],"tree_param":{"num_deleted":"0","num_feature":"93","num_nodes":"17","size_leaf_vector":"1"}},{"base_weights":[-3.2841045E-2,-1.0655659E-1,-1.540933E-2,-7.883307E-1,6.4681354E-3,-1.5073386E0,-5.7768963E-2,1.4160417E-1,-1.0194791E-1,-8.333164E-2,-2.1754054E-2,-9.839601E-3,3.0470283E-3,9.017351E-3,-5.39998E-2,-8.5278325E-2,-3.8377026E-3],"categories":[],"categories_nodes":[],"categories_segments":[],"categories_sizes":[],"default_left":[0,0,0,0,0,0,0,0,0,0,0,0,0,0,0,0,0],"id":20,"left_children":[1,-1,3,5,7,9,11,13,15,-1,-1,-1,-1,-1,-1,-1,-1],"loss_changes":[1.3317693E1,0E0,6.143269E0,5.1657195E0,5.2008605E0,1.2890148E-1,1.1101278E-1,7.672638E0,7.828156E0,0E0,0E0,0E0,0E0,0E0,0E0,0E0,0E0],"parents":[2147483647,0,0,2,2,3,3,4,4,5,5,6,6,7,7,8,8],"right_children":[2,-1,4,6,8,10,12,14,16,-1,-1,-1,-1,-1,-1,-1,-1],"split_conditions":[-3.7209253E0,-1.0655659E-1,-2.8860736E0,-3.7175596E-1,-4.2732263E-1,6.668796E-1,-8.495061E-1,2.456738E0,-3.3104548E-1,-8.333164E-2,-2.1754054E-2,-9.839601E-3,3.0470283E-3,9.017351E-3,-5.39998E-2,-8.5278325E-2,-3.8377026E-3],"split_indices":[45,0,88,51,82,0,28,89,82,0,0,0,0,0,0,0,0],"split_type":[0,0,0,0,0,0,0,0,0,0,0,0,0,0,0,0,0],"sum_hessian":[3.64E2,2E0,3.62E2,9E0,3.53E2,4E0,5E0,1.57E2,1.96E2,3E0,1E0,2E0,3E0,1.53E2,4E0,2E0,1.94E2],"tree_param":{"num_deleted":"0","num_feature":"93","num_nodes":"17","size_leaf_vector":"1"}},{"base_weights":[7.5654057E-3,1.1197201E-1,-1.1002987E-2,-8.0489896E-2,2.388066E-3,3.0388287E-1,-5.08247E-2,1.8663934E-2,-3.2844204E-2,-1.2498475E-3,-4.5018155E-2],"categories":[],"categories_nodes":[],"categories_segments":[],"categories_sizes":[],"default_left":[0,0,0,0,0,0,0,0,0,0,0],"id":21,"left_children":[1,-1,3,-1,5,7,9,-1,-1,-1,-1],"loss_changes":[1.5068205E1,0E0,7.732692E0,0E0,5.775015E0,3.845553E0,6.6916437E0,0E0,0E0,0E0,0E0],"parents":[2147483647,0,0,2,2,4,4,5,5,6,6],"right_children":[2,-1,4,-1,6,8,10,-1,-1,-1,-1],"split_conditions":[-2.7341268E0,1.1197201E-1,-3.7305503E0,-8.0489896E-2,-9.2336154E-1,1.6465554E0,8.2984085E0,1.8663934E-2,-3.2844204E-2,-1.2498475E-3,-4.5018155E-2],"split_indices":[47,0,50,0,23,31,76,0,0,0,0],"split_type":[0,0,0,0,0,0,0,0,0,0,0],"sum_hessian":[3.62E2,2E0,3.6E2,2E0,3.58E2,5.3E1,3.05E2,5E1,3E0,2.97E2,8E0],"tree_param":{"num_deleted":"0","num_feature":"93","num_nodes":"11","size_leaf_vector":"1"}},{"base_weights":[2.109687E-2,8.216432E-1,-2.1098834E-2,1.1560346E0,-3.1886768E-2,2.8509876E-2,-3.2554612E-1,1.08239606E-1,8.3431864E-1,1.3874206E-1,-1.2251583E-1,-4.7508772E-2,-9.3406105E-1,1.2249248E-2,4.9331013E-2,-5.6571763E-2,8.0234315E-3,-2.6566653E-2,2.7705552E-3,-3.9905366E-2,7.091881E-3,-9.093403E-2,-2.235233E-2],"categories":[],"categories_nodes":[],"categories_segments":[],"categories_sizes":[],"default_left":[0,0,0,0,0,0,0,0,0,0,0,0,0,0,0,0,0,0,0,0,0,0,0],"id":22,"left_children":[1,3,5,7,-1,9,11,-1,13,15,17,19,21,-1,-1,-1,-1,-1,-1,-1,-1,-1,-1],"loss_changes":[1.2144217E1,9.521308E0,5.1745887E0,3.0618763E0,0E0,4.9281263E0,8.076738E0,0E0,9.251261E-1,4.9005775E0,9.121891E0,4.9453883E0,5.6493034E0,0E0,0E0,0E0,0E0,0E0,0E0,0E0,0E0,0E0,0E0],"parents":[2147483647,0,0,1,1,2,2,3,3,5,5,6,6,8,8,9,9,10,10,11,11,12,12],"right_children":[2,4,6,8,-1,10,12,-1,14,16,18,20,22,-1,-1,-1,-1,-1,-1,-1,-1,-1,-1],"split_conditions":[-1.5072767E0,8.21538E-1,1.1553624E0,-2.7341268E0,-3.1886768E-2,1.861264E-1,5.152384E-1,1.08239606E-1,-1.4162152E0,-9.1557175E-1,1.1961502E0,1.4834063E0,1.0984363E-1,1.2249248E-2,4.9331013E-2,-5.6571763E-2,8.0234315E-3,-2.6566653E-2,2.7705552E-3,-3.9905366E-2,7.091881E-3,-9.093403E-2,-2.235233E-2],"split_indices":[34,60,91,47,0,80,66,0,52,4,80,91,23,0,0,0,0,0,0,0,0,0,0],"split_type":[0,0,0,0,0,0,0,0,0,0,0,0,0,0,0,0,0,0,0,0,0,0,0],"sum_hessian":[3.58E2,1.7E1,3.41E2,1.4E1,3E0,2.94E2,4.7E1,2E0,1.2E1,1.7E2,1.24E2,3.3E1,1.4E1,3E0,9E0,2E0,1.68E2,3.7E1,8.7E1,6E0,2.7E1,4E0,1E1],"tree_param":{"num_deleted":"0","num_feature":"93","num_nodes":"23","size_leaf_vector":"1"}},{"base_weights":[-1.6710047E-2,-1.0128088E-1,-4.2047142E-4,-5.7319816E-2,4.0283185E-1,3.793631E-2,-2.6392227E-1,5.0729E-1,-5.5518275E-1,-3.316999E-2,3.18086E-3,-6.873814E-3,-3.7555866E-2,1.683427E-2,5.0977804E-2,-3.726375E-3,-4.2538855E-2],"categories":[],"categories_nodes":[],"categories_segments":[],"categories_sizes":[],"default_left":[0,0,0,0,0,0,0,0,0,0,0,0,0,0,0,0,0],"id":23,"left_children":[1,-1,3,5,7,9,11,13,15,-1,-1,-1,-1,-1,-1,-1,-1],"loss_changes":[1.2205295E1,0E0,8.535608E0,6.4257402E0,4.88497E0,4.0766525E0,6.241936E0,3.3273172E0,6.4698863E-1,0E0,0E0,0E0,0E0,0E0,0E0,0E0,0E0],"parents":[2147483647,0,0,2,2,3,3,4,4,5,5,6,6,7,7,8,8],"right_children":[2,-1,4,6,8,10,12,14,16,-1,-1,-1,-1,-1,-1,-1,-1],"split_conditions":[-3.7209253E0,-1.0128088E-1,8.7089777E-1,3.7217987E-1,9.1824675E-1,-1.6069083E0,1.128013E0,1.7048314E0,9.8570037E-1,-3.316999E-2,3.18086E-3,-6.873814E-3,-3.7555866E-2,1.683427E-2,5.0977804E-2,-3.726375E-3,-4.2538855E-2],"split_indices":[45,0,48,91,5,56,27,48,2,0,0,0,0,0,0,0,0],"split_type":[0,0,0,0,0,0,0,0,0,0,0,0,0,0,0,0,0],"sum_hessian":[3.72E2,2E0,3.7E2,3.25E2,4.5E1,2.23E2,1.02E2,4.1E1,4E0,7E0,2.16E2,8.2E1,2E1,3.2E1,9E0,2E0,2E0],"tree_param":{"num_deleted":"0","num_feature":"93","num_nodes":"17","size_leaf_vector":"1"}},{"base_weights":[-3.400186E-3,9.9634206E-1,-2.804205E-2,1.3180438E0,-3.943179E-2,2.7403466E-2,-3.2199338E-1,3.5702176E-2,1.04334824E-1,6.0882103E-2,-7.369873E-1,-1.6730827E-1,-7.125419E-2,9.704488E-4,2.3667924E-2,-7.451801E-2,-3.9917124E-3,-6.915888E-2,-3.2319592E-3],"categories":[],"categories_nodes":[],"categories_segments":[],"categories_sizes":[],"default_left":[0,0,0,0,0,0,0,0,0,0,0,0,0,0,0,0,0,0,0],"id":24,"left_children":[1,3,5,7,-1,9,11,-1,-1,13,15,17,-1,-1,-1,-1,-1,-1,-1],"loss_changes":[9.216985E0,6.207531E0,5.957697E0,2.2241392E0,0E0,7.9268236E0,9.658207E0,0E0,0E0,5.054391E0,6.3170753E0,6.401867E0,0E0,0E0,0E0,0E0,0E0,0E0,0E0],"parents":[2147483647,0,0,1,1,2,2,3,3,5,5,6,6,9,9,10,10,11,11],"right_children":[2,4,6,8,-1,10,12,-1,-1,14,16,18,-1,-1,-1,-1,-1,-1,-1],"split_conditions":[-2.159623E0,-3.9453697E-1,6.8020856E-1,9.57869E-1,-3.943179E-2,2.5118563E0,1.3605272E0,3.5702176E-2,1.04334824E-1,1.0685413E0,1.3289388E-2,-1.3600068E0,-7.125419E-2,9.704488E-4,2.3667924E-2,-7.451801E-2,-3.9917124E-3,-6.915888E-2,-3.2319592E-3],"split_indices":[47,0,59,15,0,89,45,0,0,18,54,31,0,0,0,0,0,0,0],"split_type":[0,0,0,0,0,0,0,0,0,0,0,0,0,0,0,0,0,0,0],"sum_hessian":[3.72E2,8E0,3.64E2,7E0,1E0,3.07E2,5.7E1,5E0,2E0,2.95E2,1.2E1,5.1E1,6E0,2.69E2,2.6E1,5E0,7E0,3E0,4.8E1],"tree_param":{"num_deleted":"0","num_feature":"93","num_nodes":"19","size_leaf_vector":"1"}},{"base_weights":[-2.3062829E-2,-9.79372E-2,-7.348257E-3,1.4003401E0,-2.262925E-2,1.7619407E-2,8.160974E-2,9.69649E-2,-1.3157195E-1,-3.4024686E-2,7.1469345E-3,-1.9059404E-3,-2.4403865E-2],"categories":[],"categories_nodes":[],"categories_segments":[],"categories_sizes":[],"default_left":[0,0,0,0,0,0,0,0,0,0,0,0,0],"id":25,"left_children":[1,-1,3,5,7,-1,-1,9,11,-1,-1,-1,-1],"loss_changes":[1.1331669E1,0E0,8.012224E0,3.9672375E-1,4.8073974E0,0E0,0E0,6.387986E0,6.4114876E0,0E0,0E0,0E0,0E0],"parents":[2147483647,0,0,2,2,3,3,4,4,7,7,8,8],"right_children":[2,-1,4,6,8,-1,-1,10,12,-1,-1,-1,-1],"split_conditions":[-3.7209253E0,-9.79372E-2,-2.0879436E0,3.885042E-1,-8.523777E-2,1.7619407E-2,8.160974E-2,-1.4612349E0,1.105271E0,-3.4024686E-2,7.1469345E-3,-1.9059404E-3,-2.4403865E-2],"split_indices":[45,0,11,4,57,0,0,54,27,0,0,0,0],"split_type":[0,0,0,0,0,0,0,0,0,0,0,0,0],"sum_hessian":[3.72E2,2E0,3.7E2,3E0,3.67E2,1E0,2E0,1.75E2,1.92E2,9E0,1.66E2,1.53E2,3.9E1],"tree_param":{"num_deleted":"0","num_feature":"93","num_nodes":"13","size_leaf_vector":"1"}},{"base_weights":[1.2355162E-3,9.937772E-2,-1.5842399E-2,-1.006297E-1,1.4662384E-3,1.7757116E-2,-9.2735815E-1,2.5707146E-3,-2.0553622E-2,-5.8078773E-2,-1.5297452E-2],"categories":[],"categories_nodes":[],"categories_segments":[],"categories_sizes":[],"default_left":[0,0,0,0,0,0,0,0,0,0,0],"id":26,"left_children":[1,-1,3,-1,5,7,9,-1,-1,-1,-1],"loss_changes":[1.1938173E1,0E0,1.2064756E1,0E0,5.2670507E0,4.9572864E0,5.178857E-1,0E0,0E0,0E0,0E0],"parents":[2147483647,0,0,2,2,4,4,5,5,6,6],"right_children":[2,-1,4,-1,6,8,10,-1,-1,-1,-1],"split_conditions":[-2.7341268E0,9.937772E-2,-2.7071905E0,-1.006297E-1,3.6003232E0,1.2976663E0,-5.401327E-1,2.5707146E-3,-2.0553622E-2,-5.8078773E-2,-1.5297452E-2],"split_indices":[47,0,44,0,91,38,46,0,0,0,0],"split_type":[0,0,0,0,0,0,0,0,0,0,0],"sum_hessian":[3.5E2,2E0,3.48E2,2E0,3.46E2,3.41E2,5E0,3.17E2,2.4E1,3E0,2E0],"tree_param":{"num_deleted":"0","num_feature":"93","num_nodes":"11","size_leaf_vector":"1"}},{"base_weights":[3.248743E-3,-9.3038306E-2,1.8435689E-2,1.2337742E0,1.6908306E-3,7.719027E-2,2.562424E-2,-1.08106785E-1,1.347686E-1,-1.3905923E-2,2.4181022E-3,4.6106707E-2,4.171628E-3],"categories":[],"categories_nodes":[],"categories_segments":[],"categories_sizes":[],"default_left":[0,0,0,0,0,0,0,0,0,0,0,0,0],"id":27,"left_children":[1,-1,3,5,7,-1,-1,9,11,-1,-1,-1,-1],"loss_changes":[1.0508519E1,0E0,7.48696E0,3.2693434E-1,5.3332E0,0E0,0E0,5.3337555E0,6.5924034E0,0E0,0E0,0E0,0E0],"parents":[2147483647,0,0,2,2,3,3,4,4,7,7,8,8],"right_children":[2,-1,4,6,8,-1,-1,10,12,-1,-1,-1,-1],"split_conditions":[-3.7209253E0,-9.3038306E-2,-1.4560244E0,1.744672E-1,1.2250206E-1,7.719027E-2,2.562424E-2,9.4839446E-2,-1.120286E0,-1.3905923E-2,2.4181022E-3,4.6106707E-2,4.171628E-3],"split_indices":[45,0,13,37,55,0,0,59,48,0,0,0,0],"split_type":[0,0,0,0,0,0,0,0,0,0,0,0,0],"sum_hessian":[3.69E2,2E0,3.67E2,4E0,3.63E2,2E0,2E0,1.99E2,1.64E2,9.5E1,1.04E2,9E0,1.55E2],"tree_param":{"num_deleted":"0","num_feature":"93","num_nodes":"13","size_leaf_vector":"1"}},{"base_weights":[-6.104184E-3,2.3211214E-1,-8.729117E-2,5.7605628E-2,5.4660505E-1,-1.261637E0,-6.895909E-2,-1.8162537E-1,3.4786552E-1,1.7669351E-1,8.244977E-1,-7.709659E-2,-1.0518821E-2,-3.9531374E-1,-9.845821E-3,-2.9480675E-2,-1.3742311E-3,2.524285E-2,-8.640204E-3,-1.1958619E-2,3.4306817E-2,1.9439977E-2,5.3320736E-2,-7.022366E-2,-1.0551016E-2,2.7838005E-2,-3.2810282E-3],"categories":[],"categories_nodes":[],"categories_segments":[],"categories_sizes":[],"default_left":[0,0,0,0,0,0,0,0,0,0,0,0,0,0,0,0,0,0,0,0,0,0,0,0,0,0,0],"id":28,"left_children":[1,3,5,7,9,11,13,15,17,19,21,-1,-1,23,25,-1,-1,-1,-1,-1,-1,-1,-1,-1,-1,-1,-1],"loss_changes":[6.8473053E0,4.9078083E0,5.5964456E0,4.160092E0,3.1437788E0,8.5426474E-1,5.031291E0,2.0590854E0,2.29424E0,3.3420029E0,1.4826288E0,0E0,0E0,7.142886E0,7.0522447E0,0E0,0E0,0E0,0E0,0E0,0E0,0E0,0E0,0E0,0E0,0E0,0E0],"parents":[2147483647,0,0,1,1,2,2,3,3,4,4,5,5,6,6,7,7,8,8,9,9,10,10,13,13,14,14],"right_children":[2,4,6,8,10,12,14,16,18,20,22,-1,-1,24,26,-1,-1,-1,-1,-1,-1,-1,-1,-1,-1,-1,-1],"split_conditions":[-3.8033232E-1,-4.1204516E-2,-2.7919078E0,1.4535803E-1,-1.1711021E-1,4.6409216E0,-1.5478759E0,-4.363889E-1,2.70921E-1,6.0596675E-1,-9.517173E-1,-7.709659E-2,-1.0518821E-2,-9.40339E-1,-1.0621369E0,-2.9480675E-2,-1.3742311E-3,2.524285E-2,-8.640204E-3,-1.1958619E-2,3.4306817E-2,1.9439977E-2,5.3320736E-2,-7.022366E-2,-1.0551016E-2,2.7838005E-2,-3.2810282E-3],"split_indices":[49,7,1,78,61,7,90,58,62,63,84,0,0,60,25,0,0,0,0,0,0,0,0,0,0,0,0],"split_type":[0,0,0,0,0,0,0,0,0,0,0,0,0,0,0,0,0,0,0,0,0,0,0,0,0,0,0],"sum_hessian":[3.52E2,8.9E1,2.63E2,5.8E1,3.1E1,3E0,2.6E2,3.2E1,2.6E1,1.4E1,1.7E1,2E0,1E0,3.9E1,2.21E2,8E0,2.4E1,2E1,6E0,8E0,6E0,7E0,1E1,5E0,3.4E1,1.9E1,2.02E2],"tree_param":{"num_deleted":"0","num_feature":"93","num_nodes":"27","size_leaf_vector":"1"}},{"base_weights":[1.4072995E-2,-1.1666278E-2,8.598497E-1,-6.5683044E-2,2.271491E-1,6.830381E-2,3.754237E-1,-4.60427E-1,-7.5133485E-3,5.154451E-1,-6.7827746E-2,2.3804111E-2,4.1259113E-3,-1.3750531E-2,-7.0173964E-2,-3.8270634E-2,1.4594749E-3,-2.2623083E-2,3.1185452E-2,-3.0681286E-2,6.1855535E-3],"categories":[],"categories_nodes":[],"categories_segments":[],"categories_sizes":[],"default_left":[0,0,0,0,0,0,0,0,0,0,0,0,0,0,0,0,0,0,0,0,0],"id":29,"left_children":[1,3,5,7,9,-1,11,13,15,17,19,-1,-1,-1,-1,-1,-1,-1,-1,-1,-1],"loss_changes":[8.108351E0,4.684733E0,2.1846647E0,6.7933326E0,5.732684E0,0E0,1.670987E-1,6.258606E0,7.226961E0,3.8450432E0,3.630323E0,0E0,0E0,0E0,0E0,0E0,0E0,0E0,0E0,0E0,0E0],"parents":[2147483647,0,0,1,1,2,2,3,3,4,4,6,6,7,7,8,8,9,9,10,10],"right_children":[2,4,6,8,10,-1,12,14,16,18,20,-1,-1,-1,-1,-1,-1,-1,-1,-1,-1],"split_conditions":[1.7048314E0,1.1414804E0,-4.394653E-1,-8.1867546E-1,9.3248285E-2,6.830381E-2,1.3414958E0,1.9269564E0,-4.8298016E0,-1.8735783E0,-8.611343E-1,2.3804111E-2,4.1259113E-3,-1.3750531E-2,-7.0173964E-2,-3.8270634E-2,1.4594749E-3,-2.2623083E-2,3.1185452E-2,-3.0681286E-2,6.1855535E-3],"split_indices":[48,90,44,45,56,0,28,84,79,58,17,0,0,0,0,0,0,0,0,0,0],"split_type":[0,0,0,0,0,0,0,0,0,0,0,0,0,0,0,0,0,0,0,0,0],"sum_hessian":[3.71E2,3.61E2,1E1,2.95E2,6.6E1,4E0,6E0,3.7E1,2.58E2,3.3E1,3.3E1,4E0,2E0,3.2E1,5E0,1.1E1,2.47E2,3E0,3E1,8E0,2.5E1],"tree_param":{"num_deleted":"0","num_feature":"93","num_nodes":"21","size_leaf_vector":"1"}},{"base_weights":[-8.529238E-3,-2.5113726E-2,9.9625385E-1,-9.3006454E-2,-9.794724E-3,6.7168884E-2,2.0133746E-1,-3.3061582E-1,3.4626417E-2,2.702114E-3,1.2398195E-2,-8.828762E-3,-6.3838854E-2,1.997669E-2,-5.2332436E-4],"categories":[],"categories_nodes":[],"categories_segments":[],"categories_sizes":[],"default_left":[0,0,0,0,0,0,0,0,0,0,0,0,0,0,0],"id":30,"left_children":[1,3,5,-1,7,-1,9,11,13,-1,-1,-1,-1,-1,-1],"loss_changes":[6.157303E0,1.0185929E1,1.3851337E0,0E0,5.1561456E0,0E0,7.2030127E-3,6.187431E0,5.236787E0,0E0,0E0,0E0,0E0,0E0,0E0],"parents":[2147483647,0,0,1,1,2,2,4,4,6,6,7,7,8,8],"right_children":[2,4,6,-1,8,-1,10,12,14,-1,-1,-1,-1,-1,-1],"split_conditions":[2.604787E0,-2.7071905E0,-2.818221E-1,-9.3006454E-2,-7.50609E-1,6.7168884E-2,-5.8184576E-1,6.5815873E0,-1.0621369E0,2.702114E-3,1.2398195E-2,-8.828762E-3,-6.3838854E-2,1.997669E-2,-5.2332436E-4],"split_indices":[50,44,1,0,54,0,0,77,25,0,0,0,0,0,0],"split_type":[0,0,0,0,0,0,0,0,0,0,0,0,0,0,0],"sum_hessian":[3.67E2,3.62E2,5E0,2E0,3.6E2,3E0,2E0,4.3E1,3.17E2,1E0,1E0,3.8E1,5E0,3.4E1,2.83E2],"tree_param":{"num_deleted":"0","num_feature":"93","num_nodes":"15","size_leaf_vector":"1"}},{"base_weights":[-5.1819272E-3,3.4439914E-2,-4.5537746E-1,7.097414E-2,2.2081306E-2,3.494094E-1,-6.711329E-1,-9.836851E-3,4.0670514E-1,4.8786217E-1,-1.203268E-2,-1.0108745E0,-1.777224E-1,1.2134581E-3,-2.318099E-2,4.3557342E-2,5.479015E-3,1.3263563E-2,3.1101465E-2,-6.302589E-2,-3.5818398E-3,1.3123368E-2,-1.8780097E-2],"categories":[],"categories_nodes":[],"categories_segments":[],"categories_sizes":[],"default_left":[0,0,0,0,0,0,0,0,0,0,0,0,0,0,0,0,0,0,0,0,0,0,0],"id":31,"left_children":[1,3,5,-1,7,9,11,13,15,17,-1,19,21,-1,-1,-1,-1,-1,-1,-1,-1,-1,-1],"loss_changes":[6.6155868E0,5.8056226E0,5.4436145E0,0E0,4.1657286E0,6.8927664E-1,3.8435154E0,4.870944E0,3.4924664E0,1.4179826E-2,0E0,3.1923428E0,1.0567334E0,0E0,0E0,0E0,0E0,0E0,0E0,0E0,0E0,0E0,0E0],"parents":[2147483647,0,0,1,1,2,2,4,4,5,5,6,6,7,7,8,8,9,9,11,11,12,12],"right_children":[2,4,6,-1,8,10,12,14,16,18,-1,20,22,-1,-1,-1,-1,-1,-1,-1,-1,-1,-1],"split_conditions":[2.5429764E0,-2.0879436E0,-8.246202E-1,7.097414E-2,1.6028439E0,-4.9588177E-1,1.2964734E0,1.2264705E0,-2.0471494E-1,-2.625259E-1,-1.203268E-2,2.3160835E-1,-5.1455843E-1,1.2134581E-3,-2.318099E-2,4.3557342E-2,5.479015E-3,1.3263563E-2,3.1101465E-2,-6.302589E-2,-3.5818398E-3,1.3123368E-2,-1.8780097E-2],"split_indices":[87,11,55,0,31,5,79,45,57,1,0,50,6,0,0,0,0,0,0,0,0,0,0],"split_type":[0,0,0,0,0,0,0,0,0,0,0,0,0,0,0,0,0,0,0,0,0,0,0],"sum_hessian":[3.69E2,3.4E2,2.9E1,2E0,3.38E2,6E0,2.3E1,3.13E2,2.5E1,5E0,1E0,1.3E1,1E1,2.92E2,2.1E1,9E0,1.6E1,3E0,2E0,1E1,3E0,3E0,7E0],"tree_param":{"num_deleted":"0","num_feature":"93","num_nodes":"23","size_leaf_vector":"1"}},{"base_weights":[9.089623E-4,-1.9565778E-2,9.1192126E-1,-7.1824765E-1,-1.4401956E-3,4.7658846E-1,7.393066E-2,-7.697986E-2,-5.097339E-2,3.145607E-2,-3.511891E-1,2.7128572E-2,3.6668412E-3,9.855409E-3,-7.000567E-3,-5.1757466E-2,2.0725448E-3,-5.6483824E-2,-5.474871E-3],"categories":[],"categories_nodes":[],"categories_segments":[],"categories_sizes":[],"default_left":[0,0,0,0,0,0,0,0,0,0,0,0,0,0,0,0,0,0,0],"id":32,"left_children":[1,3,5,7,9,11,-1,-1,13,15,17,-1,-1,-1,-1,-1,-1,-1,-1],"loss_changes":[6.7887874E0,4.507355E0,1.2689066E0,4.8541102E0,4.014937E0,1.1985612E-1,0E0,0E0,1.6012943E-1,3.4436193E0,5.520921E0,0E0,0E0,0E0,0E0,0E0,0E0,0E0,0E0],"parents":[2147483647,0,0,1,1,2,2,3,3,4,4,5,5,8,8,9,9,10,10],"right_children":[2,4,6,8,10,12,-1,-1,14,16,18,-1,-1,-1,-1,-1,-1,-1,-1],"split_conditions":[1.7048314E0,-2.8860736E0,-2.0918407E-1,-5.485491E-1,2.5429764E0,9.1662467E-1,7.393066E-2,-7.697986E-2,-7.6410043E-1,-2.6950338E0,-5.155507E-1,2.7128572E-2,3.6668412E-3,9.855409E-3,-7.000567E-3,-5.1757466E-2,2.0725448E-3,-5.6483824E-2,-5.474871E-3],"split_indices":[48,88,58,51,87,0,0,0,13,49,30,0,0,0,0,0,0,0,0],"split_type":[0,0,0,0,0,0,0,0,0,0,0,0,0,0,0,0,0,0,0],"sum_hessian":[3.62E2,3.55E2,7E0,8E0,3.47E2,5E0,2E0,3E0,5E0,3.18E2,2.9E1,4E0,1E0,1E0,4E0,2E0,3.16E2,6E0,2.3E1],"tree_param":{"num_deleted":"0","num_feature":"93","num_nodes":"19","size_leaf_vector":"1"}},{"base_weights":[5.393744E-3,1.0489851E0,-9.23749E-3,1.8114109E-2,6.930132E-2,-1.2252566E0,4.5289327E-3,-8.874341E-2,1.0589458E-2,-2.3171872E-2,5.2289796E-1,-3.0172386E-3,1.4465556E-2,-1.5666889E-2,3.9210185E-2],"categories":[],"categories_nodes":[],"categories_segments":[],"categories_sizes":[],"default_left":[0,0,0,0,0,0,0,0,0,0,0,0,0,0,0],"id":33,"left_children":[1,3,5,-1,-1,7,9,-1,-1,11,13,-1,-1,-1,-1],"loss_changes":[5.5218096E0,6.551032E-1,5.981812E0,0E0,0E0,3.5351658E0,5.0952873E0,0E0,0E0,3.932016E0,4.1789584E0,0E0,0E0,0E0,0E0],"parents":[2147483647,0,0,1,1,2,2,5,5,6,6,9,9,10,10],"right_children":[2,4,6,-1,-1,8,10,-1,-1,12,14,-1,-1,-1,-1],"split_conditions":[-2.077203E0,-1.7442927E0,-2.4632525E0,1.8114109E-2,6.930132E-2,-1.8305712E0,2.3656845E0,-8.874341E-2,1.0589458E-2,8.7089777E-1,-1.0714543E0,-3.0172386E-3,1.4465556E-2,-1.5666889E-2,3.9210185E-2],"split_indices":[5,16,3,0,0,0,67,0,0,48,53,0,0,0,0],"split_type":[0,0,0,0,0,0,0,0,0,0,0,0,0,0,0],"sum_hessian":[3.6E2,4E0,3.56E2,2E0,2E0,3E0,3.53E2,2E0,1E0,3.36E2,1.7E1,3.01E2,3.5E1,4E0,1.3E1],"tree_param":{"num_deleted":"0","num_feature":"93","num_nodes":"15","size_leaf_vector":"1"}},{"base_weights":[-1.5632013E-2,-8.578529E-2,-1.0569313E-3,7.156593E-2,-1.33665865E-2,-7.0976126E-1,7.1549234E-3,-6.729262E-2,-3.0695878E-3,1.7412425E-3,-2.1865256E-2],"categories":[],"categories_nodes":[],"categories_segments":[],"categories_sizes":[],"default_left":[0,0,0,0,0,0,0,0,0,0,0],"id":34,"left_children":[1,-1,3,-1,5,7,9,-1,-1,-1,-1],"loss_changes":[8.745072E0,0E0,6.207981E0,0E0,4.9926624E0,4.0415964E0,4.196609E0,0E0,0E0,0E0,0E0],"parents":[2147483647,0,0,2,2,4,4,5,5,6,6],"right_children":[2,-1,4,-1,6,8,10,-1,-1,-1,-1],"split_conditions":[-3.7209253E0,-8.578529E-2,-2.7071905E0,7.156593E-2,-2.8860736E0,-3.7175596E-1,1.3858256E0,-6.729262E-2,-3.0695878E-3,1.7412425E-3,-2.1865256E-2],"split_indices":[45,0,44,0,88,51,45,0,0,0,0],"split_type":[0,0,0,0,0,0,0,0,0,0,0],"sum_hessian":[3.52E2,2E0,3.5E2,2E0,3.48E2,9E0,3.39E2,4E0,5E0,3.2E2,1.9E1],"tree_param":{"num_deleted":"0","num_feature":"93","num_nodes":"11","size_leaf_vector":"1"}},{"base_weights":[1.4274852E-2,-8.292578E-2,2.783609E-2,-1.504422E-3,4.9068436E-1,4.3713492E-1,-2.958345E-2,1.3641314E-2,7.6230603E-1,3.0536796E-3,3.3192966E-2,5.485289E-3,-5.963854E-3,-1.4704066E-2,2.3590747E-2,5.7530053E-2,2.09371E-2],"categories":[],"categories_nodes":[],"categories_segments":[],"categories_sizes":[],"default_left":[0,0,0,0,0,0,0,0,0,0,0,0,0,0,0,0,0],"id":35,"left_children":[1,-1,3,5,7,9,11,13,15,-1,-1,-1,-1,-1,-1,-1,-1],"loss_changes":[8.462343E0,0E0,5.011834E0,4.299097E0,2.8402562E0,1.7499638E0,4.110906E0,1.4076656E0,1.3858538E0,0E0,0E0,0E0,0E0,0E0,0E0,0E0,0E0],"parents":[2147483647,0,0,2,2,3,3,4,4,5,5,6,6,7,7,8,8],"right_children":[2,-1,4,6,8,10,12,14,16,-1,-1,-1,-1,-1,-1,-1,-1],"split_conditions":[-3.7209253E0,-8.292578E-2,2.3656845E0,-1.4158072E0,-6.664645E-1,3.9921528E-1,-1.0525693E0,8.61279E-1,-5.038736E-1,3.0536796E-3,3.3192966E-2,5.485289E-3,-5.963854E-3,-1.4704066E-2,2.3590747E-2,5.7530053E-2,2.09371E-2],"split_indices":[45,0,67,57,55,43,86,40,56,0,0,0,0,0,0,0,0],"split_type":[0,0,0,0,0,0,0,0,0,0,0,0,0,0,0,0,0],"sum_hessian":[3.7E2,2E0,3.68E2,3.47E2,2.1E1,2E1,3.27E2,8E0,1.3E1,8E0,1.2E1,1.28E2,1.99E2,5E0,3E0,5E0,8E0],"tree_param":{"num_deleted":"0","num_feature":"93","num_nodes":"17","size_leaf_vector":"1"}},{"base_weights":[-5.438209E-3,-8.0161594E-2,7.7816774E-3,-5.8053625E-1,3.1292163E-2,-9.202809E-1,2.1506023E-1,1.1522609E0,1.5002752E-2,-1.986762E-2,-6.0133725E-2,1.9194722E-2,-1.1506914E-2,8.329057E-2,1.2731175E-2,-3.1938795E-2,1.7179096E-3],"categories":[],"categories_nodes":[],"categories_segments":[],"categories_sizes":[],"default_left":[0,0,0,0,0,0,0,0,0,0,0,0,0,0,0,0,0],"id":36,"left_children":[1,-1,3,5,7,9,11,13,15,-1,-1,-1,-1,-1,-1,-1,-1],"loss_changes":[7.722243E0,0E0,5.039051E0,3.9821115E0,6.373685E0,9.988308E-1,4.6417242E-1,1.8807554E0,4.400291E0,0E0,0E0,0E0,0E0,0E0,0E0,0E0,0E0],"parents":[2147483647,0,0,2,2,3,3,4,4,5,5,6,6,7,7,8,8],"right_children":[2,-1,4,6,8,10,12,14,16,-1,-1,-1,-1,-1,-1,-1,-1],"split_conditions":[-3.7209253E0,-8.0161594E-2,-1.8685039E0,7.162387E-1,-2.137106E0,-4.5210786E0,-7.6915455E-1,-3.937955E-1,-2.8860736E0,-1.986762E-2,-6.0133725E-2,1.9194722E-2,-1.1506914E-2,8.329057E-2,1.2731175E-2,-3.1938795E-2,1.7179096E-3],"split_indices":[45,0,59,48,12,80,0,38,88,0,0,0,0,0,0,0,0],"split_type":[0,0,0,0,0,0,0,0,0,0,0,0,0,0,0,0,0],"sum_hessian":[3.64E2,2E0,3.62E2,1.3E1,3.49E2,9E0,4E0,4E0,3.45E2,4E0,5E0,3E0,1E0,2E0,2E0,9E0,3.36E2],"tree_param":{"num_deleted":"0","num_feature":"93","num_nodes":"17","size_leaf_vector":"1"}},{"base_weights":[-1.2526058E-2,-7.748954E-2,4.2721923E-4,9.792905E-1,-1.343891E-2,1.7101219E-2,6.450632E-2,-1.1299219E-1,1.10142626E-1,-3.535832E-3,-4.0878065E-2,1.4496437E-2,-4.382599E-3],"categories":[],"categories_nodes":[],"categories_segments":[],"categories_sizes":[],"default_left":[0,0,0,0,0,0,0,0,0,0,0,0,0],"id":37,"left_children":[1,-1,3,5,7,-1,-1,9,11,-1,-1,-1,-1],"loss_changes":[7.149291E0,0E0,4.8587375E0,5.4917145E-1,4.355386E0,0E0,0E0,5.7802496E0,5.644007E0,0E0,0E0,0E0,0E0],"parents":[2147483647,0,0,2,2,3,3,4,4,7,7,8,8],"right_children":[2,-1,4,6,8,-1,-1,10,12,-1,-1,-1,-1],"split_conditions":[-3.7209253E0,-7.748954E-2,-2.077203E0,-1.7442927E0,1.2250206E-1,1.7101219E-2,6.450632E-2,1.587073E0,2.917687E-1,-3.535832E-3,-4.0878065E-2,1.4496437E-2,-4.382599E-3],"split_indices":[45,0,5,16,55,0,0,57,66,0,0,0,0],"split_type":[0,0,0,0,0,0,0,0,0,0,0,0,0],"sum_hessian":[3.58E2,2E0,3.56E2,4E0,3.52E2,2E0,2E0,1.95E2,1.57E2,1.85E2,1E1,8.2E1,7.5E1],"tree_param":{"num_deleted":"0","num_feature":"93","num_nodes":"13","size_leaf_vector":"1"}},{"base_weights":[-6.6141705E-3,1.8309504E-2,-4.3497065E-1,1.347837E-1,-7.244263E-2,3.0881777E-1,-8.592273E-1,1.9990723E-1,-4.6899682E-1,-4.4087613E-1,-1.2798898E-2,1.7674694E-2,2.0145984E-2,-9.833159E-2,-6.612479E-2,3.0499969E-2,5.807524E-3,-3.932892E-2,3.1609737E-4,1.3245626E-2,-3.0666206E-2,6.572844E-4,-3.5774685E-2,3.6840886E-3,-2.3584866E-3,-2.1850616E-2,1.9300995E-2],"categories":[],"categories_nodes":[],"categories_segments":[],"categories_sizes":[],"default_left":[0,0,0,0,0,0,0,0,0,0,0,0,0,0,0,0,0,0,0,0,0,0,0,0,0,0,0],"id":38,"left_children":[1,3,5,7,9,11,13,15,17,19,21,23,-1,25,-1,-1,-1,-1,-1,-1,-1,-1,-1,-1,-1,-1,-1],"loss_changes":[3.883431E0,3.645941E0,6.576488E0,6.0311246E0,4.257458E0,2.1205544E-1,4.452443E0,4.6348214E0,2.2692602E0,3.4486961E0,3.0722349E0,1.437079E-2,0E0,1.1529386E0,0E0,0E0,0E0,0E0,0E0,0E0,0E0,0E0,0E0,0E0,0E0,0E0,0E0],"parents":[2147483647,0,0,1,1,2,2,3,3,4,4,5,5,6,6,7,7,8,8,9,9,10,10,11,11,13,13],"right_children":[2,4,6,8,10,12,14,16,18,20,22,24,-1,26,-1,-1,-1,-1,-1,-1,-1,-1,-1,-1,-1,-1,-1],"split_conditions":[1.3858256E0,1.6738947E-1,2.6686255E-2,1.8501813E0,-5.667097E-1,-3.2767123E-1,-6.668888E-1,-7.845757E-1,3.2258922E-1,-7.7845126E-1,2.1838243E0,-1.7056986E0,2.0145984E-2,-7.845077E-1,-6.612479E-2,3.0499969E-2,5.807524E-3,-3.932892E-2,3.1609737E-4,1.3245626E-2,-3.0666206E-2,6.572844E-4,-3.5774685E-2,3.6840886E-3,-2.3584866E-3,-2.1850616E-2,1.9300995E-2],"split_indices":[45,0,6,89,48,8,25,48,46,43,27,0,0,23,0,0,0,0,0,0,0,0,0,0,0,0,0],"split_type":[0,0,0,0,0,0,0,0,0,0,0,0,0,0,0,0,0,0,0,0,0,0,0,0,0,0,0],"sum_hessian":[3.62E2,3.43E2,1.9E1,1.5E2,1.93E2,7E0,1.2E1,1.36E2,1.4E1,2.6E1,1.67E2,2E0,5E0,5E0,7E0,2.2E1,1.14E2,8E0,6E0,5E0,2.1E1,1.62E2,5E0,1E0,1E0,3E0,2E0],"tree_param":{"num_deleted":"0","num_feature":"93","num_nodes":"27","size_leaf_vector":"1"}},{"base_weights":[3.2314663E-3,6.553953E-2,-8.147979E-3,-5.8350646E-1,1.0768711E-2,-1.2515693E0,-2.2960642E-2,-6.294926E-1,2.835765E-2,-6.921279E-2,-1.8020585E-2,9.914934E-3,-4.6443488E-3,-4.1223556E-2,2.3258382E-2,7.3745946E-4,3.7697606E-2],"categories":[],"categories_nodes":[],"categories_segments":[],"categories_sizes":[],"default_left":[0,0,0,0,0,0,0,0,0,0,0,0,0,0,0,0,0],"id":39,"left_children":[1,-1,3,5,7,9,11,13,15,-1,-1,-1,-1,-1,-1,-1,-1],"loss_changes":[5.1737967E0,0E0,3.7612214E0,4.090541E0,3.7904592E0,9.232092E-2,1.2672232E-1,2.3044338E0,3.217751E0,0E0,0E0,0E0,0E0,0E0,0E0,0E0,0E0],"parents":[2147483647,0,0,2,2,3,3,4,4,5,5,6,6,7,7,8,8],"right_children":[2,-1,4,6,8,10,12,14,16,-1,-1,-1,-1,-1,-1,-1,-1],"split_conditions":[-2.7071905E0,6.553953E-2,-2.8860736E0,-3.7175596E-1,-7.8460555E0,6.668796E-1,-9.980449E-1,-2.1369165E-1,2.2377055E0,-6.921279E-2,-1.8020585E-2,9.914934E-3,-4.6443488E-3,-4.1223556E-2,2.3258382E-2,7.3745946E-4,3.7697606E-2],"split_indices":[44,0,88,51,77,0,15,1,47,0,0,0,0,0,0,0,0],"split_type":[0,0,0,0,0,0,0,0,0,0,0,0,0,0,0,0,0],"sum_hessian":[3.46E2,2E0,3.44E2,1E1,3.34E2,4E0,6E0,8E0,3.26E2,3E0,1E0,1E0,5E0,7E0,1E0,3.21E2,5E0],"tree_param":{"num_deleted":"0","num_feature":"93","num_nodes":"17","size_leaf_vector":"1"}},{"base_weights":[8.193397E-3,-6.3873306E-2,1.9035045E-2,4.9186385E-1,-2.1386424E-2,7.8187115E-2,3.4926775E-1,-4.5145008E-1,5.0413054E-3,2.1932961E-2,-2.4114337E-2,6.101544E-3,-3.627603E-2,9.187472E-3,-4.8487075E-3],"categories":[],"categories_nodes":[],"categories_segments":[],"categories_sizes":[],"default_left":[0,0,0,0,0,0,0,0,0,0,0,0,0,0,0],"id":40,"left_children":[1,-1,3,5,7,-1,9,11,13,-1,-1,-1,-1,-1,-1],"loss_changes":[5.000421E0,0E0,6.7954335E0,3.7335148E0,3.7301948E0,0E0,2.1442406E0,3.074846E0,5.669426E0,0E0,0E0,0E0,0E0,0E0,0E0],"parents":[2147483647,0,0,2,2,3,3,4,4,6,6,7,7,8,8],"right_children":[2,-1,4,6,8,-1,10,12,14,-1,-1,-1,-1,-1,-1],"split_conditions":[-3.7305503E0,-6.3873306E-2,-1.1647516E0,-2.7341268E0,-2.5325446E0,7.8187115E-2,1.8025737E0,1.0983912E-2,-1.0819657E-1,2.1932961E-2,-2.4114337E-2,6.101544E-3,-3.627603E-2,9.187472E-3,-4.8487075E-3],"split_indices":[50,0,3,47,88,0,18,3,51,0,0,0,0,0,0],"split_type":[0,0,0,0,0,0,0,0,0,0,0,0,0,0,0],"sum_hessian":[3.56E2,2E0,3.54E2,2.7E1,3.27E2,2E0,2.5E1,1.8E1,3.09E2,2.3E1,2E0,6E0,1.2E1,1.12E2,1.97E2],"tree_param":{"num_deleted":"0","num_feature":"93","num_nodes":"15","size_leaf_vector":"1"}},{"base_weights":[1.3202476E-2,-7.521794E-2,2.5538024E-2,7.558087E-2,1.3287269E-2,4.9920626E-2,-3.706334E-1,3.221728E-3,-4.60443E-2,-5.6543767E-2,-9.39818E-3],"categories":[],"categories_nodes":[],"categories_segments":[],"categories_sizes":[],"default_left":[0,0,0,0,0,0,0,0,0,0,0],"id":41,"left_children":[1,-1,3,-1,5,7,9,-1,-1,-1,-1],"loss_changes":[6.9647985E0,0E0,6.679573E0,0E0,5.166037E0,4.779562E0,4.23138E0,0E0,0E0,0E0,0E0],"parents":[2147483647,0,0,2,2,4,4,5,5,6,6],"right_children":[2,-1,4,-1,6,8,10,-1,-1,-1,-1],"split_conditions":[-3.7209253E0,-7.521794E-2,-2.7341268E0,7.558087E-2,2.5429764E0,3.6003232E0,-6.2184507E-1,3.221728E-3,-4.60443E-2,-5.6543767E-2,-9.39818E-3],"split_indices":[45,0,47,0,87,91,30,0,0,0,0],"split_type":[0,0,0,0,0,0,0,0,0,0,0],"sum_hessian":[3.69E2,2E0,3.67E2,2E0,3.65E2,3.34E2,3.1E1,3.3E2,4E0,5E0,2.6E1],"tree_param":{"num_deleted":"0","num_feature":"93","num_nodes":"11","size_leaf_vector":"1"}},{"base_weights":[4.325151E-3,-7.271068E-2,1.5981926E-2,7.306151E-2,4.3150983E-3,-5.0034213E-1,2.6857557E-2,-9.090801E-3,-5.823682E-2,-3.5822276E-2,1.9707761E-3],"categories":[],"categories_nodes":[],"categories_segments":[],"categories_sizes":[],"default_left":[0,0,0,0,0,0,0,0,0,0,0],"id":42,"left_children":[1,-1,3,-1,5,7,9,-1,-1,-1,-1],"loss_changes":[6.432941E0,0E0,6.316743E0,0E0,4.256766E0,3.1742625E0,3.3699446E0,0E0,0E0,0E0,0E0],"parents":[2147483647,0,0,2,2,4,4,5,5,6,6],"right_children":[2,-1,4,-1,6,8,10,-1,-1,-1,-1],"split_conditions":[-3.7209253E0,-7.271068E-2,-9.603716E0,7.306151E-2,-1.2972364E0,-1.9272399E0,-1.576692E0,-9.090801E-3,-5.823682E-2,-3.5822276E-2,1.9707761E-3],"split_indices":[45,0,77,0,32,74,42,0,0,0,0],"split_type":[0,0,0,0,0,0,0,0,0,0,0],"sum_hessian":[3.76E2,2E0,3.74E2,2E0,3.72E2,1.5E1,3.57E2,1.1E1,4E0,5E0,3.52E2],"tree_param":{"num_deleted":"0","num_feature":"93","num_nodes":"11","size_leaf_vector":"1"}},{"base_weights":[-2.7939802E-2,-8.329209E-2,-1.3901036E-2,-5.462563E-1,1.3074977E-2,7.3405276E-3,-9.3450814E-1,2.647991E-2,-8.7962747E-1,8.573574E-3,-6.271617E-3,-2.0185774E-2,-6.922789E-2,-1.5747886E-2,2.586348E-3,-8.870394E-3,-5.054152E-2],"categories":[],"categories_nodes":[],"categories_segments":[],"categories_sizes":[],"default_left":[0,0,0,0,0,0,0,0,0,0,0,0,0,0,0,0,0],"id":43,"left_children":[1,-1,3,5,7,9,11,13,15,-1,-1,-1,-1,-1,-1,-1,-1],"loss_changes":[8.116761E0,0E0,5.062152E0,3.6607542E0,4.0440755E0,1.9584517E-1,1.8298626E0,2.8782294E0,2.8133726E-1,0E0,0E0,0E0,0E0,0E0,0E0,0E0,0E0],"parents":[2147483647,0,0,2,2,3,3,4,4,5,5,6,6,7,7,8,8],"right_children":[2,-1,4,6,8,10,12,14,16,-1,-1,-1,-1,-1,-1,-1,-1],"split_conditions":[-2.7071905E0,-8.329209E-2,-2.5325446E0,-6.90016E-1,3.6003232E0,-9.2118904E-2,-3.2148383E0,-1.3233813E0,-9.6059926E-2,8.573574E-3,-6.271617E-3,-2.0185774E-2,-6.922789E-2,-1.5747886E-2,2.586348E-3,-8.870394E-3,-5.054152E-2],"split_indices":[44,0,88,29,91,51,78,54,6,0,0,0,0,0,0,0,0],"split_type":[0,0,0,0,0,0,0,0,0,0,0,0,0,0,0,0,0],"sum_hessian":[3.53E2,2E0,3.51E2,1.6E1,3.35E2,7E0,9E0,3.31E2,4E0,3E0,4E0,5E0,4E0,2.2E1,3.09E2,1E0,3E0],"tree_param":{"num_deleted":"0","num_feature":"93","num_nodes":"17","size_leaf_vector":"1"}},{"base_weights":[-1.9516272E-2,8.5698366E-1,-4.286637E-2,3.1410035E-1,6.142351E-2,-1.6288554E-2,-7.0401436E-1,2.2389174E-2,-5.5158036E-3,-9.2913705E-1,-2.0189872E-3,1.2600234E-1,-1.086911E0,-6.203592E-2,7.929712E-3,-1.2836305E-3,2.8018236E-2,9.748447E-3,-3.7466013E-3,-2.5267143E-2,-6.467356E-2],"categories":[],"categories_nodes":[],"categories_segments":[],"categories_sizes":[],"default_left":[0,0,0,0,0,0,0,0,0,0,0,0,0,0,0,0,0,0,0,0,0],"id":44,"left_children":[1,3,5,7,-1,9,11,-1,-1,13,15,17,19,-1,-1,-1,-1,-1,-1,-1,-1],"loss_changes":[7.0976295E0,1.4292011E0,5.9102526E0,3.3308423E-1,0E0,4.231559E0,4.268491E0,0E0,0E0,1.891355E0,4.28446E0,8.389822E-2,4.2751217E-1,0E0,0E0,0E0,0E0,0E0,0E0,0E0,0E0],"parents":[2147483647,0,0,1,1,2,2,3,3,5,5,6,6,9,9,10,10,11,11,12,12],"right_children":[2,4,6,8,-1,10,12,-1,-1,14,16,18,20,-1,-1,-1,-1,-1,-1,-1,-1],"split_conditions":[-2.159623E0,5.602975E-1,2.5118563E0,-7.067183E-1,6.142351E-2,-2.4632525E0,1.774027E-1,2.2389174E-2,-5.5158036E-3,-1.8305712E0,1.6918125E0,2.0549202E-1,-3.5092548E-1,-6.203592E-2,7.929712E-3,-1.2836305E-3,2.8018236E-2,9.748447E-3,-3.7466013E-3,-2.5267143E-2,-6.467356E-2],"split_indices":[47,85,89,0,0,3,43,0,0,0,62,1,8,0,0,0,0,0,0,0,0],"split_type":[0,0,0,0,0,0,0,0,0,0,0,0,0,0,0,0,0,0,0,0,0],"sum_hessian":[3.44E2,8E0,3.36E2,4E0,4E0,3.24E2,1.2E1,3E0,1E0,4E0,3.2E2,4E0,8E0,3E0,1E0,3.08E2,1.2E1,3E0,1E0,3E0,5E0],"tree_param":{"num_deleted":"0","num_feature":"93","num_nodes":"21","size_leaf_vector":"1"}},{"base_weights":[-5.2774947E-2,-6.687402E-2,-4.1675825E-2,-6.354713E-2,4.2159328E-1,-3.9485335E-2,-5.1415235E-1,5.9927225E-1,1.0753851E-1,3.465806E-3,-7.074731E-3,-1.6119551E-3,-4.694688E-2,8.122219E-3,3.4408685E-2,7.580115E-3,-3.921107E-3],"categories":[],"categories_nodes":[],"categories_segments":[],"categories_sizes":[],"default_left":[0,0,0,0,0,0,0,0,0,0,0,0,0,0,0,0,0],"id":45,"left_children":[1,-1,3,5,7,9,11,13,15,-1,-1,-1,-1,-1,-1,-1,-1],"loss_changes":[4.9919825E0,0E0,3.5933607E0,3.6335773E0,8.2837033E-1,3.5725095E0,3.4497929E0,2.7655602E-1,6.924791E-2,0E0,0E0,0E0,0E0,0E0,0E0,0E0,0E0],"parents":[2147483647,0,0,2,2,3,3,4,4,5,5,6,6,7,7,8,8],"right_children":[2,-1,4,6,8,10,12,14,16,-1,-1,-1,-1,-1,-1,-1,-1],"split_conditions":[-3.7209253E0,-6.687402E-2,1.7615603E0,1.2427297E0,1.1318213E-1,1.7490285E-2,-6.266128E-1,-2.3097646E-1,2.124234E0,3.465806E-3,-7.074731E-3,-1.6119551E-3,-4.694688E-2,8.122219E-3,3.4408685E-2,7.580115E-3,-3.921107E-3],"split_indices":[45,0,26,14,59,51,17,46,14,0,0,0,0,0,0,0,0],"split_type":[0,0,0,0,0,0,0,0,0,0,0,0,0,0,0,0,0],"sum_hessian":[3.53E2,2E0,3.51E2,3.36E2,1.5E1,3.2E2,1.6E1,9E0,6E0,1.55E2,1.65E2,8E0,8E0,2E0,7E0,5E0,1E0],"tree_param":{"num_deleted":"0","num_feature":"93","num_nodes":"17","size_leaf_vector":"1"}},{"base_weights":[-2.0477263E-2,-6.4644895E-2,-1.0132954E-2,-3.7107497E-2,4.6512562E-1,-1.21634975E-2,-4.992815E-1,8.5728097E-1,-3.856316E-1,1.6005477E-3,-1.3229906E-2,1.4875376E-3,-4.6274118E-2,1.4780581E-2,5.682369E-2,-2.8870718E-3,-2.5261968E-2],"categories":[],"categories_nodes":[],"categories_segments":[],"categories_sizes":[],"default_left":[0,0,0,0,0,0,0,0,0,0,0,0,0,0,0,0,0],"id":46,"left_children":[1,-1,3,5,7,9,11,13,15,-1,-1,-1,-1,-1,-1,-1,-1],"loss_changes":[4.896441E0,0E0,4.7734356E0,4.0519476E0,7.003175E0,3.7441087E0,4.086066E0,1.8594418E0,2.453543E-1,0E0,0E0,0E0,0E0,0E0,0E0,0E0,0E0],"parents":[2147483647,0,0,2,2,3,3,4,4,5,5,6,6,7,7,8,8],"right_children":[2,-1,4,6,8,10,12,14,16,-1,-1,-1,-1,-1,-1,-1,-1],"split_conditions":[-3.7209253E0,-6.4644895E-2,2.3656845E0,2.5118563E0,4.771136E-1,6.8020856E-1,2.3017462E-1,-5.820039E-1,-1.4154013E0,1.6005477E-3,-1.3229906E-2,1.4875376E-3,-4.6274118E-2,1.4780581E-2,5.682369E-2,-2.8870718E-3,-2.5261968E-2],"split_indices":[45,0,67,89,89,59,43,57,45,0,0,0,0,0,0,0,0],"split_type":[0,0,0,0,0,0,0,0,0,0,0,0,0,0,0,0,0],"sum_hessian":[3.72E2,2E0,3.7E2,3.51E2,1.9E1,3.34E2,1.7E1,1.3E1,6E0,2.85E2,4.9E1,8E0,9E0,5E0,8E0,2E0,4E0],"tree_param":{"num_deleted":"0","num_feature":"93","num_nodes":"17","size_leaf_vector":"1"}},{"base_weights":[-1.0159218E-2,-1.20701134E-1,9.9254765E-2,-8.621362E-2,-1.3450092E0,7.290854E-2,8.8188094E-1,-1.629989E-1,1.5657236E-1,-1.3043013E-2,-7.754157E-2,5.5309016E-2,4.211301E-2,5.8800813E-2,2.204046E-2,-1.0162628E-2,3.096779E-2,-5.050983E-2,1.1809254E-2,6.9375546E-3,-5.624848E-3],"categories":[],"categories_nodes":[],"categories_segments":[],"categories_sizes":[],"default_left":[0,0,0,0,0,0,0,0,0,0,0,0,0,0,0,0,0,0,0,0,0],"id":47,"left_children":[1,3,5,7,9,11,13,15,17,-1,-1,19,-1,-1,-1,-1,-1,-1,-1,-1,-1],"loss_changes":[4.4991627E0,7.6953616E0,3.7915013E0,3.3997931E0,7.1115875E-1,2.4177365E0,2.600093E-1,4.4718714E0,4.325738E0,0E0,0E0,2.521981E0,0E0,0E0,0E0,0E0,0E0,0E0,0E0,0E0,0E0],"parents":[2147483647,0,0,1,1,2,2,3,3,4,4,5,5,6,6,7,7,8,8,11,11],"right_children":[2,4,6,8,10,12,14,16,18,-1,-1,20,-1,-1,-1,-1,-1,-1,-1,-1,-1],"split_conditions":[1.0888145E0,9.6377915E-1,1.686003E0,5.596719E-1,-7.1321887E-1,1.9583498E0,-1.10175E0,1.5834388E0,-1.6189308E0,-1.3043013E-2,-7.754157E-2,2.1873806E0,4.211301E-2,5.8800813E-2,2.204046E-2,-1.0162628E-2,3.096779E-2,-5.050983E-2,1.1809254E-2,6.9375546E-3,-5.624848E-3],"split_indices":[81,81,58,63,4,17,27,62,37,0,0,77,0,0,0,0,0,0,0,0,0],"split_type":[0,0,0,0,0,0,0,0,0,0,0,0,0,0,0,0,0,0,0,0,0],"sum_hessian":[3.7E2,1.84E2,1.86E2,1.8E2,4E0,1.81E2,5E0,1.37E2,4.3E1,1E0,3E0,1.78E2,3E0,2E0,3E0,1.31E2,6E0,2E0,4.1E1,1.19E2,5.9E1],"tree_param":{"num_deleted":"0","num_feature":"93","num_nodes":"21","size_leaf_vector":"1"}},{"base_weights":[1.4860346E-2,-2.7682517E-2,3.33578E-1,-5.9395874E-1,-5.2384483E-3,3.9707512E-1,-3.1212151E-2,3.5075223E-1,-9.4783485E-1,5.068286E-1,-3.544644E-2,7.1188694E-1,2.3673125E-1,4.0464452E-3,2.9005555E-2,-2.576235E-2,-5.9542786E-2,3.4062967E-2,3.6747872E-3,4.1101854E-2,-2.5209084E-3,4.3380182E-2,7.2311657E-3,5.606421E-3,3.3746015E-2],"categories":[],"categories_nodes":[],"categories_segments":[],"categories_sizes":[],"default_left":[0,0,0,0,0,0,0,0,0,0,0,0,0,0,0,0,0,0,0,0,0,0,0,0,0],"id":48,"left_children":[1,3,5,7,9,11,-1,13,15,17,19,21,23,-1,-1,-1,-1,-1,-1,-1,-1,-1,-1,-1,-1],"loss_changes":[4.8362956E0,4.000395E0,2.8022642E0,4.3441825E0,4.7203937E0,1.8505993E0,0E0,2.0059773E-1,3.3256626E-1,1.2349019E0,3.7387927E0,1.0228462E0,1.4531107E0,0E0,0E0,0E0,0E0,0E0,0E0,0E0,0E0,0E0,0E0,0E0,0E0],"parents":[2147483647,0,0,1,1,2,2,3,3,4,4,5,5,7,7,8,8,9,9,10,10,11,11,12,12],"right_children":[2,4,6,8,10,12,-1,14,16,18,20,22,24,-1,-1,-1,-1,-1,-1,-1,-1,-1,-1,-1,-1],"split_conditions":[8.7089777E-1,-1.6258265E0,1.5839157E0,-1.8000682E-1,-9.675904E-1,-9.858456E-1,-3.1212151E-2,9.7906095E-1,3.0110812E-1,-2.959897E-1,-2.1828408E0,7.646596E-2,1.7048314E0,4.0464452E-3,2.9005555E-2,-2.576235E-2,-5.9542786E-2,3.4062967E-2,3.6747872E-3,4.1101854E-2,-2.5209084E-3,4.3380182E-2,7.2311657E-3,5.606421E-3,3.3746015E-2],"split_indices":[48,59,3,53,59,89,0,0,84,91,47,39,48,0,0,0,0,0,0,0,0,0,0,0,0],"split_type":[0,0,0,0,0,0,0,0,0,0,0,0,0,0,0,0,0,0,0,0,0,0,0,0,0],"sum_hessian":[3.55E2,3.14E2,4.1E1,1.1E1,3.03E2,3.9E1,2E0,3E0,8E0,1.6E1,2.87E2,1.2E1,2.7E1,2E0,1E0,4E0,4E0,1.1E1,5E0,4E0,2.83E2,9E0,3E0,2.2E1,5E0],"tree_param":{"num_deleted":"0","num_feature":"93","num_nodes":"25","size_leaf_vector":"1"}},{"base_weights":[-6.840546E-3,1.2569836E-1,-7.970844E-2,4.762387E-2,4.750492E-1,-1.3221776E0,-5.8402173E-2,-2.0537494E-1,1.508077E-1,6.5792835E-1,-6.307562E-2,-1.8872714E-2,-7.5563364E-2,-3.1197127E-2,-4.895113E-1,-2.6927054E-2,1.0725888E-3,1.3547286E-2,-1.1825641E-2,2.0512473E-2,4.9426552E-2,7.890954E-3,-1.3410071E-2,6.7037786E-3,-6.4718104E-3,1.4299757E-2,-3.6350634E-2],"categories":[],"categories_nodes":[],"categories_segments":[],"categories_sizes":[],"default_left":[0,0,0,0,0,0,0,0,0,0,0,0,0,0,0,0,0,0,0,0,0,0,0,0,0,0,0],"id":49,"left_children":[1,3,5,7,9,11,13,15,17,19,21,-1,-1,23,25,-1,-1,-1,-1,-1,-1,-1,-1,-1,-1,-1,-1],"loss_changes":[3.5930743E0,3.5777276E0,6.2761536E0,2.8764591E0,2.4033823E0,1.4411592E-1,2.7643461E0,2.429824E0,3.6935718E0,1.0683556E0,3.5950565E-1,0E0,0E0,3.6542711E0,2.786495E0,0E0,0E0,0E0,0E0,0E0,0E0,0E0,0E0,0E0,0E0,0E0,0E0],"parents":[2147483647,0,0,1,1,2,2,3,3,4,4,5,5,6,6,7,7,8,8,9,9,10,10,13,13,14,14],"right_children":[2,4,6,8,10,12,14,16,18,20,22,-1,-1,24,26,-1,-1,-1,-1,-1,-1,-1,-1,-1,-1,-1,-1],"split_conditions":[-2.7870464E-1,1.2769568E0,-2.296737E0,-6.0008055E-1,5.688437E-1,-4.6869955E0,1.3106424E0,-3.0578628E-1,7.624817E-1,5.0281614E-1,8.030025E-1,-1.8872714E-2,-7.5563364E-2,-7.317425E-1,-1.6827868E0,-2.6927054E-2,1.0725888E-3,1.3547286E-2,-1.1825641E-2,2.0512473E-2,4.9426552E-2,7.890954E-3,-1.3410071E-2,6.7037786E-3,-6.4718104E-3,1.4299757E-2,-3.6350634E-2],"split_indices":[47,90,44,16,52,1,52,59,14,85,52,0,0,87,49,0,0,0,0,0,0,0,0,0,0,0,0],"split_type":[0,0,0,0,0,0,0,0,0,0,0,0,0,0,0,0,0,0,0,0,0,0,0,0,0,0,0],"sum_hessian":[3.7E2,1.31E2,2.39E2,1.08E2,2.3E1,3E0,2.36E2,3.1E1,7.7E1,1.7E1,6E0,1E0,2E0,2.23E2,1.3E1,1.2E1,1.9E1,5.9E1,1.8E1,1.1E1,6E0,3E0,3E0,8.3E1,1.4E2,3E0,1E1],"tree_param":{"num_deleted":"0","num_feature":"93","num_nodes":"27","size_leaf_vector":"1"}},{"base_weights":[9.108946E-3,7.587328E-1,-9.975019E-3,2.7567738E-1,5.450208E-2,-6.0466494E-2,2.7509365E-4,2.0201234E-2,-5.9427964E-3,3.0370876E-2,-3.4906077E-1,7.256376E-3,-3.086452E-3,-6.219243E-2,-7.4051223E-3],"categories":[],"categories_nodes":[],"categories_segments":[],"categories_sizes":[],"default_left":[0,0,0,0,0,0,0,0,0,0,0,0,0,0,0],"id":50,"left_children":[1,3,5,7,-1,-1,9,-1,-1,11,13,-1,-1,-1,-1],"loss_changes":[5.1862664E0,1.1398649E0,4.352239E0,3.0120713E-1,0E0,0E0,3.711366E0,0E0,0E0,3.4439085E0,4.8506045E0,0E0,0E0,0E0,0E0],"parents":[2147483647,0,0,1,1,2,2,3,3,6,6,9,9,10,10],"right_children":[2,4,6,8,-1,-1,10,-1,-1,12,14,-1,-1,-1,-1],"split_conditions":[-2.159623E0,5.602975E-1,-3.7209253E0,-2.0212412E-1,5.450208E-2,-6.0466494E-2,2.5429764E0,2.0201234E-2,-5.9427964E-3,-4.0772858E-1,-1.1857438E0,7.256376E-3,-3.086452E-3,-6.219243E-2,-7.4051223E-3],"split_indices":[47,85,45,1,0,0,87,0,0,82,77,0,0,0,0],"split_type":[0,0,0,0,0,0,0,0,0,0,0,0,0,0,0],"sum_hessian":[3.61E2,8E0,3.53E2,4E0,4E0,2E0,3.51E2,3E0,1E0,3.24E2,2.7E1,1.44E2,1.8E2,4E0,2.3E1],"tree_param":{"num_deleted":"0","num_feature":"93","num_nodes":"15","size_leaf_vector":"1"}},{"base_weights":[3.2888525E-4,-5.8450945E-2,9.809194E-3,-5.4014E-3,6.987637E-1,8.732187E-2,-1.0120254E-1,5.5576425E-2,2.2879915E-1,-2.9404166E-3,1.2280311E-2,1.3567184E-2,-7.7567385E-3,-1.1421725E-3,1.4871034E-2],"categories":[],"categories_nodes":[],"categories_segments":[],"categories_sizes":[],"default_left":[0,0,0,0,0,0,0,0,0,0,0,0,0,0,0],"id":51,"left_children":[1,-1,3,5,7,9,11,-1,13,-1,-1,-1,-1,-1,-1],"loss_changes":[4.1353765E0,0E0,3.881155E0,3.2333646E0,1.2975621E0,4.293517E0,3.6386075E0,0E0,9.313458E-2,0E0,0E0,0E0,0E0,0E0,0E0],"parents":[2147483647,0,0,2,2,3,3,4,4,5,5,6,6,8,8],"right_children":[2,-1,4,6,8,10,12,-1,14,-1,-1,-1,-1,-1,-1],"split_conditions":[-3.7209253E0,-5.8450945E-2,1.7048314E0,8.8932075E-2,-1.0788913E0,1.1651169E-1,-9.912863E-1,5.5576425E-2,-1.0666203E0,-2.9404166E-3,1.2280311E-2,1.3567184E-2,-7.7567385E-3,-1.1421725E-3,1.4871034E-2],"split_indices":[45,0,48,45,44,59,53,0,13,0,0,0,0,0,0],"split_type":[0,0,0,0,0,0,0,0,0,0,0,0,0,0,0],"sum_hessian":[3.71E2,2E0,3.69E2,3.62E2,7E0,1.84E2,1.78E2,3E0,4E0,9.6E1,8.8E1,2.2E1,1.56E2,1E0,3E0],"tree_param":{"num_deleted":"0","num_feature":"93","num_nodes":"15","size_leaf_vector":"1"}},{"base_weights":[-1.3736503E-2,-2.6380092E-2,7.366319E-1,-8.9145243E-1,-1.3981966E-2,4.8794623E-2,1.7207386E-1,-4.9294814E-2,-1.2841925E-2,5.233773E-2,-1.3889629E-1,7.5071905E-4,1.215482E-2,3.744841E-3,-4.0117558E-2,-5.0067287E-3,-5.1294684E-2],"categories":[],"categories_nodes":[],"categories_segments":[],"categories_sizes":[],"default_left":[0,0,0,0,0,0,0,0,0,0,0,0,0,0,0,0,0],"id":52,"left_children":[1,3,5,7,9,-1,11,-1,-1,13,15,-1,-1,-1,-1,-1,-1],"loss_changes":[3.4348779E0,3.7950084E0,6.425333E-1,4.6460867E-2,2.915052E0,0E0,2.9814355E-2,0E0,0E0,4.4947243E0,4.0918207E0,0E0,0E0,0E0,0E0,0E0,0E0],"parents":[2147483647,0,0,1,1,2,2,3,3,4,4,6,6,9,9,10,10],"right_children":[2,4,6,8,10,-1,12,-1,-1,14,16,-1,-1,-1,-1,-1,-1],"split_conditions":[2.604787E0,-9.603716E0,-2.818221E-1,-1.1305996E0,9.854633E-1,4.8794623E-2,-5.8184576E-1,-4.9294814E-2,-1.2841925E-2,2.1720314E0,1.2188975E0,7.5071905E-4,1.215482E-2,3.744841E-3,-4.0117558E-2,-5.0067287E-3,-5.1294684E-2],"split_indices":[50,77,1,1,87,0,0,0,0,57,14,0,0,0,0,0,0],"split_type":[0,0,0,0,0,0,0,0,0,0,0,0,0,0,0,0,0],"sum_hessian":[3.59E2,3.54E2,5E0,4E0,3.5E2,3E0,2E0,3E0,1E0,2.29E2,1.21E2,1E0,1E0,2.24E2,5E0,1.17E2,4E0],"tree_param":{"num_deleted":"0","num_feature":"93","num_nodes":"17","size_leaf_vector":"1"}},{"base_weights":[-2.1490304E-2,-4.7446262E-2,-1.1183038E-2,-7.036429E-2,1.3434026E-1,7.361317E-2,-1.6651456E-1,1.6772187E-1,-7.504759E-1,5.638271E-3,-3.6207717E-2,1.948828E-2,-1.0796052E-2,1.0954431E-2,-2.3161182E-2,-5.9370395E-2,1.4008003E-2],"categories":[],"categories_nodes":[],"categories_segments":[],"categories_sizes":[],"default_left":[0,0,0,0,0,0,0,0,0,0,0,0,0,0,0,0,0],"id":53,"left_children":[1,-1,3,5,7,9,11,13,15,-1,-1,-1,-1,-1,-1,-1,-1],"loss_changes":[3.4785388E0,0E0,3.1270876E0,3.5838728E0,3.227213E0,3.330036E0,4.3441553E0,3.4072685E0,2.133936E0,0E0,0E0,0E0,0E0,0E0,0E0,0E0,0E0],"parents":[2147483647,0,0,2,2,3,3,4,4,5,5,6,6,7,7,8,8],"right_children":[2,-1,4,6,8,10,12,14,16,-1,-1,-1,-1,-1,-1,-1,-1],"split_conditions":[-1.0677356E1,-4.7446262E-2,9.901474E-1,-1.8087174E0,7.654341E0,2.8904357E0,-1.1891512E0,5.132662E0,5.420071E-1,5.638271E-3,-3.6207717E-2,1.948828E-2,-1.0796052E-2,1.0954431E-2,-2.3161182E-2,-5.9370395E-2,1.4008003E-2],"split_indices":[77,0,83,83,77,87,3,83,0,0,0,0,0,0,0,0,0],"split_type":[0,0,0,0,0,0,0,0,0,0,0,0,0,0,0,0,0],"sum_hessian":[3.64E2,3E0,3.61E2,2.57E2,1.04E2,1.03E2,1.54E2,1.01E2,3E0,9.9E1,4E0,1.2E1,1.42E2,9.4E1,7E0,2E0,1E0],"tree_param":{"num_deleted":"0","num_feature":"93","num_nodes":"17","size_leaf_vector":"1"}},{"base_weights":[6.3070687E-3,-5.5046614E-2,1.5390386E-2,-7.863177E-5,6.272847E-1,-1.254466E-1,8.0433264E-2,4.9947724E-2,1.3015804E-1,-4.1520027E-3,-4.5965403E-2,-3.6313653E-2,5.1389886E-3,1.0848925E-2,-2.4219355E-6],"categories":[],"categories_nodes":[],"categories_segments":[],"categories_sizes":[],"default_left":[0,0,0,0,0,0,0,0,0,0,0,0,0,0,0],"id":54,"left_children":[1,-1,3,5,7,9,11,-1,13,-1,-1,-1,-1,-1,-1],"loss_changes":[3.7080123E0,0E0,3.454922E0,3.61351E0,1.5328803E0,4.6367493E0,4.0045457E0,0E0,5.653344E-2,0E0,0E0,0E0,0E0,0E0,0E0],"parents":[2147483647,0,0,2,2,3,3,4,4,5,5,6,6,8,8],"right_children":[2,-1,4,6,8,10,12,-1,14,-1,-1,-1,-1,-1,-1],"split_conditions":[-3.7209253E0,-5.5046614E-2,1.7048314E0,-1.578797E-1,-4.394653E-1,8.28808E0,-1.4730107E0,4.9947724E-2,-1.3935173E0,-4.1520027E-3,-4.5965403E-2,-3.6313653E-2,5.1389886E-3,1.0848925E-2,-2.4219355E-6],"split_indices":[45,0,48,55,44,76,14,0,0,0,0,0,0,0,0],"split_type":[0,0,0,0,0,0,0,0,0,0,0,0,0,0,0],"sum_hessian":[3.66E2,2E0,3.64E2,3.56E2,8E0,1.39E2,2.17E2,4E0,4E0,1.33E2,6E0,5E0,2.12E2,2E0,2E0],"tree_param":{"num_deleted":"0","num_feature":"93","num_nodes":"15","size_leaf_vector":"1"}},{"base_weights":[1.0312424E-2,2.2515939E-1,-2.9039675E-2,-7.2020185E-3,4.7499952E-1,-1.7957479E-1,8.0219135E-2,-3.8884434E-1,2.3421429E-1,7.19793E-1,-1.9635925E-1,-1.5177529E-1,-6.482809E-2,1.2460955E-1,-4.486836E-1,-6.7945407E-3,-3.095747E-2,-7.4398816E-3,2.112175E-2,-6.4153895E-3,4.1057732E-2,-2.5574356E-2,2.4967482E-2,-3.3083346E-2,-4.391283E-3,5.3094694E-4,1.477173E-2,-6.3183787E-3,-5.0178945E-2],"categories":[],"categories_nodes":[],"categories_segments":[],"categories_sizes":[],"default_left":[0,0,0,0,0,0,0,0,0,0,0,0,0,0,0,0,0,0,0,0,0,0,0,0,0,0,0,0,0],"id":55,"left_children":[1,3,5,7,9,11,13,15,17,19,21,23,-1,25,27,-1,-1,-1,-1,-1,-1,-1,-1,-1,-1,-1,-1,-1,-1],"loss_changes":[3.058678E0,3.2544E0,5.0472755E0,2.8551133E0,4.578633E0,3.8088803E0,4.235032E0,6.14941E-1,1.432582E0,1.8246593E0,2.009309E0,4.083025E0,0E0,3.2098167E0,2.3771033E0,0E0,0E0,0E0,0E0,0E0,0E0,0E0,0E0,0E0,0E0,0E0,0E0,0E0,0E0],"parents":[2147483647,0,0,1,1,2,2,3,3,4,4,5,5,6,6,7,7,8,8,9,9,10,10,11,11,13,13,14,14],"right_children":[2,4,6,8,10,12,14,16,18,20,22,24,-1,26,28,-1,-1,-1,-1,-1,-1,-1,-1,-1,-1,-1,-1,-1,-1],"split_conditions":[-9.2336154E-1,-1.582581E-1,-1.3109913E-1,-1.1461161E0,1.1744616E0,1.8458791E0,5.1056015E-1,-2.8259244E0,-4.919092E0,-8.035724E-1,-1.5041643E-1,-9.0898144E-1,-6.482809E-2,7.902549E-1,4.25342E-1,-6.7945407E-3,-3.095747E-2,-7.4398816E-3,2.112175E-2,-6.4153895E-3,4.1057732E-2,-2.5574356E-2,2.4967482E-2,-3.3083346E-2,-4.391283E-3,5.3094694E-4,1.477173E-2,-6.3183787E-3,-5.0178945E-2],"split_indices":[23,50,55,80,87,57,15,33,79,58,1,58,0,78,5,0,0,0,0,0,0,0,0,0,0,0,0,0,0],"split_type":[0,0,0,0,0,0,0,0,0,0,0,0,0,0,0,0,0,0,0,0,0,0,0,0,0,0,0,0,0],"sum_hessian":[3.6E2,5.5E1,3.05E2,2.9E1,2.6E1,1.28E2,1.77E2,1.1E1,1.8E1,1.9E1,7E0,1.26E2,2E0,1.64E2,1.3E1,6E0,5E0,6E0,1.2E1,2E0,1.7E1,5E0,2E0,1.3E1,1.13E2,9.9E1,6.5E1,9E0,4E0],"tree_param":{"num_deleted":"0","num_feature":"93","num_nodes":"29","size_leaf_vector":"1"}},{"base_weights":[-3.0579142E-2,-5.2936055E-2,-2.1470942E-2,5.0828323E-2,-1.5738325E-1,3.480112E-1,-1.1757484E-2,1.7228952E-1,-2.6071432E-1,2.5105705E-2,5.9056136E-5,-3.1942893E-3,2.551086E-2,2.4153104E-2,-2.22319E-3,1.602162E-2,-1.6029455E-2],"categories":[],"categories_nodes":[],"categories_segments":[],"categories_sizes":[],"default_left":[0,0,0,0,0,0,0,0,0,0,0,0,0,0,0,0,0],"id":56,"left_children":[1,-1,3,5,7,9,11,13,15,-1,-1,-1,-1,-1,-1,-1,-1],"loss_changes":[3.1986642E0,0E0,3.3686144E0,4.170364E0,4.0987053E0,2.0838609E0,5.093591E0,1.9749472E0,3.269166E0,0E0,0E0,0E0,0E0,0E0,0E0,0E0,0E0],"parents":[2147483647,0,0,2,2,3,3,4,4,5,5,6,6,7,7,8,8],"right_children":[2,-1,4,6,8,10,12,14,16,-1,-1,-1,-1,-1,-1,-1,-1],"split_conditions":[-3.2900286E0,-5.2936055E-2,5.152384E-1,-2.3006995E0,-1.069008E0,9.005302E-1,8.9778495E-1,7.191152E-1,-8.2695353E-1,2.5105705E-2,5.9056136E-5,-3.1942893E-3,2.551086E-2,2.4153104E-2,-2.22319E-3,1.602162E-2,-1.6029455E-2],"split_indices":[88,0,66,85,86,16,63,23,14,0,0,0,0,0,0,0,0],"split_type":[0,0,0,0,0,0,0,0,0,0,0,0,0,0,0,0,0],"sum_hessian":[3.43E2,2E0,3.41E2,2.23E2,1.18E2,3.8E1,1.85E2,2.8E1,9E1,2.6E1,1.2E1,1.69E2,1.6E1,1.1E1,1.7E1,8E0,8.2E1],"tree_param":{"num_deleted":"0","num_feature":"93","num_nodes":"17","size_leaf_vector":"1"}},{"base_weights":[-8.2563255E-3,1.2120399E-1,-7.748096E-2,-6.80633E-2,2.7461463E-1,-4.0674176E-2,-5.64402E-1,1.22876905E-1,-3.1513652E-1,3.1594697E-1,-5.0702184E-1,-8.56277E-2,3.4312552E-1,-8.34441E-1,-5.942614E-2,-1.2769197E-2,1.3463308E-2,-3.3694763E-2,-3.5602096E-4,2.339092E-2,6.804636E-3,-3.5209209E-3,-3.1454176E-2,-1.4671612E-2,-5.37321E-4,-1.0476264E-2,2.3206597E-2,-5.116067E-2,-1.2414303E-2,1.4438155E-2,-1.2822724E-2],"categories":[],"categories_nodes":[],"categories_segments":[],"categories_sizes":[],"default_left":[0,0,0,0,0,0,0,0,0,0,0,0,0,0,0,0,0,0,0,0,0,0,0,0,0,0,0,0,0,0,0],"id":57,"left_children":[1,3,5,7,9,11,13,15,17,19,21,23,25,27,29,-1,-1,-1,-1,-1,-1,-1,-1,-1,-1,-1,-1,-1,-1,-1,-1],"loss_changes":[3.3431964E0,3.7933214E0,4.3320885E0,2.8221195E0,2.4862862E0,3.9458454E0,2.2685866E0,1.9514592E0,2.8682916E0,1.8210492E0,1.6887105E-1,3.1712236E0,1.7022307E0,9.6309805E-1,5.5427665E-1,0E0,0E0,0E0,0E0,0E0,0E0,0E0,0E0,0E0,0E0,0E0,0E0,0E0,0E0,0E0,0E0],"parents":[2147483647,0,0,1,1,2,2,3,3,4,4,5,5,6,6,7,7,8,8,9,9,10,10,11,11,12,12,13,13,14,14],"right_children":[2,4,6,8,10,12,14,16,18,20,22,24,26,28,30,-1,-1,-1,-1,-1,-1,-1,-1,-1,-1,-1,-1,-1,-1,-1,-1],"split_conditions":[-1.0870665E0,-6.068178E-2,1.8501813E0,3.5745528E0,2.360555E0,1.084133E0,-7.553135E-2,-1.3590794E0,5.303279E0,3.983689E-2,-4.334103E-1,-2.7420768E-1,-5.295488E-1,3.2258922E-1,-2.625259E-1,-1.2769197E-2,1.3463308E-2,-3.3694763E-2,-3.5602096E-4,2.339092E-2,6.804636E-3,-3.5209209E-3,-3.1454176E-2,-1.4671612E-2,-5.37321E-4,-1.0476264E-2,2.3206597E-2,-5.116067E-2,-1.2414303E-2,1.4438155E-2,-1.2822724E-2],"split_indices":[86,44,89,81,85,60,81,92,81,47,3,61,86,46,1,0,0,0,0,0,0,0,0,0,0,0,0,0,0,0,0],"split_type":[0,0,0,0,0,0,0,0,0,0,0,0,0,0,0,0,0,0,0,0,0,0,0,0,0,0,0,0,0,0,0],"sum_hessian":[3.71E2,1.29E2,2.42E2,5.8E1,7.1E1,2.26E2,1.6E1,3.3E1,2.5E1,6.8E1,3E0,2.03E2,2.3E1,1E1,6E0,9E0,2.4E1,1.1E1,1.4E1,3.6E1,3.2E1,1E0,2E0,5.3E1,1.5E2,4E0,1.9E1,7E0,3E0,2E0,4E0],"tree_param":{"num_deleted":"0","num_feature":"93","num_nodes":"31","size_leaf_vector":"1"}},{"base_weights":[-6.607264E-4,-1.3696318E-2,6.363154E-1,3.0989945E-1,-3.7999146E-2,4.2196274E-2,7.819347E-2,1.22998115E-2,7.2530895E-1,-6.2398255E-2,-2.6428493E-2,-2.0915833E-3,7.956094E-3,6.9839554E-3,-2.7188852E-2,9.440497E-3,4.6413213E-2,6.4948713E-4,-1.1613817E-2],"categories":[],"categories_nodes":[],"categories_segments":[],"categories_sizes":[],"default_left":[0,0,0,0,0,0,0,0,0,0,0,0,0,0,0,0,0,0,0],"id":58,"left_children":[1,3,5,7,9,-1,11,13,15,-1,17,-1,-1,-1,-1,-1,-1,-1,-1],"loss_changes":[2.898285E0,2.7013636E0,7.4511266E-1,2.958096E0,4.4330487E0,0E0,3.5796657E-2,1.1384444E0,9.1358757E-1,0E0,2.5752056E0,0E0,0E0,0E0,0E0,0E0,0E0,0E0,0E0],"parents":[2147483647,0,0,1,1,2,2,3,3,4,4,6,6,7,7,8,8,10,10],"right_children":[2,4,6,8,10,-1,12,14,16,-1,18,-1,-1,-1,-1,-1,-1,-1,-1],"split_conditions":[1.8717741E0,-1.4237477E0,3.2951218E-1,6.09538E-1,-2.101407E0,4.2196274E-2,2.2982574E-1,1.0607986E0,-4.2524573E-1,-6.2398255E-2,1.1553624E0,-2.0915833E-3,7.956094E-3,6.9839554E-3,-2.7188852E-2,9.440497E-3,4.6413213E-2,6.4948713E-4,-1.1613817E-2],"split_indices":[40,34,58,41,22,0,0,45,61,0,91,0,0,0,0,0,0,0,0],"split_type":[0,0,0,0,0,0,0,0,0,0,0,0,0,0,0,0,0,0,0],"sum_hessian":[3.47E2,3.41E2,6E0,2.3E1,3.18E2,4E0,2E0,1.4E1,9E0,2E0,3.16E2,1E0,1E0,1.2E1,2E0,3E0,6E0,2.66E2,5E1],"tree_param":{"num_deleted":"0","num_feature":"93","num_nodes":"19","size_leaf_vector":"1"}},{"base_weights":[3.1320512E-2,8.87444E-1,1.7122539E-2,2.1643782E-2,5.9886027E-2,4.530353E-2,-2.9813597E-1,-7.5777936E-1,5.7297826E-2,-4.1912517E-1,5.930751E-1,-5.0710727E-2,-1.2437556E-2,3.4442449E-3,-3.5597797E-2,-2.8213182E-2,9.145175E-3,6.2539275E-3,3.5369057E-2],"categories":[],"categories_nodes":[],"categories_segments":[],"categories_sizes":[],"default_left":[0,0,0,0,0,0,0,0,0,0,0,0,0,0,0,0,0,0,0],"id":59,"left_children":[1,3,5,-1,-1,7,9,11,13,15,17,-1,-1,-1,-1,-1,-1,-1,-1],"loss_changes":[4.47008E0,3.2778788E-1,3.2473907E0,0E0,0E0,3.270277E0,3.48338E0,4.003768E-1,2.9993763E0,2.462399E0,1.2550104E-1,0E0,0E0,0E0,0E0,0E0,0E0,0E0,0E0],"parents":[2147483647,0,0,1,1,2,2,5,5,6,6,7,7,8,8,9,9,10,10],"right_children":[2,4,6,-1,-1,8,10,12,14,16,18,-1,-1,-1,-1,-1,-1,-1,-1],"split_conditions":[-2.1828408E0,9.57869E-1,2.5429764E0,2.1643782E-2,5.9886027E-2,-2.5206234E0,8.85766E-1,2.711915E-1,3.6003232E0,2.0430472E0,-6.527183E-1,-5.0710727E-2,-1.2437556E-2,3.4442449E-3,-3.5597797E-2,-2.8213182E-2,9.145175E-3,6.2539275E-3,3.5369057E-2],"split_indices":[47,15,87,0,0,54,44,44,91,80,2,0,0,0,0,0,0,0,0],"split_type":[0,0,0,0,0,0,0,0,0,0,0,0,0,0,0,0,0,0,0],"sum_hessian":[3.68E2,5E0,3.63E2,3E0,2E0,3.34E2,2.9E1,4E0,3.3E2,2.6E1,3E0,2E0,2E0,3.26E2,4E0,2.1E1,5E0,1E0,2E0],"tree_param":{"num_deleted":"0","num_feature":"93","num_nodes":"19","size_leaf_vector":"1"}},{"base_weights":[1.9985635E-2,3.118942E-2,-6.5370506E-1,7.9545856E-1,2.0337207E-2,-6.2297243E-3,-3.6730416E-2,4.7974996E-2,1.831322E-2,-8.3561397E-1,3.000615E-2,-4.902037E-2,-1.0030843E-2,-3.8210902E-2,1.9511514E-3],"categories":[],"categories_nodes":[],"categories_segments":[],"categories_sizes":[],"default_left":[0,0,0,0,0,0,0,0,0,0,0,0,0,0,0],"id":60,"left_children":[1,3,5,7,9,-1,-1,-1,-1,11,13,-1,-1,-1,-1],"loss_changes":[2.767819E0,2.9613721E0,1.6531229E-1,5.9723854E-4,2.963104E0,0E0,0E0,0E0,0E0,1.7108703E-1,2.5506432E0,0E0,0E0,0E0,0E0],"parents":[2147483647,0,0,1,1,2,2,3,3,4,4,9,9,10,10],"right_children":[2,4,6,8,10,-1,-1,-1,-1,12,14,-1,-1,-1,-1],"split_conditions":[3.0995855E0,-2.077203E0,-5.7698566E-1,-1.0249801E0,-2.5206234E0,-6.2297243E-3,-3.6730416E-2,4.7974996E-2,1.831322E-2,4.6409216E0,-1.6208394E0,-4.902037E-2,-1.0030843E-2,-3.8210902E-2,1.9511514E-3],"split_indices":[91,5,26,24,54,0,0,0,0,7,42,0,0,0,0],"split_type":[0,0,0,0,0,0,0,0,0,0,0,0,0,0,0],"sum_hessian":[3.63E2,3.58E2,5E0,4E0,3.54E2,1E0,4E0,2E0,2E0,3E0,3.51E2,2E0,1E0,3E0,3.48E2],"tree_param":{"num_deleted":"0","num_feature":"93","num_nodes":"15","size_leaf_vector":"1"}}]},"name":"gbtree"},"learner_model_param":{"base_score":"[7.891037E-3]","boost_from_average":"1","num_class":"0","num_feature":"93","num_target":"1"},"objective":{"name":"reg:squarederror","reg_loss_param":{"scale_pos_weight":"1"}}},"version":[3,2,0]}